{"learner":{"attributes":{"scikit_learn":"{\"_estimator_type\": \"regressor\"}"},"feature_names":["calisma_saati","genel_bakim_periyodu_saat","sicaklik_durumu","titresim_hissi","yag_seviyesi","genel_durum","sizinti_durumu","kablo_hasar_durumu","hidrolik_yag_durumu","rezistans_kokusu","bor_yag_rengi","spindle_titresim","alt_su_tahliye","mercek_temizligi","kaynak_torcu","kablo_sarmali","isik_bariyeri","sizma_kontrolu","termal_gozlem","sogutma_suyu","teflon_kontrolu","fotosel_algilama"],"feature_types":["int","int","int","int","int","int","int","int","int","int","int","int","int","int","int","int","int","int","int","int","int","int"],"gradient_booster":{"model":{"cats":{"enc":[],"feature_segments":[],"sorted_idx":[]},"gbtree_model_param":{"num_parallel_tree":"1","num_trees":"100"},"iteration_indptr":[0,1,2,3,4,5,6,7,8,9,10,11,12,13,14,15,16,17,18,19,20,21,22,23,24,25,26,27,28,29,30,31,32,33,34,35,36,37,38,39,40,41,42,43,44,45,46,47,48,49,50,51,52,53,54,55,56,57,58,59,60,61,62,63,64,65,66,67,68,69,70,71,72,73,74,75,76,77,78,79,80,81,82,83,84,85,86,87,88,89,90,91,92,93,94,95,96,97,98,99,100],"tree_info":[0,0,0,0,0,0,0,0,0,0,0,0,0,0,0,0,0,0,0,0,0,0,0,0,0,0,0,0,0,0,0,0,0,0,0,0,0,0,0,0,0,0,0,0,0,0,0,0,0,0,0,0,0,0,0,0,0,0,0,0,0,0,0,0,0,0,0,0,0,0,0,0,0,0,0,0,0,0,0,0,0,0,0,0,0,0,0,0,0,0,0,0,0,0,0,0,0,0,0,0],"trees":[{"base_weights":[-4.4745573E-7,-3.256566E1,2.089975E1,-4.5276432E1,-2.0766226E1,5.601222E0,2.9668175E1,-5.149514E1,-3.949176E1,-1.0276474E1,-2.6099041E1,1.5890681E1,-1.0178064E1,2.134753E1,3.4448246E1,-5.1916477E1,-1.9541765E1,-4.013042E1,-4.0744786E0,-2.0136776E1,-3.5207431E0,-2.902187E1,-1.4528782E1,2.258729E1,7.1425495E0,-1.2639245E1,8.329287E0,1.402224E1,2.8765179E1,3.090312E1,3.747397E1,-5.4532413E1,-4.8809788E1,-7.36476E0,-4.6414566E0,-4.073526E1,-1.9632694E1,-8.283584E0,6.0004473E0,-2.187174E1,5.3795204E0,-6.6522694E0,1.08165655E1,-3.3505375E1,-2.4064127E1,-1.6719843E1,9.415003E0,1.4866278E1,2.9559788E1,3.5894623E0,2.3580492E1,-6.9082704E0,-1.9573614E1,6.0459223E0,2.4393253E1,3.0759178E1,2.427946E0,3.507236E1,2.3412071E1,3.8022263E1,1.938352E1,1.2106312E1,3.499427E1,-1.6401869E1,-5.6243887E0,-1.46769495E1,-1.6412911E0,-1.2629128E-1,-1.7723885E0,-1.1407973E1,-1.3454736E1,-6.0335574E0,-1.2917914E0,-2.8484242E0,5.7420903E-1,-2.312914E-1,2.3658135E0,-6.7488303E0,9.005148E-1,8.7269294E-1,4.2876115E0,-2.2984762E0,5.315198E0,2.5636787E0,7.2677402E0,-8.809435E0,-1.0948834E1,-5.2880983E0,-8.343953E0,-6.226415E0,-1.6895175E0,1.197216E0,4.912366E0,3.3603494E0,8.157381E0,7.899051E0,1.1360839E1,-8.0640584E-1,3.2365875E0,5.0296974E0,9.25174E0,-3.6381538E0,-2.9944226E-1,-6.9273624E0,-4.2977514E0,-5.928615E-1,2.8433712E0,2.4843132E0,9.034644E0,1.1444115E1,7.3029222E0,3.2571156E0,-1.7168567E0,9.430454E0,1.1506845E1,3.5677376E0,1.0478775E1,1.2358513E1,1.0564121E1,7.358884E0,2.7173717E0,7.544068E0,1.1891443E1],"categories":[],"categories_nodes":[],"categories_segments":[],"categories_sizes":[],"default_left":[0,0,0,0,0,0,0,0,0,0,0,0,0,0,0,0,0,0,0,0,0,0,0,0,0,0,0,0,0,0,0,0,0,0,0,0,0,0,0,0,0,0,0,0,0,0,0,0,0,0,0,0,0,0,0,0,0,0,0,0,0,0,0,0,0,0,0,0,0,0,0,0,0,0,0,0,0,0,0,0,0,0,0,0,0,0,0,0,0,0,0,0,0,0,0,0,0,0,0,0,0,0,0,0,0,0,0,0,0,0,0,0,0,0,0,0,0,0,0,0,0,0,0],"id":0,"left_children":[1,3,5,7,9,11,13,15,17,19,21,23,25,27,29,31,33,35,37,39,41,43,45,47,49,51,53,55,57,59,61,63,65,-1,67,69,71,73,75,77,79,81,83,85,87,89,91,93,95,97,99,101,103,105,107,109,111,113,115,117,119,-1,121,-1,-1,-1,-1,-1,-1,-1,-1,-1,-1,-1,-1,-1,-1,-1,-1,-1,-1,-1,-1,-1,-1,-1,-1,-1,-1,-1,-1,-1,-1,-1,-1,-1,-1,-1,-1,-1,-1,-1,-1,-1,-1,-1,-1,-1,-1,-1,-1,-1,-1,-1,-1,-1,-1,-1,-1,-1,-1,-1,-1],"loss_changes":[5.446274E6,4.68197E5,6.536515E5,5.2106E4,9.057819E4,2.88676E5,1.2248225E5,8.705875E3,1.757025E4,3.6499945E4,3.5966438E4,6.2873812E4,3.208132E4,6.1159812E4,1.993025E4,3.1245E3,7.06791E2,8.7465E3,6.858015E2,9.989836E3,1.4753487E4,1.8265375E4,1.1646656E4,3.2345906E4,2.7249102E4,2.4504016E4,2.8969502E3,1.1092361E5,1.815375E4,7.397375E4,6.1305E3,8.7525E2,1.3784375E3,0E0,1.8893982E1,6.6185E3,8.965527E1,1.5403406E2,6.992076E1,3.3132812E3,2.8870633E2,6.752245E3,1.5896421E3,4.4760938E3,9.428453E3,8.8756875E3,6.519142E2,1.2840617E4,7.5639062E3,1.7473348E4,3.5886797E3,1.0505846E4,4.837867E3,2.056082E3,6.7258936E2,1.01633125E4,2.3352777E4,1.8521562E3,4.031536E4,3.5573125E3,1.837561E4,0E0,2.5297938E4,0E0,0E0,0E0,0E0,0E0,0E0,0E0,0E0,0E0,0E0,0E0,0E0,0E0,0E0,0E0,0E0,0E0,0E0,0E0,0E0,0E0,0E0,0E0,0E0,0E0,0E0,0E0,0E0,0E0,0E0,0E0,0E0,0E0,0E0,0E0,0E0,0E0,0E0,0E0,0E0,0E0,0E0,0E0,0E0,0E0,0E0,0E0,0E0,0E0,0E0,0E0,0E0,0E0,0E0,0E0,0E0,0E0,0E0,0E0,0E0],"parents":[2147483647,0,0,1,1,2,2,3,3,4,4,5,5,6,6,7,7,8,8,9,9,10,10,11,11,12,12,13,13,14,14,15,15,16,16,17,17,18,18,19,19,20,20,21,21,22,22,23,23,24,24,25,25,26,26,27,27,28,28,29,29,30,30,31,31,32,32,34,34,35,35,36,36,37,37,38,38,39,39,40,40,41,41,42,42,43,43,44,44,45,45,46,46,47,47,48,48,49,49,50,50,51,51,52,52,53,53,54,54,55,55,56,56,57,57,58,58,59,59,60,60,62,62],"right_children":[2,4,6,8,10,12,14,16,18,20,22,24,26,28,30,32,34,36,38,40,42,44,46,48,50,52,54,56,58,60,62,64,66,-1,68,70,72,74,76,78,80,82,84,86,88,90,92,94,96,98,100,102,104,106,108,110,112,114,116,118,120,-1,122,-1,-1,-1,-1,-1,-1,-1,-1,-1,-1,-1,-1,-1,-1,-1,-1,-1,-1,-1,-1,-1,-1,-1,-1,-1,-1,-1,-1,-1,-1,-1,-1,-1,-1,-1,-1,-1,-1,-1,-1,-1,-1,-1,-1,-1,-1,-1,-1,-1,-1,-1,-1,-1,-1,-1,-1,-1,-1,-1,-1],"split_conditions":[2.309E3,1.126E3,3.583E3,5.69E2,5E3,6E3,1E0,2E0,2E0,1.61E3,1E0,5E3,2E0,4.74E3,4.954E3,3.11E2,1E0,2E0,2E0,2E0,2E0,1.721E3,2E0,2.931E3,2E0,8E3,2E0,6E3,8E3,6E3,8E3,2E0,2E0,-7.36476E0,5E3,6E3,2E0,2E0,5.87E2,2E0,2E0,2E0,2E0,6E3,6E3,2E0,2E0,2E0,2E0,2.978E3,3.054E3,3.026E3,3.13E3,2.702E3,2E0,5E3,8E3,5.288E3,6.405E3,5E3,8E3,1.2106312E1,6.405E3,-1.6401869E1,-5.6243887E0,-1.46769495E1,-1.6412911E0,-1.2629128E-1,-1.7723885E0,-1.1407973E1,-1.3454736E1,-6.0335574E0,-1.2917914E0,-2.8484242E0,5.7420903E-1,-2.312914E-1,2.3658135E0,-6.7488303E0,9.005148E-1,8.7269294E-1,4.2876115E0,-2.2984762E0,5.315198E0,2.5636787E0,7.2677402E0,-8.809435E0,-1.0948834E1,-5.2880983E0,-8.343953E0,-6.226415E0,-1.6895175E0,1.197216E0,4.912366E0,3.3603494E0,8.157381E0,7.899051E0,1.1360839E1,-8.0640584E-1,3.2365875E0,5.0296974E0,9.25174E0,-3.6381538E0,-2.9944226E-1,-6.9273624E0,-4.2977514E0,-5.928615E-1,2.8433712E0,2.4843132E0,9.034644E0,1.1444115E1,7.3029222E0,3.2571156E0,-1.7168567E0,9.430454E0,1.1506845E1,3.5677376E0,1.0478775E1,1.2358513E1,1.0564121E1,7.358884E0,2.7173717E0,7.544068E0,1.1891443E1],"split_indices":[0,0,0,0,1,1,5,2,4,0,5,1,5,0,0,0,4,2,2,2,5,0,4,0,5,1,4,1,1,1,1,4,19,0,1,1,3,3,0,4,4,4,4,1,1,2,5,5,5,0,0,0,0,0,2,1,1,0,0,1,1,0,0,0,0,0,0,0,0,0,0,0,0,0,0,0,0,0,0,0,0,0,0,0,0,0,0,0,0,0,0,0,0,0,0,0,0,0,0,0,0,0,0,0,0,0,0,0,0,0,0,0,0,0,0,0,0,0,0,0,0,0,0],"split_type":[0,0,0,0,0,0,0,0,0,0,0,0,0,0,0,0,0,0,0,0,0,0,0,0,0,0,0,0,0,0,0,0,0,0,0,0,0,0,0,0,0,0,0,0,0,0,0,0,0,0,0,0,0,0,0,0,0,0,0,0,0,0,0,0,0,0,0,0,0,0,0,0,0,0,0,0,0,0,0,0,0,0,0,0,0,0,0,0,0,0,0,0,0,0,0,0,0,0,0,0,0,0,0,0,0,0,0,0,0,0,0,0,0,0,0,0,0,0,0,0,0,0,0],"sum_hessian":[8E3,3.127E3,4.873E3,1.504E3,1.623E3,1.776E3,3.097E3,7.21E2,7.83E2,5.48E2,1.075E3,1.075E3,7.01E2,1.132E3,1.965E3,7.11E2,1E1,7.69E2,1.4E1,2.22E2,3.26E2,8.57E2,2.18E2,6.08E2,4.67E2,6.19E2,8.2E1,5.71E2,5.61E2,9.1E2,1.055E3,3.77E2,3.34E2,7E0,3E0,7.46E2,2.3E1,1E1,4E0,2.08E2,1.4E1,2.68E2,5.8E1,4.47E2,4.1E2,2E2,1.8E1,2.9E2,3.18E2,3.85E2,8.2E1,3.4E2,2.79E2,7.3E1,9E0,2.33E2,3.38E2,2.55E2,3.06E2,5.61E2,3.49E2,4.81E2,5.74E2,3.75E2,2E0,3.33E2,1E0,1E0,2E0,4.56E2,2.9E2,2.2E1,1E0,9E0,1E0,1E0,3E0,2.03E2,5E0,1.2E1,2E0,2.58E2,1E1,5.1E1,7E0,1.92E2,2.55E2,1.53E2,2.57E2,1.46E2,5.4E1,1.1E1,7E0,2.25E2,6.5E1,2.32E2,8.6E1,2.06E2,1.79E2,4.4E1,3.8E1,1.8E2,1.6E2,1.65E2,1.14E2,2.2E1,5.1E1,3E0,6E0,1.06E2,1.27E2,1.66E2,1.72E2,1.26E2,1.29E2,1.54E2,1.52E2,2.57E2,3.04E2,2.32E2,1.17E2,1.86E2,3.88E2],"tree_param":{"num_deleted":"0","num_feature":"22","num_nodes":"123","size_leaf_vector":"1"}},{"base_weights":[7.865233E-3,-2.1148972E1,1.5912543E1,-3.0420238E1,-1.1473776E1,6.556527E0,2.174733E1,-3.4889107E1,-2.4383347E1,-6.6006603E0,-1.9142744E1,1.4365584E1,-4.886969E0,1.6249472E1,2.47148E1,-3.5661434E1,-2.3544262E1,-2.5590744E1,-8.36979E0,-1.0863194E1,5.686846E-1,-2.0270967E1,-1.8075254E0,1.8938673E1,8.427175E0,-6.8654995E0,9.062117E0,2.6033909E1,1.3165418E1,2.2949574E1,8.785025E0,-3.7792236E1,-3.296139E1,-2.6457006E1,-6.3105574E0,-2.0991896E1,-2.7919579E1,-1.12633915E1,7.349704E0,-1.273696E1,1.8248267E0,-1.097216E0,7.3804626E0,-1.7059193E1,-2.4508654E1,-7.8189907E0,3.7396033E0,1.4178881E1,2.3731413E1,6.864235E0,8.889946E0,-2.5403934E0,-1.2117169E1,7.3269644E0,2.0699835E1,2.2756266E1,8.735612E0,4.588853E0,2.0703918E1,2.7002312E1,2.0796232E1,-1.1347881E1,-3.0296328E0,-9.035156E0,-1.0354859E1,-8.466715E0,-5.4932814E0,-3.965479E-1,-3.0742588E0,-6.3848066E0,2.6642919E0,-8.4422865E0,-6.570893E-1,-1.7778659E0,-4.096418E0,2.7049074E0,-8.975281E-1,-3.9273975E0,5.183949E0,-1.07832596E-1,5.4073076E0,8.641858E-1,-1.9028896E0,-6.1900973E0,-4.0347404E0,-8.1679945E0,-6.4485965E0,-2.8156867E0,1.2561386E0,3.7589163E-1,4.3848605E0,3.3830254E0,6.9896083E0,6.356331E0,8.116223E0,1.2563438E0,5.2656426E0,-1.0350109E0,6.874168E0,-3.758238E0,3.9355183E0,2.698471E0,-8.205815E-1,3.160225E0,7.5011907E0,8.713463E0,4.8265157E0,3.2674978E0,-5.760765E-1,5.556464E0,8.937816E0,7.3417172E0,8.612366E0,3.8571644E0,7.753349E0],"categories":[],"categories_nodes":[],"categories_segments":[],"categories_sizes":[],"default_left":[0,0,0,0,0,0,0,0,0,0,0,0,0,0,0,0,0,0,0,0,0,0,0,0,0,0,0,0,0,0,0,0,0,0,0,0,0,0,0,0,0,0,0,0,0,0,0,0,0,0,0,0,0,0,0,0,0,0,0,0,0,0,0,0,0,0,0,0,0,0,0,0,0,0,0,0,0,0,0,0,0,0,0,0,0,0,0,0,0,0,0,0,0,0,0,0,0,0,0,0,0,0,0,0,0,0,0,0,0,0,0,0,0,0,0],"id":1,"left_children":[1,3,5,7,9,11,13,15,17,19,21,23,25,27,29,31,33,35,37,39,41,43,45,47,49,51,53,55,57,59,-1,61,63,65,67,69,71,73,75,77,79,81,-1,83,85,87,89,91,93,95,-1,97,99,101,103,105,-1,107,109,111,113,-1,-1,-1,-1,-1,-1,-1,-1,-1,-1,-1,-1,-1,-1,-1,-1,-1,-1,-1,-1,-1,-1,-1,-1,-1,-1,-1,-1,-1,-1,-1,-1,-1,-1,-1,-1,-1,-1,-1,-1,-1,-1,-1,-1,-1,-1,-1,-1,-1,-1,-1,-1,-1,-1],"loss_changes":[2.6926145E6,3.0768525E5,2.4922612E5,4.6441875E4,6.2732953E4,1.569915E5,4.549175E4,7.966125E3,1.42675E4,3.148254E4,1.273475E4,2.8192188E4,1.9740084E4,2.9501031E4,1.4046E4,4.156625E3,3.1962656E3,6.8680312E3,2.5390234E3,1.53815E4,1.5440988E4,7.9251094E3,1.3964412E3,1.3100031E4,1.4910107E4,1.4165486E4,1.6455288E3,1.7235312E3,4.865442E4,1.096675E4,0E0,1.0625E2,8.26625E2,3.029336E2,2.0249994E2,2.256461E3,2.5528125E3,5.061753E2,1.8209549E2,6.2147734E3,2.9787456E3,7.55116E3,0E0,4.264711E3,1.5605938E3,4.1548218E2,5.767003E2,7.6243945E3,1.8946875E3,1.2112371E4,0E0,8.0441357E3,3.0841406E3,1.3504761E3,2.1790869E2,4.522586E3,0E0,1.4543992E4,7.4020938E3,1.2607812E3,3.441553E4,0E0,0E0,0E0,0E0,0E0,0E0,0E0,0E0,0E0,0E0,0E0,0E0,0E0,0E0,0E0,0E0,0E0,0E0,0E0,0E0,0E0,0E0,0E0,0E0,0E0,0E0,0E0,0E0,0E0,0E0,0E0,0E0,0E0,0E0,0E0,0E0,0E0,0E0,0E0,0E0,0E0,0E0,0E0,0E0,0E0,0E0,0E0,0E0,0E0,0E0,0E0,0E0,0E0,0E0],"parents":[2147483647,0,0,1,1,2,2,3,3,4,4,5,5,6,6,7,7,8,8,9,9,10,10,11,11,12,12,13,13,14,14,15,15,16,16,17,17,18,18,19,19,20,20,21,21,22,22,23,23,24,24,25,25,26,26,27,27,28,28,29,29,31,31,32,32,33,33,34,34,35,35,36,36,37,37,38,38,39,39,40,40,41,41,43,43,44,44,45,45,46,46,47,47,48,48,49,49,51,51,52,52,53,53,54,54,55,55,57,57,58,58,59,59,60,60],"right_children":[2,4,6,8,10,12,14,16,18,20,22,24,26,28,30,32,34,36,38,40,42,44,46,48,50,52,54,56,58,60,-1,62,64,66,68,70,72,74,76,78,80,82,-1,84,86,88,90,92,94,96,-1,98,100,102,104,106,-1,108,110,112,114,-1,-1,-1,-1,-1,-1,-1,-1,-1,-1,-1,-1,-1,-1,-1,-1,-1,-1,-1,-1,-1,-1,-1,-1,-1,-1,-1,-1,-1,-1,-1,-1,-1,-1,-1,-1,-1,-1,-1,-1,-1,-1,-1,-1,-1,-1,-1,-1,-1,-1,-1,-1,-1,-1],"split_conditions":[2.546E3,1.318E3,3.805E3,7.77E2,6E3,6E3,1E0,1E0,2E0,2.073E3,2E0,5E3,2E0,6E3,2E0,4.32E2,2E0,5E3,2E0,2E0,2E0,8E3,1.965E3,3.151E3,2E0,8E3,2E0,4.331E3,5.09E3,6E3,8.785025E0,2E0,5E3,2E0,6E3,2E0,2E0,5E3,2E0,2E0,2E0,5E3,7.3804626E0,1.926E3,1.926E3,2E0,2E0,2E0,1E0,2E0,8.889946E0,2E0,2E0,2E0,2E0,5E3,8.735612E0,8E3,7.525E3,4.254E3,5.475E3,-1.1347881E1,-3.0296328E0,-9.035156E0,-1.0354859E1,-8.466715E0,-5.4932814E0,-3.965479E-1,-3.0742588E0,-6.3848066E0,2.6642919E0,-8.4422865E0,-6.570893E-1,-1.7778659E0,-4.096418E0,2.7049074E0,-8.975281E-1,-3.9273975E0,5.183949E0,-1.07832596E-1,5.4073076E0,8.641858E-1,-1.9028896E0,-6.1900973E0,-4.0347404E0,-8.1679945E0,-6.4485965E0,-2.8156867E0,1.2561386E0,3.7589163E-1,4.3848605E0,3.3830254E0,6.9896083E0,6.356331E0,8.116223E0,1.2563438E0,5.2656426E0,-1.0350109E0,6.874168E0,-3.758238E0,3.9355183E0,2.698471E0,-8.205815E-1,3.160225E0,7.5011907E0,8.713463E0,4.8265157E0,3.2674978E0,-5.760765E-1,5.556464E0,8.937816E0,7.3417172E0,8.612366E0,3.8571644E0,7.753349E0],"split_indices":[0,0,0,0,1,1,5,5,5,0,2,1,5,1,2,0,4,1,4,5,4,1,0,0,4,1,4,0,0,1,0,4,1,2,1,19,19,1,6,19,4,1,0,0,0,4,4,5,2,5,0,4,19,6,2,1,0,1,0,0,0,0,0,0,0,0,0,0,0,0,0,0,0,0,0,0,0,0,0,0,0,0,0,0,0,0,0,0,0,0,0,0,0,0,0,0,0,0,0,0,0,0,0,0,0,0,0,0,0,0,0,0,0,0,0],"split_type":[0,0,0,0,0,0,0,0,0,0,0,0,0,0,0,0,0,0,0,0,0,0,0,0,0,0,0,0,0,0,0,0,0,0,0,0,0,0,0,0,0,0,0,0,0,0,0,0,0,0,0,0,0,0,0,0,0,0,0,0,0,0,0,0,0,0,0,0,0,0,0,0,0,0,0,0,0,0,0,0,0,0,0,0,0,0,0,0,0,0,0,0,0,0,0,0,0,0,0,0,0,0,0,0,0,0,0,0,0,0,0,0,0,0,0],"sum_hessian":[8E3,3.433E3,4.567E3,1.752E3,1.681E3,1.755E3,2.812E3,1.004E3,7.48E2,1.029E3,6.52E2,1.043E3,7.12E2,9.88E2,1.824E3,9.38E2,6.6E1,6.95E2,5.3E1,6.45E2,3.84E2,6.12E2,4E1,5.88E2,4.55E2,6.24E2,8.8E1,2.35E2,7.53E2,1.32E3,5.04E2,5.17E2,4.21E2,5.6E1,1E1,2.37E2,4.58E2,4.5E1,8E0,5.62E2,8.3E1,3.6E2,2.4E1,3.51E2,2.61E2,1.9E1,2.1E1,2.97E2,2.91E2,4.25E2,3E1,3.43E2,2.81E2,7.8E1,1E1,1.18E2,1.17E2,3.53E2,4E2,4.54E2,8.66E2,5.16E2,1E0,1.56E2,2.65E2,4.4E1,1.2E1,5E0,5E0,2.35E2,2E0,4.54E2,4E0,1.5E1,3E1,7E0,1E0,5.56E2,6E0,7.4E1,9E0,2.05E2,1.55E2,1.74E2,1.77E2,1.33E2,1.28E2,1.7E1,2E0,1.8E1,3E0,2.27E2,7E1,1.69E2,1.22E2,3.41E2,8.4E1,3.32E2,1.1E1,2.77E2,4E0,6.7E1,1.1E1,4E0,6E0,5.9E1,5.9E1,1.79E2,1.74E2,3.25E2,7.5E1,1.89E2,2.65E2,3.38E2,5.28E2],"tree_param":{"num_deleted":"0","num_feature":"22","num_nodes":"115","size_leaf_vector":"1"}},{"base_weights":[1.2729439E-2,-1.4050392E1,1.1843093E1,-2.058863E1,-6.3901806E0,6.257328E0,1.5831086E1,-2.4075386E1,-1.5890382E1,6.930444E-1,-9.945037E0,1.20165615E1,-1.9884614E0,1.8422298E1,1.2306101E1,-2.4599564E1,-1.4486115E1,-1.6373114E1,3.7847676E0,-5.9460247E-1,1.8532436E1,-1.0556958E1,1.3482097E1,1.528346E1,7.7542896E0,-2.8955116E0,1.834058E1,1.6079067E1,2.004491E1,3.434035E0,1.7797615E1,-2.6561495E1,-2.287722E1,-1.6650621E1,-1.7820728E0,-1.7094582E1,-7.241941E0,7.1823273E0,6.3807076E-1,-1.9013197E0,1.0653977E1,3.8916657E0,7.0229716E0,-1.1720834E1,-1.9116644E0,9.076491E0,1.6058025E1,1.2275373E1,1.936829E1,6.0877576E0,1.7736994E1,6.166074E-1,-7.306994E0,1.081271E1,6.3812556E0,1.8805105E1,1.0292899E1,1.9159212E1,6.570842E0,2.1185377E0,7.129743E0,1.289804E1,2.0832806E1,-8.487081E0,-7.624894E0,-6.8919764E0,-1.0131117E0,-5.1946707E0,-2.6000302E0,-1.0345677E0,9.767742E-1,-4.0806136E0,-5.672424E0,-3.2106326E0,-1.478075E0,9.3531746E-1,2.8117325E0,-6.967415E-1,5.648912E-1,-7.1776664E-1,7.1071362E0,1.1746387E0,4.1479053E0,-2.9788766E0,-4.9907885E0,-1.4485977E0,1.0213275E0,2.8172684E0,7.955492E-1,3.2345822E0,6.6165037E0,3.4105601E0,7.5836353E0,5.0471315E0,6.164559E0,1.5317568E0,6.183618E0,5.18544E-1,5.463076E0,-2.9413426E-1,2.8445807E0,-2.339195E0,4.6563563E0,3.752202E0,1.4160817E0,6.360883E0,5.004068E0,2.6755977E0,7.8567634E0,6.3711085E0,5.166202E0,1.3075654E-1,4.30604E0,3.0796964E0,5.976468E0,5.6167707E0,6.5055757E0],"categories":[],"categories_nodes":[],"categories_segments":[],"categories_sizes":[],"default_left":[0,0,0,0,0,0,0,0,0,0,0,0,0,0,0,0,0,0,0,0,0,0,0,0,0,0,0,0,0,0,0,0,0,0,0,0,0,0,0,0,0,0,0,0,0,0,0,0,0,0,0,0,0,0,0,0,0,0,0,0,0,0,0,0,0,0,0,0,0,0,0,0,0,0,0,0,0,0,0,0,0,0,0,0,0,0,0,0,0,0,0,0,0,0,0,0,0,0,0,0,0,0,0,0,0,0,0,0,0,0,0,0,0,0,0,0,0],"id":2,"left_children":[1,3,5,7,9,11,13,15,17,19,21,23,25,27,29,31,33,35,37,39,41,43,45,47,49,51,53,55,57,59,61,63,65,67,69,71,73,75,77,79,81,-1,-1,83,85,87,89,91,93,95,97,99,101,103,-1,105,107,109,-1,111,-1,113,115,-1,-1,-1,-1,-1,-1,-1,-1,-1,-1,-1,-1,-1,-1,-1,-1,-1,-1,-1,-1,-1,-1,-1,-1,-1,-1,-1,-1,-1,-1,-1,-1,-1,-1,-1,-1,-1,-1,-1,-1,-1,-1,-1,-1,-1,-1,-1,-1,-1,-1,-1,-1,-1,-1],"loss_changes":[1.3313075E6,1.8297662E5,9.6712375E4,3.1922E4,4.2434938E4,8.607473E4,2.2927938E4,5.323625E3,8.0686094E3,1.2966571E4,1.6226828E4,1.4738828E4,1.3808941E4,5.2250625E3,5.2411484E4,3.0079375E3,1.6477031E3,5.2980156E3,2.1993008E2,7.766479E3,7.26875E2,1.0985477E4,1.8335645E2,7.171625E3,7.627994E3,1.1082467E4,4.758838E2,9.301984E3,9.9221875E2,1.0995912E4,9.620594E3,2.5896875E2,1.00296875E3,1.25990234E2,9.518556E1,4.5690938E3,4.439148E2,5.9798706E1,4.860009E1,6.003045E3,1.1216025E3,0E0,0E0,8.3220625E3,2.047856E3,1.3560791E0,3.0009473E2,3.8398281E3,4.1709375E2,5.599335E3,4.6855078E2,5.658504E3,3.6692578E3,5.453064E1,0E0,1.7251406E3,4.0262734E3,2.0067344E3,0E0,8.002281E3,0E0,4.5470625E3,3.2973438E2,0E0,0E0,0E0,0E0,0E0,0E0,0E0,0E0,0E0,0E0,0E0,0E0,0E0,0E0,0E0,0E0,0E0,0E0,0E0,0E0,0E0,0E0,0E0,0E0,0E0,0E0,0E0,0E0,0E0,0E0,0E0,0E0,0E0,0E0,0E0,0E0,0E0,0E0,0E0,0E0,0E0,0E0,0E0,0E0,0E0,0E0,0E0,0E0,0E0,0E0,0E0,0E0,0E0,0E0],"parents":[2147483647,0,0,1,1,2,2,3,3,4,4,5,5,6,6,7,7,8,8,9,9,10,10,11,11,12,12,13,13,14,14,15,15,16,16,17,17,18,18,19,19,20,20,21,21,22,22,23,23,24,24,25,25,26,26,27,27,28,28,29,29,30,30,31,31,32,32,33,33,34,34,35,35,36,36,37,37,38,38,39,39,40,40,43,43,44,44,45,45,46,46,47,47,48,48,49,49,50,50,51,51,52,52,53,53,55,55,56,56,57,57,59,59,61,61,62,62],"right_children":[2,4,6,8,10,12,14,16,18,20,22,24,26,28,30,32,34,36,38,40,42,44,46,48,50,52,54,56,58,60,62,64,66,68,70,72,74,76,78,80,82,-1,-1,84,86,88,90,92,94,96,98,100,102,104,-1,106,108,110,-1,112,-1,114,116,-1,-1,-1,-1,-1,-1,-1,-1,-1,-1,-1,-1,-1,-1,-1,-1,-1,-1,-1,-1,-1,-1,-1,-1,-1,-1,-1,-1,-1,-1,-1,-1,-1,-1,-1,-1,-1,-1,-1,-1,-1,-1,-1,-1,-1,-1,-1,-1,-1,-1,-1,-1,-1,-1],"split_conditions":[2.702E3,1.488E3,3.999E3,8.74E2,5E3,6E3,8E3,1E0,2E0,2E0,2E0,5E3,2E0,4.659E3,5.871E3,4.13E2,2E0,2E0,5E3,2E0,2.337E3,1E0,1E0,3.404E3,2E0,8E3,3.19E3,6E3,5.692E3,2E0,7.04E3,1.81E2,2E0,2E0,6.26E2,5E3,1E0,1E0,1.019E3,2E0,1.898E3,3.8916657E0,7.0229716E0,8E3,2E0,1E0,2.287E3,2E0,1E0,2E0,2.794E3,2E0,2E0,8E3,6.3812556E0,5E3,2E0,6E3,6.570842E0,2E0,7.129743E0,2E0,7.683E3,-8.487081E0,-7.624894E0,-6.8919764E0,-1.0131117E0,-5.1946707E0,-2.6000302E0,-1.0345677E0,9.767742E-1,-4.0806136E0,-5.672424E0,-3.2106326E0,-1.478075E0,9.3531746E-1,2.8117325E0,-6.967415E-1,5.648912E-1,-7.1776664E-1,7.1071362E0,1.1746387E0,4.1479053E0,-2.9788766E0,-4.9907885E0,-1.4485977E0,1.0213275E0,2.8172684E0,7.955492E-1,3.2345822E0,6.6165037E0,3.4105601E0,7.5836353E0,5.0471315E0,6.164559E0,1.5317568E0,6.183618E0,5.18544E-1,5.463076E0,-2.9413426E-1,2.8445807E0,-2.339195E0,4.6563563E0,3.752202E0,1.4160817E0,6.360883E0,5.004068E0,2.6755977E0,7.8567634E0,6.3711085E0,5.166202E0,1.3075654E-1,4.30604E0,3.0796964E0,5.976468E0,5.6167707E0,6.5055757E0],"split_indices":[0,0,0,0,1,1,1,2,4,4,4,1,4,0,0,0,4,5,1,2,0,3,2,0,2,1,0,1,0,4,0,0,4,3,0,1,3,2,0,19,0,0,0,1,5,6,0,4,5,4,0,5,19,1,0,1,4,1,0,2,0,5,0,0,0,0,0,0,0,0,0,0,0,0,0,0,0,0,0,0,0,0,0,0,0,0,0,0,0,0,0,0,0,0,0,0,0,0,0,0,0,0,0,0,0,0,0,0,0,0,0,0,0,0,0,0,0],"split_type":[0,0,0,0,0,0,0,0,0,0,0,0,0,0,0,0,0,0,0,0,0,0,0,0,0,0,0,0,0,0,0,0,0,0,0,0,0,0,0,0,0,0,0,0,0,0,0,0,0,0,0,0,0,0,0,0,0,0,0,0,0,0,0,0,0,0,0,0,0,0,0,0,0,0,0,0,0,0,0,0,0,0,0,0,0,0,0,0,0,0,0,0,0,0,0,0,0,0,0,0,0,0,0,0,0,0,0,0,0,0,0,0,0,0,0,0,0],"sum_hessian":[8E3,3.655E3,4.345E3,1.971E3,1.684E3,1.811E3,2.534E3,1.129E3,8.42E2,5.63E2,1.121E3,1.066E3,7.45E2,1.458E3,1.076E3,1.069E3,6E1,8.22E2,2E1,5.26E2,3.7E1,1.093E3,2.8E1,6.02E2,4.64E2,7.14E2,3.1E1,6.01E2,8.57E2,4.12E2,6.64E2,4.93E2,5.76E2,5.1E1,9E0,7.61E2,6.1E1,9E0,1.1E1,4.72E2,5.4E1,1.9E1,1.8E1,9.63E2,1.3E2,1.2E1,1.6E1,3.49E2,2.53E2,3.99E2,6.5E1,3.98E2,3.16E2,1E1,2.1E1,4.07E2,1.94E2,5.88E2,2.69E2,3.88E2,2.4E1,2.56E2,4.08E2,1.87E2,3.06E2,5.73E2,3E0,4.6E1,5E0,7E0,2E0,2.63E2,4.98E2,2.3E1,3.8E1,4E0,5E0,3E0,8E0,4.64E2,8E0,1.8E1,3.6E1,7.08E2,2.55E2,8.4E1,4.6E1,1.1E1,1E0,1E1,6E0,3.28E2,2.1E1,8.5E1,1.68E2,3.75E2,2.4E1,2E0,6.3E1,3.38E2,6E1,3.1E2,6E0,7E0,3E0,1.87E2,2.2E2,1.8E2,1.4E1,2.79E2,3.09E2,3.42E2,4.6E1,1.88E2,6.8E1,1.24E2,2.84E2],"tree_param":{"num_deleted":"0","num_feature":"22","num_nodes":"117","size_leaf_vector":"1"}},{"base_weights":[2.2667501E-2,-1.1907778E1,7.071825E0,-1.6699436E1,-8.566232E0,7.281474E-1,1.0090815E1,-1.718024E1,-1.0891043E1,-9.822403E0,-1.7498118E0,-2.9654145E0,5.9331264E0,6.954288E0,1.1976539E1,-1.8513424E1,-1.575781E1,-1.2139969E1,-1.9832851E0,-8.031706E0,-1.2442724E1,3.4034553E-1,-7.101777E0,3.975604E-1,-6.7346354E0,9.854533E0,2.4854143E0,4.1879663E0,9.82847E0,1.0460415E1,1.3988775E1,-5.8877764E0,-1.7597267E1,-1.4416594E1,-1.7725239E1,-1.3398714E1,-7.9835644E0,-5.7844987E0,1.1155357E0,-9.822466E0,-4.105659E0,-1.2609647E1,6.15638E0,-1.8387736E0,4.351289E0,-1.0598805E1,-2.1178963E0,-6.792857E-2,7.005888E0,-6.937675E0,2.813662E0,8.804381E0,1.8274778E1,1.3301508E0,1.3174855E1,9.921221E0,-2.2757433E-1,1.262592E1,7.312333E0,9.613962E0,5.1353326E0,1.4812193E1,1.0231675E1,-4.9413958E0,-5.701096E0,-4.3647623E0,1.5062032E0,-4.9109454E0,-5.7358503E0,-4.1517763E0,-2.0721116E0,-2.5198364E0,1.1251717E-1,-1.995787E0,-2.1658117E-1,-3.0753115E-1,1.0537354E0,-3.0085242E0,1.0302926E0,-1.3033208E0,2.9395838E0,-3.3211496E0,-4.4270887E0,9.461212E-3,2.7632754E0,-9.2437845E-1,1.7983248E0,1.133381E0,4.769052E0,-3.4288778E0,-4.999791E-1,-1.1199017E0,1.32431E0,6.785227E-1,-6.9423825E-1,-1.6123573E0,-2.5846705E0,2.0621257E0,4.3659706E0,2.9874015E0,5.7155247E0,2.5973967E-1,6.7102942E0,4.406298E0,1.5076207E0,3.7623737E0,2.1354132E0,8.0139637E-1,-9.4697374E-1,3.308473E0,4.736981E0,1.1505363E0,4.161171E0,3.338719E0,1.9784434E0,3.4573708E0,4.481638E0,3.6203558E0,1.942938E0],"categories":[],"categories_nodes":[],"categories_segments":[],"categories_sizes":[],"default_left":[0,0,0,0,0,0,0,0,0,0,0,0,0,0,0,0,0,0,0,0,0,0,0,0,0,0,0,0,0,0,0,0,0,0,0,0,0,0,0,0,0,0,0,0,0,0,0,0,0,0,0,0,0,0,0,0,0,0,0,0,0,0,0,0,0,0,0,0,0,0,0,0,0,0,0,0,0,0,0,0,0,0,0,0,0,0,0,0,0,0,0,0,0,0,0,0,0,0,0,0,0,0,0,0,0,0,0,0,0,0,0,0,0,0,0,0,0,0,0],"id":3,"left_children":[1,3,5,7,9,11,13,15,17,19,21,23,25,27,29,31,33,35,37,39,41,43,45,47,49,51,53,55,57,59,61,-1,63,65,67,69,71,73,75,77,79,81,83,85,87,89,91,93,-1,95,-1,97,99,101,103,105,107,109,111,113,-1,115,117,-1,-1,-1,-1,-1,-1,-1,-1,-1,-1,-1,-1,-1,-1,-1,-1,-1,-1,-1,-1,-1,-1,-1,-1,-1,-1,-1,-1,-1,-1,-1,-1,-1,-1,-1,-1,-1,-1,-1,-1,-1,-1,-1,-1,-1,-1,-1,-1,-1,-1,-1,-1,-1,-1,-1,-1],"loss_changes":[6.72965E5,4.744322E4,9.632469E4,3.2200312E3,1.4993023E4,3.1219625E4,2.0073781E4,1.8416562E3,1.0439375E3,6.8445156E3,3.0675042E3,1.2044685E4,9.087908E3,1.015191E4,6.3426875E3,2.4070312E2,1.1984219E3,3.3250586E2,1.5958344E2,6.160664E3,1.9372969E3,1.7385851E3,1.3195681E3,5.376385E3,1.5307773E3,2.624502E3,4.428158E3,1.658386E4,4.3280195E3,6.693375E3,2.6667812E3,0E0,2.01625E2,9.3140625E2,1.0088281E2,8.458203E1,7.9628174E1,2.1566849E1,4.4648083E1,1.6862188E3,9.654053E2,1.7998281E3,1.1196089E2,1.2739812E3,4.0331946E2,3.1488525E2,3.6463928E2,2.5902883E3,0E0,1.1155977E3,0E0,3.0298555E3,2.9987305E1,3.1652637E3,3.57687E2,2.0038828E3,3.1585483E3,1.322168E3,7.540664E3,4.8760156E3,0E0,1.3792188E2,1.0733477E3,0E0,0E0,0E0,0E0,0E0,0E0,0E0,0E0,0E0,0E0,0E0,0E0,0E0,0E0,0E0,0E0,0E0,0E0,0E0,0E0,0E0,0E0,0E0,0E0,0E0,0E0,0E0,0E0,0E0,0E0,0E0,0E0,0E0,0E0,0E0,0E0,0E0,0E0,0E0,0E0,0E0,0E0,0E0,0E0,0E0,0E0,0E0,0E0,0E0,0E0,0E0,0E0,0E0,0E0,0E0,0E0],"parents":[2147483647,0,0,1,1,2,2,3,3,4,4,5,5,6,6,7,7,8,8,9,9,10,10,11,11,12,12,13,13,14,14,15,15,16,16,17,17,18,18,19,19,20,20,21,21,22,22,23,23,24,24,25,25,26,26,27,27,28,28,29,29,30,30,32,32,33,33,34,34,35,35,36,36,37,37,38,38,39,39,40,40,41,41,42,42,43,43,44,44,45,45,46,46,47,47,49,49,51,51,52,52,53,53,54,54,55,55,56,56,57,57,58,58,59,59,61,61,62,62],"right_children":[2,4,6,8,10,12,14,16,18,20,22,24,26,28,30,32,34,36,38,40,42,44,46,48,50,52,54,56,58,60,62,-1,64,66,68,70,72,74,76,78,80,82,84,86,88,90,92,94,-1,96,-1,98,100,102,104,106,108,110,112,114,-1,116,118,-1,-1,-1,-1,-1,-1,-1,-1,-1,-1,-1,-1,-1,-1,-1,-1,-1,-1,-1,-1,-1,-1,-1,-1,-1,-1,-1,-1,-1,-1,-1,-1,-1,-1,-1,-1,-1,-1,-1,-1,-1,-1,-1,-1,-1,-1,-1,-1,-1,-1,-1,-1,-1,-1,-1,-1],"split_conditions":[2.187E3,9.39E2,3.363E3,1E0,1E0,1E0,1E0,4.81E2,2E0,6E3,6E3,6E3,5E3,4.551E3,2E0,2.24E2,6E3,2E0,2E0,1.765E3,2E0,1.787E3,2E0,2E0,2E0,2E0,2E0,6E3,8E3,2E0,2E0,-5.8877764E0,6E3,2E0,8E3,2E0,1E0,1E0,5.87E2,2E0,2E0,8E3,1.105E3,2E0,2E0,2E0,1.965E3,5E3,7.005888E0,8E3,2.813662E0,2E0,2.366E3,2E0,8E3,5E3,8E3,5.433E3,6.833E3,8E3,5.1353326E0,3.467E3,8E3,-4.9413958E0,-5.701096E0,-4.3647623E0,1.5062032E0,-4.9109454E0,-5.7358503E0,-4.1517763E0,-2.0721116E0,-2.5198364E0,1.1251717E-1,-1.995787E0,-2.1658117E-1,-3.0753115E-1,1.0537354E0,-3.0085242E0,1.0302926E0,-1.3033208E0,2.9395838E0,-3.3211496E0,-4.4270887E0,9.461212E-3,2.7632754E0,-9.2437845E-1,1.7983248E0,1.133381E0,4.769052E0,-3.4288778E0,-4.999791E-1,-1.1199017E0,1.32431E0,6.785227E-1,-6.9423825E-1,-1.6123573E0,-2.5846705E0,2.0621257E0,4.3659706E0,2.9874015E0,5.7155247E0,2.5973967E-1,6.7102942E0,4.406298E0,1.5076207E0,3.7623737E0,2.1354132E0,8.0139637E-1,-9.4697374E-1,3.308473E0,4.736981E0,1.1505363E0,4.161171E0,3.338719E0,1.9784434E0,3.4573708E0,4.481638E0,3.6203558E0,1.942938E0],"split_indices":[0,0,0,5,2,5,5,0,4,1,1,1,1,0,5,0,1,2,5,0,19,0,2,19,4,4,4,1,1,4,6,0,1,19,1,3,7,18,0,4,19,1,0,4,19,3,0,1,0,1,0,2,0,19,1,1,1,0,0,1,0,0,1,0,0,0,0,0,0,0,0,0,0,0,0,0,0,0,0,0,0,0,0,0,0,0,0,0,0,0,0,0,0,0,0,0,0,0,0,0,0,0,0,0,0,0,0,0,0,0,0,0,0,0,0,0,0,0,0],"split_type":[0,0,0,0,0,0,0,0,0,0,0,0,0,0,0,0,0,0,0,0,0,0,0,0,0,0,0,0,0,0,0,0,0,0,0,0,0,0,0,0,0,0,0,0,0,0,0,0,0,0,0,0,0,0,0,0,0,0,0,0,0,0,0,0,0,0,0,0,0,0,0,0,0,0,0,0,0,0,0,0,0,0,0,0,0,0,0,0,0,0,0,0,0,0,0,0,0,0,0,0,0,0,0,0,0,0,0,0,0,0,0,0,0,0,0,0,0,0,0],"sum_hessian":[8E3,2.971E3,5.029E3,1.219E3,1.752E3,1.622E3,3.407E3,1.124E3,9.5E1,1.479E3,2.73E2,9.49E2,6.73E2,1.281E3,2.126E3,5.74E2,5.5E2,8.3E1,1.2E1,8.81E2,5.98E2,1.97E2,7.6E1,5.02E2,4.47E2,3.14E2,3.59E2,6.54E2,6.27E2,1.216E3,9.1E2,2.5E2,3.24E2,3.32E2,2.18E2,6.2E1,2.1E1,5E0,7E0,6.04E2,2.77E2,5.93E2,5E0,1.28E2,6.9E1,4.4E1,3.2E1,4.93E2,9E0,4.42E2,5E0,2.81E2,3.3E1,3.25E2,3.4E1,2.84E2,3.7E2,2.95E2,3.32E2,1.081E3,1.35E2,7.44E2,1.66E2,1.87E2,1.37E2,3.3E2,2E0,1.17E2,1.01E2,5.7E1,5E0,2E1,1E0,4E0,1E0,4E0,3E0,5.95E2,9E0,2.73E2,4E0,3.49E2,2.44E2,2E0,3E0,1.11E2,1.7E1,6.7E1,2E0,4E1,4E0,2.6E1,6E0,2.42E2,2.51E2,2.31E2,2.11E2,2.12E2,6.9E1,4E0,2.9E1,3.19E2,6E0,2.8E1,6E0,1.45E2,1.39E2,1.86E2,1.84E2,1.99E2,9.6E1,2.18E2,1.14E2,7.18E2,3.63E2,3.1E1,7.13E2,1.1E2,5.6E1],"tree_param":{"num_deleted":"0","num_feature":"22","num_nodes":"119","size_leaf_vector":"1"}},{"base_weights":[2.0152349E-2,-6.693905E0,6.220967E0,-9.943217E0,-2.515274E0,3.768749E0,8.4229965E0,-1.2388533E1,-8.154548E0,-4.4331565E0,1.5489025E0,6.9995074E0,-8.9589965E-1,9.909685E0,6.719017E0,-1.2502853E1,-2.7820327E0,-8.694878E0,-2.3555462E0,-1.1967589E0,-5.652188E0,5.7893056E-1,1.0640582E1,8.7607155E0,4.7396083E0,-1.5239756E0,1.0580339E1,9.337313E0,1.124802E1,2.1322315E0,9.892126E0,-1.1108695E1,-1.3130865E1,-4.444127E0,-3.7925085E-1,-8.852982E0,1.0119424E1,-3.8788323E0,2.5978496E0,-4.698844E0,-5.8703013E-2,-5.76151E0,1.0321615E1,1.922214E-1,5.724923E0,8.123179E0,1.2845555E1,6.942623E0,1.0424251E1,3.3504655E0,9.105673E0,-1.823953E0,1.92312E1,4.7372255E0,1.2030364E1,8.250063E0,1.1059062E1,1.2338186E1,3.1858203E0,1.4034485E0,1.3590864E1,7.53033E0,1.1626457E1,-3.3496916E0,7.680422E-1,-3.958037E0,-1.3736863E0,-1.4940797E0,-1.8409425E-1,2.3031694E-1,-5.346398E-1,-2.445402E0,-3.6899478E0,4.2019467E0,2.3616172E-1,-1.4262182E-1,-2.1569717E0,3.5605708E-1,1.8774409E0,-1.4617376E0,1.2743797E0,-1.2790887E-1,2.5099735E0,-1.4748429E0,-2.3981917E0,6.107254E-1,3.4714916E0,-3.82141E-1,1.3513811E0,2.4900062E0,5.288006E-1,4.1919546E0,1.5944673E0,1.7584468E0,3.807604E0,2.7216446E0,3.3696597E0,8.973591E-1,6.039495E0,1.0763452E0,2.9870293E0,3.8705082E-3,-1.2819397E0,2.2686806E0,6.7985296E0,1.773278E0,8.484269E-3,2.96011E0,4.278458E0,3.1524613E0,1.6590253E0,3.0634634E0,3.6533964E0,3.1165411E0,3.999084E0,1.9675744E-1,3.4788682E0,1.59283E0,4.3436437E0,2.0355737E0,4.574552E0,3.609527E0,3.0370123E0],"categories":[],"categories_nodes":[],"categories_segments":[],"categories_sizes":[],"default_left":[0,0,0,0,0,0,0,0,0,0,0,0,0,0,0,0,0,0,0,0,0,0,0,0,0,0,0,0,0,0,0,0,0,0,0,0,0,0,0,0,0,0,0,0,0,0,0,0,0,0,0,0,0,0,0,0,0,0,0,0,0,0,0,0,0,0,0,0,0,0,0,0,0,0,0,0,0,0,0,0,0,0,0,0,0,0,0,0,0,0,0,0,0,0,0,0,0,0,0,0,0,0,0,0,0,0,0,0,0,0,0,0,0,0,0,0,0,0,0,0,0,0,0],"id":4,"left_children":[1,3,5,7,9,11,13,15,17,19,21,23,25,27,29,31,33,35,37,39,41,43,45,47,49,51,53,55,57,59,61,63,65,67,69,71,73,75,77,79,81,83,85,87,-1,89,91,93,95,97,99,101,103,105,107,109,111,113,-1,115,117,119,121,-1,-1,-1,-1,-1,-1,-1,-1,-1,-1,-1,-1,-1,-1,-1,-1,-1,-1,-1,-1,-1,-1,-1,-1,-1,-1,-1,-1,-1,-1,-1,-1,-1,-1,-1,-1,-1,-1,-1,-1,-1,-1,-1,-1,-1,-1,-1,-1,-1,-1,-1,-1,-1,-1,-1,-1,-1,-1,-1,-1],"loss_changes":[3.3314425E5,5.2140438E4,2.2431656E4,9.350875E3,1.3117408E4,2.9694867E4,5.4838438E3,9.657031E2,3.899375E3,4.5026777E3,4.755924E3,4.591371E3,5.8329395E3,7.896953E2,1.4882586E4,6.42125E2,4.6238365E1,3.4925469E3,8.24984E2,1.2511926E3,1.5088867E3,3.4954802E3,1.8429492E2,1.9026016E3,3.0748154E3,4.804257E3,2.9886133E2,1.4512656E3,1.0540625E2,3.4882852E3,2.3906094E3,2.5119531E2,2.6878906E2,1.1319565E1,1.1022596E1,2.6446797E3,3.5172327E2,9.319082E2,1.2685306E2,1.4030127E2,7.4080493E2,1.5176816E3,3.8588196E1,3.0403262E3,0E0,1.5739258E1,1.4652051E2,1.8836006E3,2.684336E2,2.2910747E3,5.4191113E2,3.401138E3,2.689668E2,5.510176E1,1.8563477E1,3.0682148E3,1.753086E2,9.363672E1,0E0,3.0099238E3,1.0696289E2,1.3859648E3,8.958594E1,0E0,0E0,0E0,0E0,0E0,0E0,0E0,0E0,0E0,0E0,0E0,0E0,0E0,0E0,0E0,0E0,0E0,0E0,0E0,0E0,0E0,0E0,0E0,0E0,0E0,0E0,0E0,0E0,0E0,0E0,0E0,0E0,0E0,0E0,0E0,0E0,0E0,0E0,0E0,0E0,0E0,0E0,0E0,0E0,0E0,0E0,0E0,0E0,0E0,0E0,0E0,0E0,0E0,0E0,0E0,0E0,0E0,0E0,0E0,0E0],"parents":[2147483647,0,0,1,1,2,2,3,3,4,4,5,5,6,6,7,7,8,8,9,9,10,10,11,11,12,12,13,13,14,14,15,15,16,16,17,17,18,18,19,19,20,20,21,21,22,22,23,23,24,24,25,25,26,26,27,27,28,28,29,29,30,30,31,31,32,32,33,33,34,34,35,35,36,36,37,37,38,38,39,39,40,40,41,41,42,42,43,43,45,45,46,46,47,47,48,48,49,49,50,50,51,51,52,52,53,53,54,54,55,55,56,56,57,57,59,59,60,60,61,61,62,62],"right_children":[2,4,6,8,10,12,14,16,18,20,22,24,26,28,30,32,34,36,38,40,42,44,46,48,50,52,54,56,58,60,62,64,66,68,70,72,74,76,78,80,82,84,86,88,-1,90,92,94,96,98,100,102,104,106,108,110,112,114,-1,116,118,120,122,-1,-1,-1,-1,-1,-1,-1,-1,-1,-1,-1,-1,-1,-1,-1,-1,-1,-1,-1,-1,-1,-1,-1,-1,-1,-1,-1,-1,-1,-1,-1,-1,-1,-1,-1,-1,-1,-1,-1,-1,-1,-1,-1,-1,-1,-1,-1,-1,-1,-1,-1,-1,-1,-1,-1,-1,-1,-1,-1,-1],"split_conditions":[2.839E3,1.61E3,4.254E3,7.01E2,1E0,6E3,8E3,2E0,1E0,5E3,2E0,5E3,2E0,2E0,6.143E3,5E3,2E0,2E0,2E0,1.878E3,2E0,2E0,2.366E3,3.467E3,2E0,2E0,3.19E3,5.258E3,4.954E3,2E0,7.334E3,2E0,2E0,1E0,6E3,8E3,8E3,5E3,2E0,2E0,2E0,8E3,1.814E3,2E0,5.724923E0,2E0,6E3,2E0,3.774E3,2E0,2.978E3,8E3,3.448E3,3.151E3,1E0,6E3,5.871E3,4.406E3,3.1858203E0,2E0,4.659E3,2E0,2E0,-3.3496916E0,7.680422E-1,-3.958037E0,-1.3736863E0,-1.4940797E0,-1.8409425E-1,2.3031694E-1,-5.346398E-1,-2.445402E0,-3.6899478E0,4.2019467E0,2.3616172E-1,-1.4262182E-1,-2.1569717E0,3.5605708E-1,1.8774409E0,-1.4617376E0,1.2743797E0,-1.2790887E-1,2.5099735E0,-1.4748429E0,-2.3981917E0,6.107254E-1,3.4714916E0,-3.82141E-1,1.3513811E0,2.4900062E0,5.288006E-1,4.1919546E0,1.5944673E0,1.7584468E0,3.807604E0,2.7216446E0,3.3696597E0,8.973591E-1,6.039495E0,1.0763452E0,2.9870293E0,3.8705082E-3,-1.2819397E0,2.2686806E0,6.7985296E0,1.773278E0,8.484269E-3,2.96011E0,4.278458E0,3.1524613E0,1.6590253E0,3.0634634E0,3.6533964E0,3.1165411E0,3.999084E0,1.9675744E-1,3.4788682E0,1.59283E0,4.3436437E0,2.0355737E0,4.574552E0,3.609527E0,3.0370123E0],"split_indices":[0,0,0,0,5,1,1,4,3,1,4,1,4,5,0,1,5,19,2,0,19,19,0,0,5,19,0,0,0,4,0,19,3,18,1,1,1,1,3,19,4,1,0,2,0,10,1,2,0,19,0,1,0,0,3,1,0,0,0,3,0,4,2,0,0,0,0,0,0,0,0,0,0,0,0,0,0,0,0,0,0,0,0,0,0,0,0,0,0,0,0,0,0,0,0,0,0,0,0,0,0,0,0,0,0,0,0,0,0,0,0,0,0,0,0,0,0,0,0,0,0,0,0],"split_type":[0,0,0,0,0,0,0,0,0,0,0,0,0,0,0,0,0,0,0,0,0,0,0,0,0,0,0,0,0,0,0,0,0,0,0,0,0,0,0,0,0,0,0,0,0,0,0,0,0,0,0,0,0,0,0,0,0,0,0,0,0,0,0,0,0,0,0,0,0,0,0,0,0,0,0,0,0,0,0,0,0,0,0,0,0,0,0,0,0,0,0,0,0,0,0,0,0,0,0,0,0,0,0,0,0,0,0,0,0,0,0,0,0,0,0,0,0,0,0,0,0,0,0],"sum_hessian":[8E3,3.841E3,4.159E3,2.16E3,1.681E3,1.969E3,2.19E3,9.1E2,1.25E3,1.142E3,5.39E2,1.163E3,8.06E2,1.167E3,1.023E3,8.99E2,1.1E1,1.143E3,1.07E2,3.13E2,8.29E2,4.88E2,5.1E1,6.52E2,5.11E2,7.65E2,4.1E1,8.23E2,3.44E2,4.19E2,6.04E2,2.85E2,6.14E2,6E0,5E0,1.134E3,9E0,8.2E1,2.5E1,7.6E1,2.37E2,8.24E2,5E0,4.79E2,9E0,2.6E1,2.5E1,3.14E2,3.38E2,3.89E2,1.22E2,7.55E2,1E1,9E0,3.2E1,5.08E2,3.15E2,1.19E2,2.25E2,3.95E2,2.4E1,2.58E2,3.46E2,2.84E2,1E0,6.09E2,5E0,5E0,1E0,3E0,2E0,9.45E2,1.89E2,6E0,3E0,4.1E1,4.1E1,1.9E1,6E0,7.5E1,1E0,2.28E2,9E0,6E2,2.24E2,1E0,4E0,3.58E2,1.21E2,2.5E1,1E0,2.1E1,4E0,2.66E2,4.8E1,1.31E2,2.07E2,3.82E2,7E0,1.7E1,1.05E2,4.32E2,3.23E2,3E0,7E0,7E0,2E0,1.9E1,1.3E1,2.76E2,2.32E2,1.85E2,1.3E2,4.4E1,7.5E1,3.69E2,2.6E1,3E0,2.1E1,2.37E2,2.1E1,2.67E2,7.9E1],"tree_param":{"num_deleted":"0","num_feature":"22","num_nodes":"123","size_leaf_vector":"1"}},{"base_weights":[2.540644E-2,-6.043596E0,3.4937432E0,-8.056762E0,-4.1458483E0,2.8872547E-1,4.990443E0,-8.386055E0,-4.7752275E0,-1.6264277E0,-5.3776736E0,-1.2251976E0,4.409684E0,4.605964E0,9.442039E0,-7.169081E0,-8.975571E0,-5.3545504E0,-5.753817E-1,-2.8280106E0,1.0447818E0,-5.563637E0,4.5852413E0,5.4641324E-1,-3.545899E0,5.80118E0,8.617168E-1,3.7727587E0,6.9431815E0,3.4935112E0,8.863642E0,-9.264544E0,-6.5909758E0,-8.568761E0,-1.0025516E1,-5.4955096E0,1.6072174E0,-2.5245204E0,1.9329643E0,-2.9924536E0,2.6463108E0,2.9092357E-1,6.724437E0,-5.740531E0,7.126382E-1,2.4474766E0,5.917481E0,8.5056625E-2,9.2282715E0,-3.7263212E0,4.312293E0,5.0951514E0,1.063084E1,3.3429284E-2,7.9314466E0,3.562867E0,1.4734955E1,7.528413E0,4.269999E0,9.504904E0,2.2187004E0,-2.800353E0,-4.6613276E-1,-1.9968613E0,8.539124E-1,-2.957703E0,-2.4456646E0,-3.018692E0,-2.1799737E-1,-1.8505701E0,-9.6238685E-1,-1.8161866E-1,-1.1109113E0,-2.0438005E-1,7.2112495E-1,-1.1394414E0,-3.375566E-1,-2.5672471E-2,3.8492677E0,2.2255855E0,7.3204565E-1,-1.7436222E0,1.4550738E0,-2.110853E-1,1.5185769E0,1.2809739E0,3.9503798E-1,1.8628727E0,4.4948044E-1,-5.0505403E-2,4.384118E0,1.2489998E0,3.2655349E0,-1.2359998E0,-6.993444E-1,1.66178E0,1.4205867E-1,1.4031506E0,4.410463E0,2.658947E0,4.2973976E0,4.5344132E-1,-7.688915E-1,9.145908E-1,3.504358E0,7.5201744E-1,1.7562034E0,5.2959213E0,2.989866E0,2.1100385E0,2.3829877E0,5.376435E-1,2.0673175E0,2.5912542E0,3.1309824E0],"categories":[],"categories_nodes":[],"categories_segments":[],"categories_sizes":[],"default_left":[0,0,0,0,0,0,0,0,0,0,0,0,0,0,0,0,0,0,0,0,0,0,0,0,0,0,0,0,0,0,0,0,0,0,0,0,0,0,0,0,0,0,0,0,0,0,0,0,0,0,0,0,0,0,0,0,0,0,0,0,0,0,0,0,0,0,0,0,0,0,0,0,0,0,0,0,0,0,0,0,0,0,0,0,0,0,0,0,0,0,0,0,0,0,0,0,0,0,0,0,0,0,0,0,0,0,0,0,0,0,0,0,0,0,0],"id":5,"left_children":[1,3,5,7,9,11,13,15,17,19,21,23,25,27,29,31,33,35,37,39,41,43,45,47,49,51,53,55,57,-1,59,61,63,65,67,69,-1,71,73,75,-1,77,79,81,83,85,87,89,91,93,95,97,99,101,103,105,107,109,111,113,-1,-1,-1,-1,-1,-1,-1,-1,-1,-1,-1,-1,-1,-1,-1,-1,-1,-1,-1,-1,-1,-1,-1,-1,-1,-1,-1,-1,-1,-1,-1,-1,-1,-1,-1,-1,-1,-1,-1,-1,-1,-1,-1,-1,-1,-1,-1,-1,-1,-1,-1,-1,-1,-1,-1],"loss_changes":[1.6843689E5,1.1084203E4,2.4424633E4,1.4846562E3,4.6464824E3,1.0124759E4,5.8972812E3,8.546719E2,3.1565112E2,1.5885366E3,1.8912168E3,4.882145E3,2.1475264E3,6.199586E3,2.471875E2,4.5135742E2,2.81E2,2.030852E2,8.799474E1,6.7961646E2,6.5741864E2,1.1021152E3,3.9629395E1,2.6988767E3,7.4481445E2,1.013126E3,7.2585016E2,5.3752656E3,1.2804102E3,0E0,1.3868555E2,3.351172E1,2.2516699E2,2.560664E2,7.274414E1,1.5573218E2,0E0,2.037542E1,1.1483528E1,5.0271802E2,0E0,6.4791315E2,3.5430603E1,7.570918E2,1.7603322E2,1.2922791E1,4.8955383E0,2.3624172E3,2.4000342E2,2.6666846E2,5.3897736E1,1.0354478E3,1.2768848E2,4.3368387E2,2.024093E2,5.5895215E3,4.3635742E2,8.5203125E1,9.813242E2,3.188379E1,0E0,0E0,0E0,0E0,0E0,0E0,0E0,0E0,0E0,0E0,0E0,0E0,0E0,0E0,0E0,0E0,0E0,0E0,0E0,0E0,0E0,0E0,0E0,0E0,0E0,0E0,0E0,0E0,0E0,0E0,0E0,0E0,0E0,0E0,0E0,0E0,0E0,0E0,0E0,0E0,0E0,0E0,0E0,0E0,0E0,0E0,0E0,0E0,0E0,0E0,0E0,0E0,0E0,0E0,0E0],"parents":[2147483647,0,0,1,1,2,2,3,3,4,4,5,5,6,6,7,7,8,8,9,9,10,10,11,11,12,12,13,13,14,14,15,15,16,16,17,17,18,18,19,19,20,20,21,21,22,22,23,23,24,24,25,25,26,26,27,27,28,28,30,30,31,31,32,32,33,33,34,34,35,35,37,37,38,38,39,39,41,41,42,42,43,43,44,44,45,45,46,46,47,47,48,48,49,49,50,50,51,51,52,52,53,53,54,54,55,55,56,56,57,57,58,58,59,59],"right_children":[2,4,6,8,10,12,14,16,18,20,22,24,26,28,30,32,34,36,38,40,42,44,46,48,50,52,54,56,58,-1,60,62,64,66,68,70,-1,72,74,76,-1,78,80,82,84,86,88,90,92,94,96,98,100,102,104,106,108,110,112,114,-1,-1,-1,-1,-1,-1,-1,-1,-1,-1,-1,-1,-1,-1,-1,-1,-1,-1,-1,-1,-1,-1,-1,-1,-1,-1,-1,-1,-1,-1,-1,-1,-1,-1,-1,-1,-1,-1,-1,-1,-1,-1,-1,-1,-1,-1,-1,-1,-1,-1,-1,-1,-1,-1,-1],"split_conditions":[2.137E3,1.06E3,3.313E3,1E0,5E3,1E0,2E0,5E3,2E0,1E0,2E0,6E3,6E3,2E0,1E0,2.67E2,8E3,2E0,1E0,2E0,2E0,2E0,1.507E3,2E0,2E0,2E0,2E0,2E0,2E0,3.4935112E0,5.624E3,1E0,2E0,2.47E2,1E0,2E0,1.6072174E0,6E3,6.26E2,1.835E3,2.6463108E0,2E0,1E0,2E0,2E0,1.174E3,1E0,2E0,2.389E3,3.091E3,1E0,2E0,2E0,8E3,2E0,5.368E3,5.258E3,1E0,1E0,6E3,2.2187004E0,-2.800353E0,-4.6613276E-1,-1.9968613E0,8.539124E-1,-2.957703E0,-2.4456646E0,-3.018692E0,-2.1799737E-1,-1.8505701E0,-9.6238685E-1,-1.8161866E-1,-1.1109113E0,-2.0438005E-1,7.2112495E-1,-1.1394414E0,-3.375566E-1,-2.5672471E-2,3.8492677E0,2.2255855E0,7.3204565E-1,-1.7436222E0,1.4550738E0,-2.110853E-1,1.5185769E0,1.2809739E0,3.9503798E-1,1.8628727E0,4.4948044E-1,-5.0505403E-2,4.384118E0,1.2489998E0,3.2655349E0,-1.2359998E0,-6.993444E-1,1.66178E0,1.4205867E-1,1.4031506E0,4.410463E0,2.658947E0,4.2973976E0,4.5344132E-1,-7.688915E-1,9.145908E-1,3.504358E0,7.5201744E-1,1.7562034E0,5.2959213E0,2.989866E0,2.1100385E0,2.3829877E0,5.376435E-1,2.0673175E0,2.5912542E0,3.1309824E0],"split_indices":[0,0,0,5,1,2,4,1,4,5,4,1,1,5,5,0,1,19,3,19,4,3,0,4,4,3,3,19,6,0,0,4,4,0,19,2,0,1,0,0,0,19,6,19,2,0,10,19,0,0,6,19,2,1,2,0,0,3,2,1,0,0,0,0,0,0,0,0,0,0,0,0,0,0,0,0,0,0,0,0,0,0,0,0,0,0,0,0,0,0,0,0,0,0,0,0,0,0,0,0,0,0,0,0,0,0,0,0,0,0,0,0,0,0,0],"split_type":[0,0,0,0,0,0,0,0,0,0,0,0,0,0,0,0,0,0,0,0,0,0,0,0,0,0,0,0,0,0,0,0,0,0,0,0,0,0,0,0,0,0,0,0,0,0,0,0,0,0,0,0,0,0,0,0,0,0,0,0,0,0,0,0,0,0,0,0,0,0,0,0,0,0,0,0,0,0,0,0,0,0,0,0,0,0,0,0,0,0,0,0,0,0,0,0,0,0,0,0,0,0,0,0,0,0,0,0,0,0,0,0,0,0,0],"sum_hessian":[8E3,2.909E3,5.091E3,1.41E3,1.499E3,1.621E3,3.47E3,1.28E3,1.3E2,4.93E2,1.006E3,1.186E3,4.35E2,3.196E3,2.74E2,4.22E2,8.58E2,1.14E2,1.6E1,3.4E2,1.53E2,9.88E2,1.8E1,6.73E2,5.13E2,3.12E2,1.23E2,2.358E3,8.38E2,5.3E1,2.21E2,8.8E1,3.34E2,6.25E2,2.33E2,1.13E2,1E0,9E0,7E0,3.36E2,4E0,1.36E2,1.7E1,9.61E2,2.7E1,8E0,1E1,6.4E2,3.3E1,5.02E2,1.1E1,2.74E2,3.8E1,1.11E2,1.2E1,2.315E3,4.3E1,6.86E2,1.52E2,1.5E2,7.1E1,8.7E1,1E0,3.32E2,2E0,1.47E2,4.78E2,2.32E2,1E0,8.6E1,2.7E1,4E0,5E0,1E0,6E0,2.34E2,1.02E2,1.33E2,3E0,1.4E1,3E0,9.55E2,6E0,2.1E1,6E0,2E0,6E0,9E0,1E0,6.3E2,1E1,9E0,2.4E1,3.9E2,1.12E2,8E0,3E0,2.64E2,1E1,2.8E1,1E1,7.1E1,4E1,6E0,6E0,1.586E3,7.29E2,2.5E1,1.8E1,3.21E2,3.65E2,7.9E1,7.3E1,8.3E1,6.7E1],"tree_param":{"num_deleted":"0","num_feature":"22","num_nodes":"115","size_leaf_vector":"1"}},{"base_weights":[2.4389654E-2,-3.8213072E0,2.741551E0,-5.445697E0,-2.1867445E0,1.3277323E0,4.2296886E0,-5.6430535E0,-1.4748932E0,-2.6746619E0,1.4539219E0,3.286476E0,-1.5013651E0,5.3690724E0,2.86646E0,-6.334785E0,-4.8750324E0,-2.0331416E0,1.8579435E0,-9.917112E-1,-3.456787E0,2.7348888E0,-4.124689E0,2.205655E0,5.616147E0,-2.0282881E0,4.1016817E0,6.065093E0,4.8310723E0,3.233785E-1,5.488228E0,-2.3196301E0,-6.0709796E0,-4.16365E0,-5.986316E0,-1.5822047E0,-5.273761E0,6.630816E-1,8.826876E-1,-1.1441666E0,6.8428826E0,-3.5488453E0,8.344498E0,3.455296E0,-3.1402848E0,-5.4041276E0,1.5433629E0,6.031761E-1,3.6296012E0,6.5500255E0,4.165694E0,-2.1837378E0,1.0747527E1,3.2827778E0,9.915184E0,5.572478E0,6.5515513E0,3.6609166E0,5.6767716E0,-5.641223E-1,5.473564E0,3.6695998E0,6.12803E0,-1.836803E0,-5.6439203E-1,-1.2813054E0,7.4303645E-1,-1.814276E0,-1.8885612E-2,-7.277557E-1,2.381032E-1,-1.6989485E0,-3.8219377E-1,-1.7372304E-1,2.8998622E-1,-4.0439546E-1,1.25953E0,2.1601403E0,5.973313E-1,-1.3268688E0,-7.170434E-1,1.4542661E0,3.188866E0,9.7513574E-1,3.579356E0,-1.3219898E0,1.3980995E0,-2.514312E0,-9.150248E-1,4.427189E-2,2.4555137E0,1.4705868E0,6.4880526E-1,1.6830964E0,2.0489345E0,7.1585494E-1,1.7038124E0,-7.233272E-1,1.2603734E0,4.4073114E0,1.5038286E0,1.38276E0,2.5328892E-1,3.1098511E0,8.784462E-1,1.8816978E0,1.5259542E0,2.1682446E0,1.5027121E0,9.400893E-1,3.379956E0,1.778965E0,1.4228803E0,-2.4459429E-1,5.4856706E0,-5.9794307E-1,1.9429108E0,8.423486E-1,1.8822855E0,1.4394983E0,1.9653742E0],"categories":[],"categories_nodes":[],"categories_segments":[],"categories_sizes":[],"default_left":[0,0,0,0,0,0,0,0,0,0,0,0,0,0,0,0,0,0,0,0,0,0,0,0,0,0,0,0,0,0,0,0,0,0,0,0,0,0,0,0,0,0,0,0,0,0,0,0,0,0,0,0,0,0,0,0,0,0,0,0,0,0,0,0,0,0,0,0,0,0,0,0,0,0,0,0,0,0,0,0,0,0,0,0,0,0,0,0,0,0,0,0,0,0,0,0,0,0,0,0,0,0,0,0,0,0,0,0,0,0,0,0,0,0,0,0,0,0,0,0,0],"id":6,"left_children":[1,3,5,7,9,11,13,15,17,19,21,23,25,27,29,31,33,35,37,39,41,43,45,47,49,51,53,55,57,59,61,-1,63,65,67,69,71,73,-1,75,77,79,81,83,85,87,-1,89,91,93,95,97,99,101,103,105,107,109,111,113,115,117,119,-1,-1,-1,-1,-1,-1,-1,-1,-1,-1,-1,-1,-1,-1,-1,-1,-1,-1,-1,-1,-1,-1,-1,-1,-1,-1,-1,-1,-1,-1,-1,-1,-1,-1,-1,-1,-1,-1,-1,-1,-1,-1,-1,-1,-1,-1,-1,-1,-1,-1,-1,-1,-1,-1,-1,-1,-1,-1],"loss_changes":[8.361595E4,8.784664E3,9.859836E3,1.2933398E3,2.940187E3,1.3337727E4,3.532211E3,8.095781E2,1.5262157E2,1.9157051E3,1.4118997E3,3.5681475E3,2.916408E3,4.3615234E2,6.945623E3,2.5864844E2,5.7114844E2,9.248657E1,1.3596779E1,5.6204297E2,1.1105859E3,6.8805334E2,4.6660004E2,2.218045E3,5.8226074E2,1.8128525E3,3.721101E2,9.2416016E1,6.77875E2,2.4256084E3,5.744209E2,0E0,1.4052734E2,3.4068457E2,1.0559375E2,1.2619858E2,5.245392E0,3.1990542E0,0E0,5.0220667E2,1.2773743E0,9.9003906E2,1.2398376E1,2.0949963E2,1.9834564E2,2.0569403E2,0E0,1.5843265E3,9.5061426E2,3.3188477E1,4.6860376E2,1.3035435E3,1.7512354E2,2.4192719E2,1.1568604E0,6.128418E1,2.4009375E2,1.1637832E3,6.831152E1,2.1598147E3,5.9694507E2,2.8765454E2,1.8128613E2,0E0,0E0,0E0,0E0,0E0,0E0,0E0,0E0,0E0,0E0,0E0,0E0,0E0,0E0,0E0,0E0,0E0,0E0,0E0,0E0,0E0,0E0,0E0,0E0,0E0,0E0,0E0,0E0,0E0,0E0,0E0,0E0,0E0,0E0,0E0,0E0,0E0,0E0,0E0,0E0,0E0,0E0,0E0,0E0,0E0,0E0,0E0,0E0,0E0,0E0,0E0,0E0,0E0,0E0,0E0,0E0,0E0,0E0],"parents":[2147483647,0,0,1,1,2,2,3,3,4,4,5,5,6,6,7,7,8,8,9,9,10,10,11,11,12,12,13,13,14,14,15,15,16,16,17,17,18,18,19,19,20,20,21,21,22,22,23,23,24,24,25,25,26,26,27,27,28,28,29,29,30,30,32,32,33,33,34,34,35,35,36,36,37,37,39,39,40,40,41,41,42,42,43,43,44,44,45,45,47,47,48,48,49,49,50,50,51,51,52,52,53,53,54,54,55,55,56,56,57,57,58,58,59,59,60,60,61,61,62,62],"right_children":[2,4,6,8,10,12,14,16,18,20,22,24,26,28,30,32,34,36,38,40,42,44,46,48,50,52,54,56,58,60,62,-1,64,66,68,70,72,74,-1,76,78,80,82,84,86,88,-1,90,92,94,96,98,100,102,104,106,108,110,112,114,116,118,120,-1,-1,-1,-1,-1,-1,-1,-1,-1,-1,-1,-1,-1,-1,-1,-1,-1,-1,-1,-1,-1,-1,-1,-1,-1,-1,-1,-1,-1,-1,-1,-1,-1,-1,-1,-1,-1,-1,-1,-1,-1,-1,-1,-1,-1,-1,-1,-1,-1,-1,-1,-1,-1,-1,-1,-1,-1,-1],"split_conditions":[2.458E3,1.25E3,4.175E3,1E0,2E0,6E3,8E3,6.53E2,2E0,5E3,2E0,1E0,2E0,6E3,6.539E3,1.32E2,6E3,8E3,2E0,2E0,2E0,8E3,2E0,3.216E3,5E3,2E0,2E0,4.693E3,5.222E3,2E0,7.161E3,-2.3196301E0,2E0,2E0,1E0,2E0,2E0,6.26E2,8.826876E-1,2E0,1E0,1.926E3,1.944E3,2E0,2E0,1E0,1.5433629E0,2E0,5E3,2.956E3,1E0,2E0,8E3,8E3,3.886E3,5E3,2E0,2E0,2E0,2E0,4.507E3,2E0,1E0,-1.836803E0,-5.6439203E-1,-1.2813054E0,7.4303645E-1,-1.814276E0,-1.8885612E-2,-7.277557E-1,2.381032E-1,-1.6989485E0,-3.8219377E-1,-1.7372304E-1,2.8998622E-1,-4.0439546E-1,1.25953E0,2.1601403E0,5.973313E-1,-1.3268688E0,-7.170434E-1,1.4542661E0,3.188866E0,9.7513574E-1,3.579356E0,-1.3219898E0,1.3980995E0,-2.514312E0,-9.150248E-1,4.427189E-2,2.4555137E0,1.4705868E0,6.4880526E-1,1.6830964E0,2.0489345E0,7.1585494E-1,1.7038124E0,-7.233272E-1,1.2603734E0,4.4073114E0,1.5038286E0,1.38276E0,2.5328892E-1,3.1098511E0,8.784462E-1,1.8816978E0,1.5259542E0,2.1682446E0,1.5027121E0,9.400893E-1,3.379956E0,1.778965E0,1.4228803E0,-2.4459429E-1,5.4856706E0,-5.9794307E-1,1.9429108E0,8.423486E-1,1.8822855E0,1.4394983E0,1.9653742E0],"split_indices":[0,0,0,3,5,1,1,0,4,1,6,3,2,1,0,0,1,1,2,19,19,1,3,0,1,19,3,0,0,2,0,0,4,4,19,3,2,0,0,4,2,0,0,19,4,2,0,4,1,0,2,4,1,1,0,1,5,4,2,19,0,5,5,0,0,0,0,0,0,0,0,0,0,0,0,0,0,0,0,0,0,0,0,0,0,0,0,0,0,0,0,0,0,0,0,0,0,0,0,0,0,0,0,0,0,0,0,0,0,0,0,0,0,0,0,0,0,0,0,0,0],"split_type":[0,0,0,0,0,0,0,0,0,0,0,0,0,0,0,0,0,0,0,0,0,0,0,0,0,0,0,0,0,0,0,0,0,0,0,0,0,0,0,0,0,0,0,0,0,0,0,0,0,0,0,0,0,0,0,0,0,0,0,0,0,0,0,0,0,0,0,0,0,0,0,0,0,0,0,0,0,0,0,0,0,0,0,0,0,0,0,0,0,0,0,0,0,0,0,0,0,0,0,0,0,0,0,0,0,0,0,0,0,0,0,0,0,0,0,0,0,0,0,0,0],"sum_hessian":[8E3,3.312E3,4.688E3,1.66E3,1.652E3,2.405E3,2.283E3,1.581E3,7.9E1,1.457E3,1.95E2,1.421E3,9.84E2,1.242E3,1.041E3,8.28E2,7.53E2,6.8E1,1.1E1,4.63E2,9.94E2,1.59E2,3.6E1,9.72E2,4.49E2,9E2,8.4E1,5.37E2,7.05E2,5.29E2,5.12E2,1.27E2,7.01E2,4.62E2,2.91E2,6.1E1,7E0,6E0,5E0,4.55E2,8E0,9.87E2,7E0,1.42E2,1.7E1,3.2E1,4E0,4.58E2,5.14E2,2.71E2,1.78E2,8.9E2,1E1,7.5E1,9E0,2.73E2,2.64E2,2.98E2,4.07E2,4.52E2,7.7E1,1.35E2,3.77E2,6.92E2,9E0,4.55E2,7E0,2.88E2,3E0,4.5E1,1.6E1,6E0,1E0,1E0,5E0,4.39E2,1.6E1,7E0,1E0,5.61E2,4.26E2,4E0,3E0,1.4E2,2E0,1.5E1,2E0,1.3E1,1.9E1,4.33E2,2.5E1,2.74E2,2.4E2,6.7E1,2.04E2,8.3E1,9.5E1,8.6E2,3E1,5E0,5E0,4.8E1,2.7E1,8E0,1E0,1.07E2,1.66E2,1.81E2,8.3E1,2.8E2,1.8E1,3.16E2,9.1E1,4.47E2,5E0,9E0,6.8E1,1.03E2,3.2E1,9.4E1,2.83E2],"tree_param":{"num_deleted":"0","num_feature":"22","num_nodes":"121","size_leaf_vector":"1"}},{"base_weights":[2.3378273E-2,-3.124542E0,1.6753122E0,-4.0856657E0,-2.2834768E0,-1.1958361E-1,2.411242E0,-3.2610219E0,-4.489871E0,-2.4562037E0,3.8008094E0,1.7825456E0,-1.1354603E0,3.090245E0,1.1302608E0,-3.5029895E0,-6.488511E-2,-4.535169E0,-5.8551145E-1,-1.7476289E0,-3.5551698E0,-5.303341E-1,3.9842186E0,9.695249E-1,4.0086617E0,-1.4912069E0,3.0127785E0,2.5726497E0,4.093496E0,-1.7411011E0,3.2503786E0,-4.910472E0,-3.2270184E0,-1.5930153E0,6.8674165E-1,-4.2920794E0,-5.186287E0,-1.3399839E0,2.4925995E-1,-2.0817213E0,5.380142E-1,-2.9310791E0,-4.4313374E0,3.1119483E0,5.3818674E0,8.1004995E-1,3.3202484E0,3.1876452E0,6.4275513E0,-1.6015337E0,2.9489245E0,4.1330314E0,-7.75599E-2,1.7109786E0,3.4908943E0,3.601411E0,4.5470934E0,-1.9518855E0,9.815358E0,1.931263E0,4.149339E0,-1.6945473E0,-1.2717605E0,-9.7956365E-1,1.423724E0,-5.509249E-2,7.633866E-1,-1.2927988E0,9.681553E-1,-1.5611793E0,-1.824646E-1,-1.4563166E-1,6.3761103E-1,-6.5182424E-1,1.7296242E0,-5.7896513E-2,7.627563E-1,-8.9063054E-1,1.4202968E0,-1.3541284E0,4.1239274E-1,1.0298823E0,1.2240172E-1,1.6851972E0,3.4813958E-1,1.9286521E-1,2.5884838E0,8.038374E-1,2.227604E0,2.0218892E0,1.1387693E0,-3.4066075E-1,-8.8991076E-1,7.035109E-1,1.8730342E0,-3.4135014E-1,1.1264813E0,1.0383884E0,2.20833E-1,1.3070852E0,8.6345035E-1,1.484285E0,9.148328E-1,1.6852121E0,1.2850184E0,-6.829039E-1,1.3650017E0,1.5897389E-1,4.11574E0,4.3835837E-1,2.5529017E0,1.0208063E0,1.4072142E0],"categories":[],"categories_nodes":[],"categories_segments":[],"categories_sizes":[],"default_left":[0,0,0,0,0,0,0,0,0,0,0,0,0,0,0,0,0,0,0,0,0,0,0,0,0,0,0,0,0,0,0,0,0,0,0,0,0,0,0,0,0,0,0,0,0,0,0,0,0,0,0,0,0,0,0,0,0,0,0,0,0,0,0,0,0,0,0,0,0,0,0,0,0,0,0,0,0,0,0,0,0,0,0,0,0,0,0,0,0,0,0,0,0,0,0,0,0,0,0,0,0,0,0,0,0,0,0,0,0,0,0,0,0],"id":7,"left_children":[1,3,5,7,9,11,13,15,17,19,21,23,25,27,29,31,33,35,37,39,41,-1,43,45,47,49,51,53,55,57,59,61,63,-1,65,67,69,-1,71,73,75,77,79,81,83,85,-1,87,89,91,-1,93,95,97,99,101,103,105,107,109,111,-1,-1,-1,-1,-1,-1,-1,-1,-1,-1,-1,-1,-1,-1,-1,-1,-1,-1,-1,-1,-1,-1,-1,-1,-1,-1,-1,-1,-1,-1,-1,-1,-1,-1,-1,-1,-1,-1,-1,-1,-1,-1,-1,-1,-1,-1,-1,-1,-1,-1,-1,-1],"loss_changes":[4.1611684E4,2.216916E3,6.932463E3,4.1334766E2,1.5552393E3,2.9526897E3,3.2338652E3,3.292246E2,1.4926758E2,1.1081064E3,4.8917847E1,9.5896875E2,1.474312E3,1.2523535E3,7.864783E3,1.3796973E2,1.25861244E2,1.1211914E2,3.6751503E1,6.669934E2,2.9322363E2,0E0,3.2016968E1,6.206908E2,2.6151587E2,1.1623289E3,2.7381543E2,1.2655244E3,1.6799414E2,1.3564785E3,8.7306055E2,7.265747E0,1.1720239E2,0E0,4.5745205E1,9.48418E1,1.5089844E1,0E0,1.48154955E1,5.561033E2,1.6460422E2,1.0939307E2,1.1675E2,2.2033875E1,7.396698E0,4.9893243E2,0E0,2.1268713E2,3.1619873E0,5.754011E2,0E0,2.042168E2,9.3669426E1,1.4154109E3,3.9978027E2,2.8288086E2,9.6168945E1,1.1495459E3,3.55213E2,9.2453345E2,1.6229883E2,0E0,0E0,0E0,0E0,0E0,0E0,0E0,0E0,0E0,0E0,0E0,0E0,0E0,0E0,0E0,0E0,0E0,0E0,0E0,0E0,0E0,0E0,0E0,0E0,0E0,0E0,0E0,0E0,0E0,0E0,0E0,0E0,0E0,0E0,0E0,0E0,0E0,0E0,0E0,0E0,0E0,0E0,0E0,0E0,0E0,0E0,0E0,0E0,0E0,0E0,0E0,0E0],"parents":[2147483647,0,0,1,1,2,2,3,3,4,4,5,5,6,6,7,7,8,8,9,9,10,10,11,11,12,12,13,13,14,14,15,15,16,16,17,17,18,18,19,19,20,20,22,22,23,23,24,24,25,25,26,26,27,27,28,28,29,29,30,30,31,31,32,32,34,34,35,35,36,36,38,38,39,39,40,40,41,41,42,42,43,43,44,44,45,45,47,47,48,48,49,49,51,51,52,52,53,53,54,54,55,55,56,56,57,57,58,58,59,59,60,60],"right_children":[2,4,6,8,10,12,14,16,18,20,22,24,26,28,30,32,34,36,38,40,42,-1,44,46,48,50,52,54,56,58,60,62,64,-1,66,68,70,-1,72,74,76,78,80,82,84,86,-1,88,90,92,-1,94,96,98,100,102,104,106,108,110,112,-1,-1,-1,-1,-1,-1,-1,-1,-1,-1,-1,-1,-1,-1,-1,-1,-1,-1,-1,-1,-1,-1,-1,-1,-1,-1,-1,-1,-1,-1,-1,-1,-1,-1,-1,-1,-1,-1,-1,-1,-1,-1,-1,-1,-1,-1,-1,-1,-1,-1,-1,-1],"split_conditions":[2.029E3,9.8E2,3.151E3,5E3,2E0,5E3,8E3,1E0,2E0,6E3,1.019E3,1E0,2E0,1E0,5.522E3,2.02E2,3.11E2,8E3,2.67E2,1E0,8E3,-5.303341E-1,1.765E3,2E0,2E0,2E0,8E3,4.207E3,1E0,2E0,6.833E3,1.09E2,2E0,-1.5930153E0,8.97E2,2E0,1E0,-1.3399839E0,7.01E2,2E0,2E0,1E0,1E0,1.721E3,2E0,2E0,3.3202484E0,2E0,2E0,8E3,2.9489245E0,1E0,1E0,5E3,6E3,5E3,3.583E3,2E0,3.654E3,2E0,7.831E3,-1.6945473E0,-1.2717605E0,-9.7956365E-1,1.423724E0,-5.509249E-2,7.633866E-1,-1.2927988E0,9.681553E-1,-1.5611793E0,-1.824646E-1,-1.4563166E-1,6.3761103E-1,-6.5182424E-1,1.7296242E0,-5.7896513E-2,7.627563E-1,-8.9063054E-1,1.4202968E0,-1.3541284E0,4.1239274E-1,1.0298823E0,1.2240172E-1,1.6851972E0,3.4813958E-1,1.9286521E-1,2.5884838E0,8.038374E-1,2.227604E0,2.0218892E0,1.1387693E0,-3.4066075E-1,-8.8991076E-1,7.035109E-1,1.8730342E0,-3.4135014E-1,1.1264813E0,1.0383884E0,2.20833E-1,1.3070852E0,8.6345035E-1,1.484285E0,9.148328E-1,1.6852121E0,1.2850184E0,-6.829039E-1,1.3650017E0,1.5897389E-1,4.11574E0,4.3835837E-1,2.5529017E0,1.0208063E0,1.4072142E0],"split_indices":[0,0,0,1,4,1,1,2,4,1,0,3,2,3,0,0,0,1,0,3,1,0,0,9,3,19,1,0,2,19,0,0,9,0,0,19,19,0,0,19,3,9,19,0,6,19,0,4,4,1,0,3,7,1,1,1,0,4,0,4,0,0,0,0,0,0,0,0,0,0,0,0,0,0,0,0,0,0,0,0,0,0,0,0,0,0,0,0,0,0,0,0,0,0,0,0,0,0,0,0,0,0,0,0,0,0,0,0,0,0,0,0,0],"split_type":[0,0,0,0,0,0,0,0,0,0,0,0,0,0,0,0,0,0,0,0,0,0,0,0,0,0,0,0,0,0,0,0,0,0,0,0,0,0,0,0,0,0,0,0,0,0,0,0,0,0,0,0,0,0,0,0,0,0,0,0,0,0,0,0,0,0,0,0,0,0,0,0,0,0,0,0,0,0,0,0,0,0,0,0,0,0,0,0,0,0,0,0,0,0,0,0,0,0,0,0,0,0,0,0,0,0,0,0,0,0,0,0,0],"sum_hessian":[8E3,2.753E3,5.247E3,1.283E3,1.47E3,1.526E3,3.721E3,4.25E2,8.58E2,1.43E3,4E1,5.31E2,9.95E2,2.431E3,1.29E3,3.95E2,3E1,8.48E2,1E1,8.71E2,5.59E2,1E0,3.9E1,3.9E2,1.41E2,9.17E2,7.8E1,1.606E3,8.25E2,5.48E2,7.42E2,6.2E1,3.33E2,3E0,2.7E1,6.23E2,2.25E2,1E0,9E0,7.6E2,1.11E2,3.29E2,2.3E2,2.6E1,1.3E1,3.85E2,5E0,1.07E2,3.4E1,9.09E2,8E0,5.7E1,2.1E1,8.3E2,7.76E2,4E2,4.25E2,5.39E2,9E0,3.02E2,4.4E2,2.6E1,3.6E1,3.32E2,1E0,1.9E1,8E0,6.22E2,1E0,2.24E2,1E0,7E0,2E0,7.52E2,8E0,8.2E1,2.9E1,3.28E2,1E0,2.27E2,3E0,2.3E1,3E0,1.2E1,1E0,3.78E2,7E0,9.7E1,1E1,2.9E1,5E0,6.79E2,2.3E2,3.2E1,2.5E1,1.7E1,4E0,2.96E2,5.34E2,3.19E2,4.57E2,1.14E2,2.86E2,8E1,3.45E2,5.14E2,2.5E1,3E0,6E0,2.83E2,1.9E1,1.88E2,2.52E2],"tree_param":{"num_deleted":"0","num_feature":"22","num_nodes":"113","size_leaf_vector":"1"}},{"base_weights":[2.0645846E-2,-2.2390323E0,1.1649443E0,-2.376322E0,9.129319E-1,5.2154934E-1,2.322916E0,-3.174229E0,-1.972258E0,1.6900458E0,-6.653204E-1,-4.5301145E-1,1.505549E0,1.7135202E0,3.2048771E0,-3.188511E0,1.37482E0,-1.112525E0,-2.4144435E0,1.5064099E0,2.319412E0,-4.9934387E-3,-1.5729579E0,-6.270494E-1,4.4483767E0,3.0861478E0,8.312407E-1,9.93331E-1,2.7320392E0,2.908774E0,3.9914305E0,-3.927193E0,-3.0137527E0,-1.2686889E0,3.1345706E0,-2.4797406E0,2.0103016E0,1.0702343E0,3.707145E0,-5.0019896E-1,7.4168473E-1,-2.0270717E0,3.2116777E-1,-7.224666E-1,7.6469874E0,5.038524E0,2.1915798E0,2.8002868E0,4.0175276E0,-4.3212137E-1,2.3040366E0,6.8130744E-1,4.102212E0,3.1314685E0,1.8107266E0,2.6854715E0,4.5597696E0,4.215753E0,6.259867E-1,-1.293551E0,-1.0831592E0,-8.1708896E-1,-1.0326955E0,-4.0042052E-1,1.2532125E0,3.5950142E-1,1.2701755E0,-7.547424E-1,6.6961455E-1,1.3847947E0,1.6198091E-1,5.5474516E-2,5.5378795E-1,4.394266E-1,1.3935738E0,1.4065346E-1,-2.846977E-1,-4.1844192E-1,-1.1641327E0,1.0314631E-1,-3.4830385E-1,2.7916484E0,7.5079197E-1,5.4814476E-1,1.7310861E0,9.0783376E-1,2.5259629E-2,1.131307E0,6.143118E-1,1.3406339E0,8.200405E-1,-1.9650514E-1,3.40292E0,1.0923157E0,5.384479E-1,4.5890814E-1,-7.1225953E-1,1.3860132E0,4.9376413E-1,4.2445436E-1,1.0005519E0,-4.2353162E-1,7.8228337E-1,6.2110996E-1,1.0404214E0,1.4793104E0,8.000523E-1,1.1353147E0,1.852039E0],"categories":[],"categories_nodes":[],"categories_segments":[],"categories_sizes":[],"default_left":[0,0,0,0,0,0,0,0,0,0,0,0,0,0,0,0,0,0,0,0,0,0,0,0,0,0,0,0,0,0,0,0,0,0,0,0,0,0,0,0,0,0,0,0,0,0,0,0,0,0,0,0,0,0,0,0,0,0,0,0,0,0,0,0,0,0,0,0,0,0,0,0,0,0,0,0,0,0,0,0,0,0,0,0,0,0,0,0,0,0,0,0,0,0,0,0,0,0,0,0,0,0,0,0,0,0,0,0,0],"id":8,"left_children":[1,3,5,7,9,11,13,15,17,19,21,23,25,27,29,31,-1,33,35,37,-1,39,41,43,45,47,49,51,53,55,57,59,61,63,65,67,69,71,73,75,-1,77,-1,79,81,83,85,87,89,91,93,95,97,99,101,103,105,107,-1,-1,-1,-1,-1,-1,-1,-1,-1,-1,-1,-1,-1,-1,-1,-1,-1,-1,-1,-1,-1,-1,-1,-1,-1,-1,-1,-1,-1,-1,-1,-1,-1,-1,-1,-1,-1,-1,-1,-1,-1,-1,-1,-1,-1,-1,-1,-1,-1,-1,-1],"loss_changes":[2.0691164E4,1.1662207E3,3.9564048E3,8.249004E2,1.3971686E2,3.276515E3,1.01407715E3,1.1044141E2,6.4891113E2,7.266815E1,2.276697E1,1.4674375E3,1.809314E3,8.2177E2,1.6865527E2,9.969824E1,0E0,3.913109E2,3.3175635E2,6.802548E1,0E0,2.9452127E1,2.1377422E1,1.3152811E3,6.753638E1,1.2400195E2,2.2207805E3,6.374344E2,1.6544946E2,1.9642285E2,8.050708E1,4.1638184E0,7.803369E1,2.0844165E2,3.9626785E1,1.9509961E2,6.2639793E1,4.3611588E1,1.8438904E1,9.142939E0,0E0,1.0993042E1,0E0,7.677578E2,1.3881848E2,9.7555176E1,2.43667E1,2.7865674E2,5.5578613E1,1.6950732E3,3.6859766E2,1.5615737E3,6.871405E1,1.08229004E2,3.7089957E2,2.339917E2,3.3233154E1,1.3371387E2,0E0,0E0,0E0,0E0,0E0,0E0,0E0,0E0,0E0,0E0,0E0,0E0,0E0,0E0,0E0,0E0,0E0,0E0,0E0,0E0,0E0,0E0,0E0,0E0,0E0,0E0,0E0,0E0,0E0,0E0,0E0,0E0,0E0,0E0,0E0,0E0,0E0,0E0,0E0,0E0,0E0,0E0,0E0,0E0,0E0,0E0,0E0,0E0,0E0,0E0,0E0],"parents":[2147483647,0,0,1,1,2,2,3,3,4,4,5,5,6,6,7,7,8,8,9,9,10,10,11,11,12,12,13,13,14,14,15,15,17,17,18,18,19,19,21,21,22,22,23,23,24,24,25,25,26,26,27,27,28,28,29,29,30,30,31,31,32,32,33,33,34,34,35,35,36,36,37,37,38,38,39,39,41,41,43,43,44,44,45,45,46,46,47,47,48,48,49,49,50,50,51,51,52,52,53,53,54,54,55,55,56,56,57,57],"right_children":[2,4,6,8,10,12,14,16,18,20,22,24,26,28,30,32,-1,34,36,38,-1,40,42,44,46,48,50,52,54,56,58,60,62,64,66,68,70,72,74,76,-1,78,-1,80,82,84,86,88,90,92,94,96,98,100,102,104,106,108,-1,-1,-1,-1,-1,-1,-1,-1,-1,-1,-1,-1,-1,-1,-1,-1,-1,-1,-1,-1,-1,-1,-1,-1,-1,-1,-1,-1,-1,-1,-1,-1,-1,-1,-1,-1,-1,-1,-1,-1,-1,-1,-1,-1,-1,-1,-1,-1,-1,-1,-1],"split_conditions":[1.99E3,2E0,1E0,6.71E2,6E3,3.713E3,1E0,2E0,5E3,1E0,8E3,2E0,6E3,2E0,2E0,1.62E2,1.37482E0,2E0,2E0,2E0,2.319412E0,1.814E3,2E0,2E0,6E3,4.841E3,5.561E3,7.334E3,8E3,2E0,6.405E3,8.5E1,6E3,2E0,1.346E3,2E0,1E0,1.373E3,9.2E2,7.99E2,7.4168473E-1,1E0,3.2116777E-1,5E3,8E3,2.389E3,1E0,5E3,5.368E3,2E0,8E3,8E3,2E0,2.575E3,4.659E3,4.507E3,5.561E3,8E3,6.259867E-1,-1.293551E0,-1.0831592E0,-8.1708896E-1,-1.0326955E0,-4.0042052E-1,1.2532125E0,3.5950142E-1,1.2701755E0,-7.547424E-1,6.6961455E-1,1.3847947E0,1.6198091E-1,5.5474516E-2,5.5378795E-1,4.394266E-1,1.3935738E0,1.4065346E-1,-2.846977E-1,-4.1844192E-1,-1.1641327E0,1.0314631E-1,-3.4830385E-1,2.7916484E0,7.5079197E-1,5.4814476E-1,1.7310861E0,9.0783376E-1,2.5259629E-2,1.131307E0,6.143118E-1,1.3406339E0,8.200405E-1,-1.9650514E-1,3.40292E0,1.0923157E0,5.384479E-1,4.5890814E-1,-7.1225953E-1,1.3860132E0,4.9376413E-1,4.2445436E-1,1.0005519E0,-4.2353162E-1,7.8228337E-1,6.2110996E-1,1.0404214E0,1.4793104E0,8.000523E-1,1.1353147E0,1.852039E0],"split_indices":[0,2,2,0,1,0,3,19,1,19,1,4,1,2,3,0,0,3,4,4,0,0,4,19,1,0,0,0,1,4,0,0,1,19,0,19,5,0,0,0,0,4,0,1,1,0,6,1,0,19,1,1,4,0,0,0,0,1,0,0,0,0,0,0,0,0,0,0,0,0,0,0,0,0,0,0,0,0,0,0,0,0,0,0,0,0,0,0,0,0,0,0,0,0,0,0,0,0,0,0,0,0,0,0,0,0,0,0,0],"split_type":[0,0,0,0,0,0,0,0,0,0,0,0,0,0,0,0,0,0,0,0,0,0,0,0,0,0,0,0,0,0,0,0,0,0,0,0,0,0,0,0,0,0,0,0,0,0,0,0,0,0,0,0,0,0,0,0,0,0,0,0,0,0,0,0,0,0,0,0,0,0,0,0,0,0,0,0,0,0,0,0,0,0,0,0,0,0,0,0,0,0,0,0,0,0,0,0,0,0,0,0,0,0,0,0,0,0,0,0,0],"sum_hessian":[8E3,2.689E3,5.311E3,2.577E3,1.12E2,3.415E3,1.896E3,8.64E2,1.713E3,7.5E1,3.7E1,1.716E3,1.699E3,1.123E3,7.73E2,8.63E2,1E0,5.83E2,1.13E3,7.4E1,1E0,2.2E1,1.5E1,1.658E3,5.8E1,5.07E2,1.192E3,6.59E2,4.64E2,5.65E2,2.08E2,1.61E2,7.02E2,5.63E2,2E1,1.114E3,1.6E1,6.3E1,1.1E1,1.9E1,3E0,1.3E1,2E0,1.64E3,1.8E1,4.5E1,1.3E1,3.91E2,1.16E2,6.42E2,5.5E2,6E2,5.9E1,3.22E2,1.42E2,5E2,6.5E1,1.85E2,2.3E1,6.7E1,9.4E1,4.23E2,2.79E2,5.57E2,6E0,8E0,1.2E1,1.106E3,8E0,5E0,1.1E1,3E1,3.3E1,4E0,7E0,6E0,1.3E1,1.1E1,2E0,4.78E2,1.162E3,1.3E1,5E0,9E0,3.6E1,9E0,4E0,1.69E2,2.22E2,8.4E1,3.2E1,6.31E2,1.1E1,1.5E2,4E2,4.7E2,1.3E2,4.8E1,1.1E1,3.5E1,2.87E2,2.8E1,1.14E2,2.82E2,2.18E2,5.3E1,1.2E1,1.54E2,3.1E1],"tree_param":{"num_deleted":"0","num_feature":"22","num_nodes":"109","size_leaf_vector":"1"}},{"base_weights":[1.8377772E-2,-1.0953428E0,1.205115E0,-1.8928852E0,-4.2946976E-1,1.0360461E0,3.1871533E0,-1.706889E0,-2.8245542E0,-6.4781135E-1,1.9560764E0,9.7230464E-1,7.268099E0,4.878906E0,2.7423968E0,-1.7313838E0,4.958477E0,-2.8635116E0,2.6439142E-1,-7.16785E-1,5.2419395E0,2.658516E0,2.827337E-1,8.859035E-1,5.0588984E0,7.7446213E0,1.519762E0,3.21607E0,5.387369E0,3.2888422E0,1.742535E0,-1.7510335E0,1.9094616E0,1.6488014E0,3.4062597E-1,-2.6818712E0,-3.7471387E0,-8.2210666E-1,2.7725303E0,3.3266509E0,8.06446E0,1.7943456E0,4.057152E0,-1.9998886E-1,3.264408E0,3.111274E-1,1.4454368E0,6.1493125E0,2.9734035E0,5.0335484E0,2.6113498E0,3.770485E-2,5.8276826E-1,1.9687821E0,1.2747955E0,1.957197E0,5.852965E0,3.8735585E0,2.2887366E0,1.534265E0,3.6334515E0,-5.557116E-1,-3.9775476E-2,-8.176356E-1,-4.3546644E-1,-1.149035E0,4.781685E-2,-2.209414E-1,-1.4568474E0,7.209092E-2,8.704769E-1,5.7302976E-1,1.6107663E0,2.609661E0,4.4837725E-1,3.9386392E-1,1.084398E0,1.2635692E0,-5.288086E-1,2.2268559E-1,-4.2989615E-1,6.1607474E-1,1.7610284E0,6.1164504E-1,-1.4640309E-1,6.1162186E-1,2.5269365E-1,9.2485154E-1,2.1337783E0,1.0976099E0,3.5888672E-1,2.3744814E0,1.0541408E0,5.693779E-1,1.6757095E-1,6.8781775E-1,-8.3965305E-3,1.8326287E0,1.9856416E-1,1.1872548E0,-2.2884369E-2,1.4094602E-1,8.653805E-1,2.5459185E-1,5.762803E-1,6.105533E-1,1.4168793E0],"categories":[],"categories_nodes":[],"categories_segments":[],"categories_sizes":[],"default_left":[0,0,0,0,0,0,0,0,0,0,0,0,0,0,0,0,0,0,0,0,0,0,0,0,0,0,0,0,0,0,0,0,0,0,0,0,0,0,0,0,0,0,0,0,0,0,0,0,0,0,0,0,0,0,0,0,0,0,0,0,0,0,0,0,0,0,0,0,0,0,0,0,0,0,0,0,0,0,0,0,0,0,0,0,0,0,0,0,0,0,0,0,0,0,0,0,0,0,0,0,0,0,0,0,0,0,0],"id":9,"left_children":[1,3,5,7,9,11,13,15,17,19,21,23,25,27,29,31,33,35,-1,37,39,41,43,45,47,49,51,53,55,57,59,61,-1,-1,-1,63,65,67,69,71,73,75,77,79,81,83,85,87,89,91,-1,-1,-1,-1,93,95,97,99,101,103,105,-1,-1,-1,-1,-1,-1,-1,-1,-1,-1,-1,-1,-1,-1,-1,-1,-1,-1,-1,-1,-1,-1,-1,-1,-1,-1,-1,-1,-1,-1,-1,-1,-1,-1,-1,-1,-1,-1,-1,-1,-1,-1,-1,-1,-1,-1],"loss_changes":[1.0576189E4,2.1914111E3,1.2948789E3,3.2061182E2,1.1737319E3,1.4114783E3,2.1535522E2,2.645869E2,4.742285E1,8.4182556E2,2.2140308E2,1.2440325E3,8.684143E1,3.509424E1,1.27036865E2,2.5980225E2,6.0897064E0,3.9385254E1,0E0,7.5198E2,1.02914856E2,1.5347168E2,8.2694176E1,1.113595E3,1.4772144E2,4.20614E1,2.113514E0,1.0207529E2,6.201001E1,8.235974E1,2.9081573E1,2.5561084E2,0E0,0E0,0E0,9.93103E0,1.6818176E1,6.8077454E2,1.8911224E1,3.6038773E1,2.4510681E1,6.887363E1,5.24541E1,5.9154797E1,1.3185532E1,2.3619263E3,6.2628394E2,1.1690527E2,2.8505066E1,2.0357239E1,0E0,0E0,0E0,0E0,4.2955055E0,4.72678E0,4.907129E1,3.2468872E1,6.36745E1,1.9843735E1,4.3182907E0,0E0,0E0,0E0,0E0,0E0,0E0,0E0,0E0,0E0,0E0,0E0,0E0,0E0,0E0,0E0,0E0,0E0,0E0,0E0,0E0,0E0,0E0,0E0,0E0,0E0,0E0,0E0,0E0,0E0,0E0,0E0,0E0,0E0,0E0,0E0,0E0,0E0,0E0,0E0,0E0,0E0,0E0,0E0,0E0,0E0,0E0],"parents":[2147483647,0,0,1,1,2,2,3,3,4,4,5,5,6,6,7,7,8,8,9,9,10,10,11,11,12,12,13,13,14,14,15,15,16,16,17,17,19,19,20,20,21,21,22,22,23,23,24,24,25,25,26,26,27,27,28,28,29,29,30,30,31,31,35,35,36,36,37,37,38,38,39,39,40,40,41,41,42,42,43,43,44,44,45,45,46,46,47,47,48,48,49,49,54,54,55,55,56,56,57,57,58,58,59,59,60,60],"right_children":[2,4,6,8,10,12,14,16,18,20,22,24,26,28,30,32,34,36,-1,38,40,42,44,46,48,50,52,54,56,58,60,62,-1,-1,-1,64,66,68,70,72,74,76,78,80,82,84,86,88,90,92,-1,-1,-1,-1,94,96,98,100,102,104,106,-1,-1,-1,-1,-1,-1,-1,-1,-1,-1,-1,-1,-1,-1,-1,-1,-1,-1,-1,-1,-1,-1,-1,-1,-1,-1,-1,-1,-1,-1,-1,-1,-1,-1,-1,-1,-1,-1,-1,-1,-1,-1,-1,-1,-1,-1],"split_conditions":[3.054E3,1.413E3,2E0,8E3,2E0,2E0,1E0,2E0,2E0,2E0,6E3,2E0,7.04E3,5E3,5.288E3,2E0,1.269E3,1.126E3,2.6439142E-1,2E0,2.485E3,1E0,2.839E3,4.445E3,5.258E3,5E3,8.402E3,3.654E3,3.26E3,2E0,2E0,1E0,1.9094616E0,1.6488014E0,3.4062597E-1,1E0,1E0,2E0,1.507E3,1E0,6E3,1E0,1E0,8E3,2E0,5E3,8E3,5E3,2E0,3.237E3,2.6113498E0,3.770485E-2,5.8276826E-1,1.9687821E0,3.976E3,1E0,2E0,2E0,5E3,8E3,8E3,-5.557116E-1,-3.9775476E-2,-8.176356E-1,-4.3546644E-1,-1.149035E0,4.781685E-2,-2.209414E-1,-1.4568474E0,7.209092E-2,8.704769E-1,5.7302976E-1,1.6107663E0,2.609661E0,4.4837725E-1,3.9386392E-1,1.084398E0,1.2635692E0,-5.288086E-1,2.2268559E-1,-4.2989615E-1,6.1607474E-1,1.7610284E0,6.1164504E-1,-1.4640309E-1,6.1162186E-1,2.5269365E-1,9.2485154E-1,2.1337783E0,1.0976099E0,3.5888672E-1,2.3744814E0,1.0541408E0,5.693779E-1,1.6757095E-1,6.8781775E-1,-8.3965305E-3,1.8326287E0,1.9856416E-1,1.1872548E0,-2.2884369E-2,1.4094602E-1,8.653805E-1,2.5459185E-1,5.762803E-1,6.105533E-1,1.4168793E0],"split_indices":[0,0,4,1,2,9,5,19,4,19,1,19,0,1,0,9,0,0,0,4,0,3,0,0,0,1,0,0,0,5,6,3,0,0,0,2,19,6,0,2,1,7,10,1,6,1,1,1,5,0,0,0,0,0,0,12,19,18,1,1,1,0,0,0,0,0,0,0,0,0,0,0,0,0,0,0,0,0,0,0,0,0,0,0,0,0,0,0,0,0,0,0,0,0,0,0,0,0,0,0,0,0,0,0,0,0,0],"split_type":[0,0,0,0,0,0,0,0,0,0,0,0,0,0,0,0,0,0,0,0,0,0,0,0,0,0,0,0,0,0,0,0,0,0,0,0,0,0,0,0,0,0,0,0,0,0,0,0,0,0,0,0,0,0,0,0,0,0,0,0,0,0,0,0,0,0,0,0,0,0,0,0,0,0,0,0,0,0,0,0,0,0,0,0,0,0,0,0,0,0,0,0,0,0,0,0,0,0,0,0,0,0,0,0,0,0,0],"sum_hessian":[8E3,4.127E3,3.873E3,1.877E3,2.25E3,3.57E3,3.03E2,1.567E3,3.1E2,2.062E3,1.88E2,3.535E3,3.5E1,6.1E1,2.42E2,1.562E3,5E0,3.07E2,3E0,2.039E3,2.3E1,1.32E2,5.6E1,3.463E3,7.2E1,3.2E1,3E0,1.6E1,4.5E1,1.55E2,8.7E1,1.559E3,3E0,4E0,1E0,2.58E2,4.9E1,1.98E3,5.9E1,1.5E1,8E0,8.3E1,4.9E1,4.9E1,7E0,1.709E3,1.754E3,4.6E1,2.6E1,1E1,2.2E1,1E0,2E0,5E0,1.1E1,6E0,3.9E1,9.6E1,5.9E1,8E1,7E0,1.467E3,9.2E1,2.48E2,1E1,4.8E1,1E0,1.94E3,4E1,3E0,5.6E1,1E1,5E0,7E0,1E0,6.7E1,1.6E1,4.8E1,1E0,2.8E1,2.1E1,6E0,1E0,5.4E2,1.169E3,8.83E2,8.71E2,1.2E1,3.4E1,1.8E1,8E0,2E0,8E0,5E0,6E0,5E0,1E0,3.7E1,2E0,9.4E1,2E0,1.5E1,4.4E1,3E1,5E1,4E0,3E0],"tree_param":{"num_deleted":"0","num_feature":"22","num_nodes":"107","size_leaf_vector":"1"}},{"base_weights":[1.6994912E-2,-1.2066624E0,5.639866E-1,-1.2855892E0,6.398284E-1,2.1378037E-1,1.4810753E0,-1.3002543E0,1.7742056E0,5.267679E-1,1.8088406E0,8.933662E-2,2.5308022E0,1.1894442E0,2.3498168E0,-8.6732495E-1,-1.5128965E0,9.865079E-1,-4.5046923E-1,3.5614423E-2,6.220728E0,2.7563748E0,4.3384224E-1,1.007191E0,2.8466167E0,2.199688E0,4.833008E0,-9.0792954E-1,3.7578862E0,-1.4694884E0,-3.000758E0,6.619191E-1,2.6378014E0,-3.80302E-2,-1.9769527E0,-1.4611676E-1,1.4283873E0,8.254324E0,4.977672E0,3.1115537E0,1.843693E0,3.6444244E-1,1.138649E-1,1.3562939E0,-5.407157E-1,3.4549994E0,5.669101E-1,3.0983539E0,1.846209E0,1.486572E0,3.5825616E-1,-3.1114948E-1,9.4145685E-2,1.3723013E0,-1.711235E-1,-4.4880757E-1,4.0004078E-1,-1.0013913E0,-9.262419E-2,1.4854471E-1,1.0829736E0,9.861621E-1,-5.6904603E-2,-1.0792845E-1,5.705595E-1,-8.0870384E-1,3.503111E-1,-6.320612E-2,1.3122495E0,4.619082E-2,4.7251222E-1,2.7391043E0,8.624436E-1,7.618226E-1,1.6541668E0,9.9292034E-1,5.3074026E-1,6.692045E-1,9.100304E-2,-1.3121796E-1,6.715753E-2,2.936273E-1,5.162875E-1,-7.4969757E-1,3.3644593E-1,1.1488733E0,1.3522735E-1,5.2216446E-1,4.1394555E-3,7.424378E-1,1.5675046E0,1.8910624E-1,6.323556E-1],"categories":[],"categories_nodes":[],"categories_segments":[],"categories_sizes":[],"default_left":[0,0,0,0,0,0,0,0,0,0,0,0,0,0,0,0,0,0,0,0,0,0,0,0,0,0,0,0,0,0,0,0,0,0,0,0,0,0,0,0,0,0,0,0,0,0,0,0,0,0,0,0,0,0,0,0,0,0,0,0,0,0,0,0,0,0,0,0,0,0,0,0,0,0,0,0,0,0,0,0,0,0,0,0,0,0,0,0,0,0,0,0,0],"id":10,"left_children":[1,3,5,7,9,11,13,15,-1,17,-1,19,21,23,25,27,29,31,33,35,37,39,41,43,45,47,49,51,53,55,57,59,61,63,65,67,69,71,73,75,77,-1,79,81,83,85,87,89,91,-1,-1,-1,-1,-1,-1,-1,-1,-1,-1,-1,-1,-1,-1,-1,-1,-1,-1,-1,-1,-1,-1,-1,-1,-1,-1,-1,-1,-1,-1,-1,-1,-1,-1,-1,-1,-1,-1,-1,-1,-1,-1,-1,-1],"loss_changes":[5.3559927E3,3.6108618E2,1.7757543E3,2.580276E2,5.897812E1,1.1539944E3,3.843269E2,2.165918E2,0E0,4.582115E1,0E0,1.2514675E3,9.529956E1,3.4325378E2,1.3215088E2,1.502752E2,9.802295E1,3.523739E1,2.0701E1,9.539282E2,4.2332397E1,5.3909668E1,5.109395E0,5.594852E2,1.547649E2,1.0959021E2,3.4228516E0,1.22850464E2,2.7346184E1,1.16765625E2,3.8911774E1,2.7219143E1,2.082154E1,1.7535593E1,1.8968792E1,9.740359E2,8.1058044E1,2.5590393E1,1.6069153E1,2.8996094E1,3.1512589E1,0E0,1.0680712E0,1.1451245E2,6.245172E2,9.842749E1,1.6204815E1,1.2100549E2,8.233685E1,0E0,0E0,0E0,0E0,0E0,0E0,0E0,0E0,0E0,0E0,0E0,0E0,0E0,0E0,0E0,0E0,0E0,0E0,0E0,0E0,0E0,0E0,0E0,0E0,0E0,0E0,0E0,0E0,0E0,0E0,0E0,0E0,0E0,0E0,0E0,0E0,0E0,0E0,0E0,0E0,0E0,0E0,0E0,0E0],"parents":[2147483647,0,0,1,1,2,2,3,3,4,4,5,5,6,6,7,7,9,9,11,11,12,12,13,13,14,14,15,15,16,16,17,17,18,18,19,19,20,20,21,21,22,22,23,23,24,24,25,25,26,26,27,27,28,28,29,29,30,30,31,31,32,32,33,33,34,34,35,35,36,36,37,37,38,38,39,39,40,40,42,42,43,43,44,44,45,45,46,46,47,47,48,48],"right_children":[2,4,6,8,10,12,14,16,-1,18,-1,20,22,24,26,28,30,32,34,36,38,40,42,44,46,48,50,52,54,56,58,60,62,64,66,68,70,72,74,76,78,-1,80,82,84,86,88,90,92,-1,-1,-1,-1,-1,-1,-1,-1,-1,-1,-1,-1,-1,-1,-1,-1,-1,-1,-1,-1,-1,-1,-1,-1,-1,-1,-1,-1,-1,-1,-1,-1,-1,-1,-1,-1,-1,-1,-1,-1,-1,-1,-1,-1],"split_conditions":[1.835E3,2E0,1E0,2E0,1E0,2E0,2E0,5E3,1.7742056E0,6E3,1.8088406E0,2E0,7.334E3,7.161E3,2E0,2E0,1E0,2E0,1.587E3,2E0,3.886E3,1E0,7.683E3,8E3,2E0,3.313E3,2E0,1E0,1.814E3,2E0,2E0,2E0,1.627E3,1.461E3,1.814E3,2E0,2.575E3,2E0,5E3,2E0,8E3,3.6444244E-1,1E0,1E0,5.222E3,2E0,7.683E3,3.054E3,5E3,1.486572E0,3.5825616E-1,-3.1114948E-1,9.4145685E-2,1.3723013E0,-1.711235E-1,-4.4880757E-1,4.0004078E-1,-1.0013913E0,-9.262419E-2,1.4854471E-1,1.0829736E0,9.861621E-1,-5.6904603E-2,-1.0792845E-1,5.705595E-1,-8.0870384E-1,3.503111E-1,-6.320612E-2,1.3122495E0,4.619082E-2,4.7251222E-1,2.7391043E0,8.624436E-1,7.618226E-1,1.6541668E0,9.9292034E-1,5.3074026E-1,6.692045E-1,9.100304E-2,-1.3121796E-1,6.715753E-2,2.936273E-1,5.162875E-1,-7.4969757E-1,3.3644593E-1,1.1488733E0,1.3522735E-1,5.2216446E-1,4.1394555E-3,7.424378E-1,1.5675046E0,1.8910624E-1,6.323556E-1],"split_indices":[0,2,3,9,19,4,3,1,0,1,0,9,0,0,6,19,6,4,0,2,0,6,0,1,2,0,4,3,0,4,3,7,0,0,0,19,0,2,1,2,1,0,5,2,0,4,0,0,1,0,0,0,0,0,0,0,0,0,0,0,0,0,0,0,0,0,0,0,0,0,0,0,0,0,0,0,0,0,0,0,0,0,0,0,0,0,0,0,0,0,0,0,0],"split_type":[0,0,0,0,0,0,0,0,0,0,0,0,0,0,0,0,0,0,0,0,0,0,0,0,0,0,0,0,0,0,0,0,0,0,0,0,0,0,0,0,0,0,0,0,0,0,0,0,0,0,0,0,0,0,0,0,0,0,0,0,0,0,0,0,0,0,0,0,0,0,0,0,0,0,0,0,0,0,0,0,0,0,0,0,0,0,0,0,0,0,0,0,0],"sum_hessian":[8E3,2.471E3,5.529E3,2.37E3,1.01E2,4.002E3,1.527E3,2.366E3,4E0,1E2,1E0,3.799E3,2.03E2,1.145E3,3.82E2,7.81E2,1.585E3,6.8E1,3.2E1,3.767E3,3.2E1,1.83E2,2E1,1.033E3,1.12E2,3.62E2,2E1,7.75E2,6E0,1.542E3,4.3E1,5.8E1,1E1,2.6E1,6E0,3.333E3,4.34E2,1E1,2.2E1,1.3E2,5.3E1,5E0,1.5E1,8.43E2,1.9E2,8.8E1,2.4E1,1E2,2.62E2,1.9E1,1E0,7.01E2,7.4E1,5E0,1E0,1.528E3,1.4E1,3.8E1,5E0,5.6E1,2E0,8E0,2E0,2.3E1,3E0,5E0,1E0,3.287E3,4.6E1,4.5E1,3.89E2,8E0,2E0,5E0,1.7E1,1.12E2,1.8E1,4.2E1,1.1E1,2E0,1.3E1,4.16E2,4.27E2,8.7E1,1.03E2,7.8E1,1E1,7E0,1.7E1,7.9E1,2.1E1,4.7E1,2.15E2],"tree_param":{"num_deleted":"0","num_feature":"22","num_nodes":"93","size_leaf_vector":"1"}},{"base_weights":[1.4789487E-2,-5.748717E-1,6.532527E-1,-7.2202355E-1,5.061799E-1,9.500176E-1,8.290475E-2,-5.5802155E-1,-1.4882808E0,4.1415358E-1,5.4704876E0,9.192988E-1,3.5643663E0,-1.1472696E0,1.1539474E0,-5.796535E-1,1.8020473E0,-1.4187443E0,-3.5903556E0,7.982276E-1,-6.585306E-1,7.9009515E-1,2.1639683E0,7.113738E-1,1.2371014E0,4.0595126E0,-5.4517746E-1,-1.3523583E0,2.8833675E0,7.904829E-1,1.7987378E0,-9.764276E-1,-2.8133175E-1,-1.4553084E0,-2.9605103E-1,-4.4989853E0,-7.203886E-1,4.2660135E-1,1.8090972E0,-1.5536898E0,1.3094433E-1,1.0437783E0,-8.87424E-2,9.2940044E-1,1.3733469E0,2.2514608E0,5.448453E0,-1.3933308E-1,-2.644066E-1,-7.3207736E-1,-2.3828173E0,-1.2741586E0,3.8329558E0,3.252886E-1,2.7952008E0,2.3630385E0,2.2213351E-2,-4.4125602E-1,-2.4069975E-1,-6.887322E-2,-9.56235E-1,-4.3954137E-1,6.737263E-1,-1.5782699E-1,7.175478E-2,-1.7171067E0,-8.1357276E-1,-4.4414786E-1,1.59964E-1,1.6626388E-1,-5.72998E-1,4.021381E-1,1.2293377E0,-7.5309426E-1,-2.4589099E-1,2.0944987E-1,-2.7539453E-1,3.350097E-1,-1.3010156E-1,-5.740901E-2,1.9079208E0,1.791001E-1,9.569266E-1,4.6289012E-1,2.787689E-1,8.516529E-1,-1.9582824E-1,2.2577112E0,1.1594949E0,-5.7760622E-2,-4.93927E-3,-1.6687708E-1,-5.212884E-1,-8.624247E-1,5.2017236E-1,7.559186E-1,1.5160127E0,9.533173E-3,9.911732E-1,1.381038E0,5.3297293E-1,7.7910656E-1,2.8762376E-2,1.1659715E-2,-5.261902E-2],"categories":[],"categories_nodes":[],"categories_segments":[],"categories_sizes":[],"default_left":[0,0,0,0,0,0,0,0,0,0,0,0,0,0,0,0,0,0,0,0,0,0,0,0,0,0,0,0,0,0,0,0,0,0,0,0,0,0,0,0,0,0,0,0,0,0,0,0,0,0,0,0,0,0,0,0,0,0,0,0,0,0,0,0,0,0,0,0,0,0,0,0,0,0,0,0,0,0,0,0,0,0,0,0,0,0,0,0,0,0,0,0,0,0,0,0,0,0,0,0,0,0,0,0,0],"id":11,"left_children":[1,3,5,7,9,11,13,15,17,19,21,23,25,27,29,31,-1,33,35,37,39,-1,-1,41,43,45,47,49,51,53,55,57,59,61,63,65,67,69,71,73,75,77,79,81,83,85,87,89,-1,91,93,-1,95,97,99,101,103,-1,-1,-1,-1,-1,-1,-1,-1,-1,-1,-1,-1,-1,-1,-1,-1,-1,-1,-1,-1,-1,-1,-1,-1,-1,-1,-1,-1,-1,-1,-1,-1,-1,-1,-1,-1,-1,-1,-1,-1,-1,-1,-1,-1,-1,-1,-1,-1],"loss_changes":[3.012568E3,6.6213293E2,6.5021533E2,4.5936475E2,2.2570117E2,1.9966528E2,1.7352448E3,4.320686E2,8.918628E1,2.0281279E2,2.5497711E1,1.6425171E2,6.1223083E1,5.1062885E2,1.6356647E2,3.5588953E2,0E0,2.5266602E1,4.8913788E1,1.3521921E2,9.207521E1,0E0,0E0,4.0249347E2,4.0101562E1,5.3026215E1,4.2294157E-1,3.7153308E2,2.1941228E2,4.206184E2,2.5357867E2,1.09945435E2,2.5781323E2,2.5336304E1,2.7114482E0,1.7307434E1,6.506627E0,8.037349E1,9.854605E1,4.077745E1,4.228907E1,1.15654785E2,2.9569537E2,2.2800644E2,4.994214E1,2.4029633E1,1.6962982E1,1.6440772E-2,0E0,6.3740906E1,4.484917E2,0E0,3.0539398E1,3.2162244E2,1.4838623E2,1.01602905E2,2.1083875E-1,0E0,0E0,0E0,0E0,0E0,0E0,0E0,0E0,0E0,0E0,0E0,0E0,0E0,0E0,0E0,0E0,0E0,0E0,0E0,0E0,0E0,0E0,0E0,0E0,0E0,0E0,0E0,0E0,0E0,0E0,0E0,0E0,0E0,0E0,0E0,0E0,0E0,0E0,0E0,0E0,0E0,0E0,0E0,0E0,0E0,0E0,0E0,0E0],"parents":[2147483647,0,0,1,1,2,2,3,3,4,4,5,5,6,6,7,7,8,8,9,9,10,10,11,11,12,12,13,13,14,14,15,15,17,17,18,18,19,19,20,20,23,23,24,24,25,25,26,26,27,27,28,28,29,29,30,30,31,31,32,32,33,33,34,34,35,35,36,36,37,37,38,38,39,39,40,40,41,41,42,42,43,43,44,44,45,45,46,46,47,47,49,49,50,50,52,52,53,53,54,54,55,55,56,56],"right_children":[2,4,6,8,10,12,14,16,18,20,22,24,26,28,30,32,-1,34,36,38,40,-1,-1,42,44,46,48,50,52,54,56,58,60,62,64,66,68,70,72,74,76,78,80,82,84,86,88,90,-1,92,94,-1,96,98,100,102,104,-1,-1,-1,-1,-1,-1,-1,-1,-1,-1,-1,-1,-1,-1,-1,-1,-1,-1,-1,-1,-1,-1,-1,-1,-1,-1,-1,-1,-1,-1,-1,-1,-1,-1,-1,-1,-1,-1,-1,-1,-1,-1,-1,-1,-1,-1,-1,-1],"split_conditions":[3.075E3,1E0,8E3,8E3,2E0,2E0,5.692E3,2E0,1E0,6E3,1E0,4.445E3,4.912E3,2E0,7.831E3,1.221E3,1.8020473E0,2.956E3,1E0,2E0,1E0,7.9009515E-1,2.1639683E0,6E3,1E0,5E3,6.079E3,1E0,3.448E3,2E0,2E0,3.41E2,2E0,2E0,3.026E3,1E0,2E0,2E0,2E0,1.926E3,8E3,2E0,2E0,5.922E3,2E0,1E0,3.886E3,5.149E3,-2.644066E-1,5.09E3,2E0,-1.2741586E0,2E0,2E0,6.405E3,2E0,2E0,-4.4125602E-1,-2.4069975E-1,-6.887322E-2,-9.56235E-1,-4.3954137E-1,6.737263E-1,-1.5782699E-1,7.175478E-2,-1.7171067E0,-8.1357276E-1,-4.4414786E-1,1.59964E-1,1.6626388E-1,-5.72998E-1,4.021381E-1,1.2293377E0,-7.5309426E-1,-2.4589099E-1,2.0944987E-1,-2.7539453E-1,3.350097E-1,-1.3010156E-1,-5.740901E-2,1.9079208E0,1.791001E-1,9.569266E-1,4.6289012E-1,2.787689E-1,8.516529E-1,-1.9582824E-1,2.2577112E0,1.1594949E0,-5.7760622E-2,-4.93927E-3,-1.6687708E-1,-5.212884E-1,-8.624247E-1,5.2017236E-1,7.559186E-1,1.5160127E0,9.533173E-3,9.911732E-1,1.381038E0,5.3297293E-1,7.7910656E-1,2.8762376E-2,1.1659715E-2,-5.261902E-2],"split_indices":[0,3,1,1,19,9,0,9,6,1,4,0,0,3,0,0,0,0,4,3,2,0,0,1,5,1,0,5,0,2,2,0,6,4,0,2,4,6,2,0,1,6,19,0,2,4,0,0,0,0,4,0,2,4,0,4,3,0,0,0,0,0,0,0,0,0,0,0,0,0,0,0,0,0,0,0,0,0,0,0,0,0,0,0,0,0,0,0,0,0,0,0,0,0,0,0,0,0,0,0,0,0,0,0,0],"split_type":[0,0,0,0,0,0,0,0,0,0,0,0,0,0,0,0,0,0,0,0,0,0,0,0,0,0,0,0,0,0,0,0,0,0,0,0,0,0,0,0,0,0,0,0,0,0,0,0,0,0,0,0,0,0,0,0,0,0,0,0,0,0,0,0,0,0,0,0,0,0,0,0,0,0,0,0,0,0,0,0,0,0,0,0,0,0,0,0,0,0,0,0,0,0,0,0,0,0,0,0,0,0,0,0,0],"sum_hessian":[8E3,4.159E3,3.841E3,3.661E3,4.98E2,2.526E3,1.315E3,3.017E3,6.44E2,4.9E2,8E0,2.498E3,2.8E1,6.12E2,7.03E2,3.008E3,9E0,6.25E2,1.9E1,3.61E2,1.29E2,4E0,4E0,1.512E3,9.86E2,2.5E1,3E0,5.83E2,2.9E1,4.51E2,2.52E2,1.29E3,1.718E3,6.05E2,2E1,1.4E1,5E0,2.65E2,9.6E1,6E1,6.9E1,1.068E3,4.44E2,3.05E2,6.81E2,1.2E1,1.3E1,2E0,1E0,3.65E2,2.18E2,3E0,2.6E1,3.67E2,8.4E1,1.91E2,6.1E1,3.34E2,9.56E2,1.689E3,2.9E1,6.04E2,1E0,1.4E1,6E0,7E0,7E0,3E0,2E0,2.52E2,1.3E1,8.1E1,1.5E1,2.5E1,3.5E1,4.5E1,2.4E1,1.018E3,5E1,4.38E2,6E0,2.67E2,3.8E1,4.91E2,1.9E2,1E1,2E0,4E0,9E0,1E0,1E0,3.12E2,5.3E1,1.95E2,2.3E1,1.4E1,1.2E1,3.35E2,3.2E1,2.9E1,5.5E1,1.73E2,1.8E1,5.7E1,4E0],"tree_param":{"num_deleted":"0","num_feature":"22","num_nodes":"105","size_leaf_vector":"1"}},{"base_weights":[1.1836483E-2,-4.022799E-1,4.6022594E-1,-4.9016887E-1,9.626419E-1,8.3500814E-1,2.3494641E-1,-5.18027E-1,2.7975948E0,1.5784962E0,4.586835E-1,6.0870993E-1,1.0412642E0,-5.269837E-1,6.04693E-1,-4.8108461E-1,-2.9422E0,1.8863647E0,5.0179453E0,1.0936991E0,3.241234E0,1.3546844E-1,2.509923E0,5.155376E-1,4.7670956E0,1.6808293E0,7.9082304E-1,-7.8941756E-1,1.8962973E0,2.9550406E-1,9.9727786E-1,-6.1766338E-2,-6.859807E-1,-1.9125031E0,-5.766497E0,2.3812535E0,-7.765833E-2,5.436676E0,2.502148E-1,9.1035897E-1,4.762087E0,1.6236207E0,2.427922E0,6.775712E-2,1.2492806E0,1.2401174E0,4.100891E0,6.319469E-1,-1.8469479E0,6.718889E0,4.729899E-1,1.8031389E0,-1.2646899E0,1.1861274E0,6.0278577E-1,-1.0650219E-1,-2.1404538E0,6.3187885E-1,3.967339E0,7.999676E-2,1.6929688E0,9.676264E-1,4.324997E0,-1.622689E-1,1.0521958E-1,-1.6606383E-1,-3.236213E-1,-7.375237E-1,5.86397E-1,-1.8318824E0,-1.5144311E-1,8.3005005E-1,2.0134416E-1,-2.9896832E-1,3.5202944E-1,1.8731545E0,6.0303193E-1,2.0762129E-1,9.8250836E-1,1.6774545E0,3.4107056E-1,7.893681E-1,-2.1523018E-1,-4.2395506E-2,3.815954E-1,2.1369716E-2,7.191391E-1,1.5412865E0,-4.7343293E-1,1.13447316E-1,4.7907987E-1,-8.177089E-1,1.0330298E0,2.173481E0,3.7657702E-1,4.447062E-1,8.4243745E-1,-5.503445E-1,-2.8149033E-2,6.8160236E-1,-1.2634917E-1,-1.209909E-1,2.0305793E-1,1.3741791E-1,-2.0334543E-1,1.3612136E-1,-1.0445247E0,3.9108777E-1,-1.4921585E-1,1.9234889E0,8.694518E-1,-3.171149E-2,8.1098425E-1,5.580082E-1,-1.0421471E-1,2.169301E-1,4.0072745E-1,1.5451273E0,2.9679108E-2],"categories":[],"categories_nodes":[],"categories_segments":[],"categories_sizes":[],"default_left":[0,0,0,0,0,0,0,0,0,0,0,0,0,0,0,0,0,0,0,0,0,0,0,0,0,0,0,0,0,0,0,0,0,0,0,0,0,0,0,0,0,0,0,0,0,0,0,0,0,0,0,0,0,0,0,0,0,0,0,0,0,0,0,0,0,0,0,0,0,0,0,0,0,0,0,0,0,0,0,0,0,0,0,0,0,0,0,0,0,0,0,0,0,0,0,0,0,0,0,0,0,0,0,0,0,0,0,0,0,0,0,0,0,0,0,0,0,0,0],"id":12,"left_children":[1,3,5,7,9,11,13,15,17,19,21,23,25,27,29,31,33,35,37,39,41,43,45,47,49,51,53,55,57,59,61,63,65,67,69,71,73,75,-1,77,79,-1,81,83,-1,85,87,89,91,93,-1,95,97,99,101,103,105,107,109,111,113,115,117,-1,-1,-1,-1,-1,-1,-1,-1,-1,-1,-1,-1,-1,-1,-1,-1,-1,-1,-1,-1,-1,-1,-1,-1,-1,-1,-1,-1,-1,-1,-1,-1,-1,-1,-1,-1,-1,-1,-1,-1,-1,-1,-1,-1,-1,-1,-1,-1,-1,-1,-1,-1,-1,-1,-1,-1],"loss_changes":[1.4858541E3,4.995121E2,3.2418683E2,3.5947858E2,7.7487946E1,6.6672E1,6.7673083E2,3.4578845E2,5.7301575E1,8.7543274E1,9.247879E1,2.6488043E2,1.1928131E2,5.007187E2,1.9598145E2,3.281595E2,1.5764539E2,2.4484253E1,1.123288E1,5.552288E1,3.0999084E1,3.299887E1,3.3298607E1,1.8707753E2,8.281363E1,7.829639E1,3.9647247E1,6.539263E2,1.9913016E2,2.727191E2,6.6069275E1,2.4822827E2,1.3287231E2,9.7694534E1,2.3734467E1,1.1330688E1,8.067174E0,9.575851E0,0E0,4.2124817E1,5.670311E0,0E0,1.4677063E1,3.0644459E1,0E0,1.6058226E1,5.5208466E1,1.5735852E2,1.5815097E2,1.6772888E1,0E0,6.128131E1,5.832185E0,3.0464368E2,2.7847229E1,1.5255084E2,8.2971875E2,3.781884E1,5.720526E1,3.8318433E2,4.1889923E1,6.2676758E1,2.0420341E1,0E0,0E0,0E0,0E0,0E0,0E0,0E0,0E0,0E0,0E0,0E0,0E0,0E0,0E0,0E0,0E0,0E0,0E0,0E0,0E0,0E0,0E0,0E0,0E0,0E0,0E0,0E0,0E0,0E0,0E0,0E0,0E0,0E0,0E0,0E0,0E0,0E0,0E0,0E0,0E0,0E0,0E0,0E0,0E0,0E0,0E0,0E0,0E0,0E0,0E0,0E0,0E0,0E0,0E0,0E0,0E0],"parents":[2147483647,0,0,1,1,2,2,3,3,4,4,5,5,6,6,7,7,8,8,9,9,10,10,11,11,12,12,13,13,14,14,15,15,16,16,17,17,18,18,19,19,20,20,21,21,22,22,23,23,24,24,25,25,26,26,27,27,28,28,29,29,30,30,31,31,32,32,33,33,34,34,35,35,36,36,37,37,39,39,40,40,42,42,43,43,45,45,46,46,47,47,48,48,49,49,51,51,52,52,53,53,54,54,55,55,56,56,57,57,58,58,59,59,60,60,61,61,62,62],"right_children":[2,4,6,8,10,12,14,16,18,20,22,24,26,28,30,32,34,36,38,40,42,44,46,48,50,52,54,56,58,60,62,64,66,68,70,72,74,76,-1,78,80,-1,82,84,-1,86,88,90,92,94,-1,96,98,100,102,104,106,108,110,112,114,116,118,-1,-1,-1,-1,-1,-1,-1,-1,-1,-1,-1,-1,-1,-1,-1,-1,-1,-1,-1,-1,-1,-1,-1,-1,-1,-1,-1,-1,-1,-1,-1,-1,-1,-1,-1,-1,-1,-1,-1,-1,-1,-1,-1,-1,-1,-1,-1,-1,-1,-1,-1,-1,-1,-1,-1,-1],"split_conditions":[3.075E3,2E0,6E3,2E0,5E3,3.91E3,4.445E3,2E0,2.508E3,2.747E3,2E0,2E0,1E0,2E0,1E0,5E3,2.437E3,2.389E3,6E3,1E0,2.817E3,2E0,2.485E3,2E0,2E0,2E0,5E3,1E0,1E0,7.831E3,2E0,1.373E3,8E3,2E0,2E0,8E3,2.437E3,2.894E3,2.502148E-1,2E0,2.309E3,1.6236207E0,1E0,2E0,1.2492806E0,1E0,1E0,2E0,2E0,2E0,4.729899E-1,4.912E3,2E0,2E0,4.046E3,8E3,3.583E3,8E3,3.404E3,2E0,2E0,1E0,6.079E3,-1.622689E-1,1.0521958E-1,-1.6606383E-1,-3.236213E-1,-7.375237E-1,5.86397E-1,-1.8318824E0,-1.5144311E-1,8.3005005E-1,2.0134416E-1,-2.9896832E-1,3.5202944E-1,1.8731545E0,6.0303193E-1,2.0762129E-1,9.8250836E-1,1.6774545E0,3.4107056E-1,7.893681E-1,-2.1523018E-1,-4.2395506E-2,3.815954E-1,2.1369716E-2,7.191391E-1,1.5412865E0,-4.7343293E-1,1.13447316E-1,4.7907987E-1,-8.177089E-1,1.0330298E0,2.173481E0,3.7657702E-1,4.447062E-1,8.4243745E-1,-5.503445E-1,-2.8149033E-2,6.8160236E-1,-1.2634917E-1,-1.209909E-1,2.0305793E-1,1.3741791E-1,-2.0334543E-1,1.3612136E-1,-1.0445247E0,3.9108777E-1,-1.4921585E-1,1.9234889E0,8.694518E-1,-3.171149E-2,8.1098425E-1,5.580082E-1,-1.0421471E-1,2.169301E-1,4.0072745E-1,1.5451273E0,2.9679108E-2],"split_indices":[0,2,1,19,1,0,0,6,0,0,4,19,5,2,2,1,0,0,1,19,0,19,0,6,5,19,1,5,3,0,9,0,1,3,3,1,0,0,0,3,0,0,9,3,0,3,7,5,3,4,0,0,4,5,0,1,0,1,0,4,3,3,0,0,0,0,0,0,0,0,0,0,0,0,0,0,0,0,0,0,0,0,0,0,0,0,0,0,0,0,0,0,0,0,0,0,0,0,0,0,0,0,0,0,0,0,0,0,0,0,0,0,0,0,0,0,0,0,0],"split_type":[0,0,0,0,0,0,0,0,0,0,0,0,0,0,0,0,0,0,0,0,0,0,0,0,0,0,0,0,0,0,0,0,0,0,0,0,0,0,0,0,0,0,0,0,0,0,0,0,0,0,0,0,0,0,0,0,0,0,0,0,0,0,0,0,0,0,0,0,0,0,0,0,0,0,0,0,0,0,0,0,0,0,0,0,0,0,0,0,0,0,0,0,0,0,0,0,0,0,0,0,0,0,0,0,0,0,0,0,0,0,0,0,0,0,0,0,0,0,0],"sum_hessian":[8E3,4.159E3,3.841E3,3.908E3,2.51E2,1.441E3,2.4E3,3.876E3,3.2E1,1.12E2,1.39E2,6.89E2,7.52E2,7.84E2,1.616E3,3.819E3,5.7E1,2.4E1,8E0,8.8E1,2.4E1,1.21E2,1.8E1,6.75E2,1.4E1,2.1E2,5.42E2,7.08E2,7.6E1,9.05E2,7.11E2,1.254E3,2.565E3,4.3E1,1.4E1,1.9E1,5E0,7E0,1E0,8.5E1,3E0,5E0,1.9E1,1.2E2,1E0,1.1E1,7E0,6.44E2,3.1E1,8E0,6E0,2.02E2,8E0,1.73E2,3.69E2,4.71E2,2.37E2,4.8E1,2.8E1,7.85E2,1.2E2,7.06E2,5E0,5.8E2,6.74E2,1.92E3,6.45E2,3.8E1,5E0,1.3E1,1E0,1.5E1,4E0,3E0,2E0,5E0,2E0,7.9E1,6E0,2E0,1E0,1.8E1,1E0,1.03E2,1.7E1,6E0,5E0,6E0,1E0,5.11E2,1.33E2,2.7E1,4E0,7E0,1E0,1.55E2,4.7E1,5E0,3E0,1.03E2,7E1,2.5E1,3.44E2,2.37E2,2.34E2,8.1E1,1.56E2,3E1,1.8E1,7E0,2.1E1,7.34E2,5.1E1,1.11E2,9E0,4.26E2,2.8E2,4E0,1E0],"tree_param":{"num_deleted":"0","num_feature":"22","num_nodes":"119","size_leaf_vector":"1"}},{"base_weights":[1.0859762E-2,-4.5166183E-1,2.1761248E-1,-4.862727E-1,1.2346153E0,2.369745E-2,5.8046085E-1,-5.018074E-1,2.2226498E0,3.8386798E0,5.693651E-1,1.3980736E-1,-8.8145125E-1,3.7369394E-1,8.837701E-1,-1.3181268E0,-4.6663553E-1,1.1734005E0,1.3657268E0,1.785018E-1,1.2398928E0,-6.5941805E-1,6.9350225E-1,1.17000304E-1,3.149265E0,-1.6124468E0,2.9464573E-1,1.1140529E0,1.4227489E-1,1.0725818E0,5.446613E-1,-4.6332163E-1,-3.4929314E-1,-4.7422683E-1,9.392552E-1,1.9301652E0,-4.4640812E-1,1.8469565E-1,1.193074E0,6.0555406E-2,1.3770194E0,1.5935954E0,1.9462637E0,-2.4898312E0,-3.919986E-1,-1.7199254E-1,1.8253274E0,1.7759165E-1,1.2740566E0,-4.9583387E-1,6.7820185E-1,1.0063753E0,3.146163E0,-2.6487526E-2,1.1119472E0,-1.3754271E-1,-5.221345E-1,8.284665E-1,6.0161877E-2,1.3134754E-1,-3.0016825E-1,8.7473124E-1,1.7404926E-1,7.8073447E-3,6.499232E-1,3.519778E-1,1.2365817E0,6.983288E-1,-1.8299562E-1,-1.9030339E-1,-1.0874096E0,3.4716108E-1,-5.801825E-1,-1.24553196E-1,6.959119E-1,6.221026E-1,-2.2258873E-1,1.9144379E-1,-1.2726216E0,5.091776E-1,3.0857092E-1,-3.8151214E-1,2.544491E-1,3.0912083E-1,1.0989479E-1,2.2427426E-1,4.2702007E-1,1.1885726E0,2.1668702E-1,1.6844164E-1,-2.559505E-1,5.051662E-1,6.412636E-2],"categories":[],"categories_nodes":[],"categories_segments":[],"categories_sizes":[],"default_left":[0,0,0,0,0,0,0,0,0,0,0,0,0,0,0,0,0,0,0,0,0,0,0,0,0,0,0,0,0,0,0,0,0,0,0,0,0,0,0,0,0,0,0,0,0,0,0,0,0,0,0,0,0,0,0,0,0,0,0,0,0,0,0,0,0,0,0,0,0,0,0,0,0,0,0,0,0,0,0,0,0,0,0,0,0,0,0,0,0,0,0,0,0],"id":13,"left_children":[1,3,5,7,9,11,13,15,17,19,21,23,25,27,29,31,33,35,-1,-1,-1,-1,37,39,41,43,45,47,49,51,53,-1,-1,55,-1,57,-1,59,61,63,65,-1,67,69,71,73,75,77,79,81,83,85,87,89,91,-1,-1,-1,-1,-1,-1,-1,-1,-1,-1,-1,-1,-1,-1,-1,-1,-1,-1,-1,-1,-1,-1,-1,-1,-1,-1,-1,-1,-1,-1,-1,-1,-1,-1,-1,-1,-1,-1],"loss_changes":[7.652146E2,1.4487509E2,3.8908676E2,1.0308081E2,8.4432106E1,3.7899695E2,1.2045752E2,6.857959E1,2.8881348E1,7.0868835E0,1.5609508E1,2.1899496E2,3.52961E2,1.9636064E2,4.935742E1,1.6475677E0,6.4624725E1,2.5026955E1,0E0,0E0,0E0,0E0,9.94706E0,2.255856E2,5.2103577E1,2.6993695E2,1.13169334E2,4.067929E1,2.995685E2,6.547589E1,9.1074776E1,0E0,0E0,4.5233887E1,0E0,1.2388134E1,0E0,6.73856E0,1.9425531E1,2.2085828E2,7.122937E1,0E0,1.7998413E1,3.0724316E2,2.5783755E2,7.488816E1,2.512909E1,8.616236E1,2.2460754E1,4.181873E2,5.190947E1,5.138681E1,2.6797318E1,6.901278E1,7.20735E1,0E0,0E0,0E0,0E0,0E0,0E0,0E0,0E0,0E0,0E0,0E0,0E0,0E0,0E0,0E0,0E0,0E0,0E0,0E0,0E0,0E0,0E0,0E0,0E0,0E0,0E0,0E0,0E0,0E0,0E0,0E0,0E0,0E0,0E0,0E0,0E0,0E0,0E0],"parents":[2147483647,0,0,1,1,2,2,3,3,4,4,5,5,6,6,7,7,8,8,9,9,10,10,11,11,12,12,13,13,14,14,15,15,16,16,17,17,22,22,23,23,24,24,25,25,26,26,27,27,28,28,29,29,30,30,33,33,35,35,37,37,38,38,39,39,40,40,42,42,43,43,44,44,45,45,46,46,47,47,48,48,49,49,50,50,51,51,52,52,53,53,54,54],"right_children":[2,4,6,8,10,12,14,16,18,20,22,24,26,28,30,32,34,36,-1,-1,-1,-1,38,40,42,44,46,48,50,52,54,-1,-1,56,-1,58,-1,60,62,64,66,-1,68,70,72,74,76,78,80,82,84,86,88,90,92,-1,-1,-1,-1,-1,-1,-1,-1,-1,-1,-1,-1,-1,-1,-1,-1,-1,-1,-1,-1,-1,-1,-1,-1,-1,-1,-1,-1,-1,-1,-1,-1,-1,-1,-1,-1,-1,-1],"split_conditions":[1.835E3,2E0,1E0,2E0,1E0,1E0,1E0,1.09E2,1E0,2.47E2,2.67E2,2E0,1E0,5E3,4.954E3,6.7E1,2E0,1.507E3,1.3657268E0,1.785018E-1,1.2398928E0,-6.5941805E-1,1.221E3,2E0,3.886E3,4.693E3,2E0,2.366E3,4.626E3,4.841E3,8E3,-4.6332163E-1,-3.4929314E-1,2E0,9.392552E-1,8E3,-4.4640812E-1,1.174E3,1.413E3,2E0,1E0,1.5935954E0,1E0,5E3,8E3,7.04E3,1E0,2.337E3,3.19E3,2E0,8E3,2E0,4.912E3,2E0,7.683E3,-1.3754271E-1,-5.221345E-1,8.284665E-1,6.0161877E-2,1.3134754E-1,-3.0016825E-1,8.7473124E-1,1.7404926E-1,7.8073447E-3,6.499232E-1,3.519778E-1,1.2365817E0,6.983288E-1,-1.8299562E-1,-1.9030339E-1,-1.0874096E0,3.4716108E-1,-5.801825E-1,-1.24553196E-1,6.959119E-1,6.221026E-1,-2.2258873E-1,1.9144379E-1,-1.2726216E0,5.091776E-1,3.0857092E-1,-3.8151214E-1,2.544491E-1,3.0912083E-1,1.0989479E-1,2.2427426E-1,4.2702007E-1,1.1885726E0,2.1668702E-1,1.6844164E-1,-2.559505E-1,5.051662E-1,6.412636E-2],"split_indices":[0,4,2,19,5,6,3,0,2,0,0,9,3,1,0,0,9,0,0,0,0,0,0,4,0,0,3,0,0,0,1,0,0,6,0,1,0,0,0,19,10,0,4,1,1,0,18,0,0,2,1,2,0,2,0,0,0,0,0,0,0,0,0,0,0,0,0,0,0,0,0,0,0,0,0,0,0,0,0,0,0,0,0,0,0,0,0,0,0,0,0,0,0],"split_type":[0,0,0,0,0,0,0,0,0,0,0,0,0,0,0,0,0,0,0,0,0,0,0,0,0,0,0,0,0,0,0,0,0,0,0,0,0,0,0,0,0,0,0,0,0,0,0,0,0,0,0,0,0,0,0,0,0,0,0,0,0,0,0,0,0,0,0,0,0,0,0,0,0,0,0,0,0,0,0,0,0,0,0,0,0,0,0,0,0,0,0,0,0],"sum_hessian":[8E3,2.471E3,5.529E3,2.422E3,4.9E1,3.604E3,1.925E3,2.409E3,1.3E1,9E0,4E1,3.195E3,4.09E2,1.146E3,7.79E2,9.8E1,2.311E3,1E1,3E0,1E0,8E0,1E0,3.9E1,3.172E3,2.3E1,2.52E2,1.57E2,2.72E2,8.74E2,4.99E2,2.8E2,3.6E1,6.2E1,2.307E3,4E0,8E0,2E0,2E1,1.9E1,3.037E3,1.35E2,7E0,1.6E1,1.46E2,1.06E2,1.21E2,3.6E1,4E1,2.32E2,3.99E2,4.75E2,4.85E2,1.4E1,1.4E2,1.4E2,2.28E3,2.7E1,5E0,3E0,1.7E1,3E0,4E0,1.5E1,2.989E3,4.8E1,1.27E2,8E0,1.4E1,2E0,5.6E1,9E1,5.3E1,5.3E1,1.11E2,1E1,3.3E1,3E0,3.7E1,3E0,8.3E1,1.49E2,2.53E2,1.46E2,2.22E2,2.53E2,3.01E2,1.84E2,1E1,4E0,8.2E1,5.8E1,8.5E1,5.5E1],"tree_param":{"num_deleted":"0","num_feature":"22","num_nodes":"93","size_leaf_vector":"1"}},{"base_weights":[8.764185E-3,-2.15494E-1,2.5158182E-1,-2.5695863E-1,1.2070234E0,4.231227E-1,-7.80044E-2,-2.9196694E-1,8.80186E-1,-5.9051037E-2,1.3377324E0,4.071335E-1,1.7863625E0,-6.86022E-1,6.0565084E-1,-3.0957085E-1,1.7925392E0,1.9952633E0,1.9368939E-1,4.094748E-1,-5.9582263E-1,1.3887173E0,-3.2230663E-1,3.622061E-1,9.0024126E-1,3.412365E0,8.840431E-1,-4.845031E-1,-2.1312578E0,5.5933255E-1,1.7835939E0,-3.1915718E-1,3.442802E0,1.0158106E0,4.532415E0,2.2915905E0,-3.6218262E-1,8.356027E-1,-5.8214056E-1,2.0503221E-1,3.3140182E-2,-1.0600235E0,2.5877726E-1,1.4939698E0,5.3702956E-1,-5.063198E-1,2.0862389E-1,1.6248207E-1,5.4541516E-1,1.4647363E0,-5.501741E-1,3.842548E0,-6.889229E-2,1.2663027E0,-2.8847122E-1,-5.354737E-1,1.4283803E0,-3.7327824E0,-5.54092E-1,6.5407133E-1,-2.8165272E-2,-9.147965E-1,2.3890774E0,-7.1965985E-2,-2.1110106E-1,5.009229E-1,1.1892449E0,6.4692396E-1,6.5406084E-2,1.6921505E0,3.5243988E-1,3.3569205E-1,8.9919204E-1,5.2745366E-1,-3.413672E-1,2.7383586E-2,1.1962712E0,-2.9017988E-1,7.9331994E-1,-4.529457E-2,4.3452453E-2,-5.8868104E-1,5.8669284E-2,3.5288832E-1,6.765404E-1,4.635445E-1,-8.585644E-2,3.0390207E-2,9.052927E-1,1.4011423E-1,2.7323192E-1,4.7070943E-2,6.660754E-1,-4.7281665E-1,-5.8796287E-2,1.3848827E0,2.269005E-1,1.3595582E-3,6.4472675E-1,-1.7719199E-1,8.4675986E-1,-1.3097675E0,5.476209E-1,-3.6813807E-1,4.028785E-1,4.8026106E-1,1.5556929E-1,-3.4908807E-1,2.9452795E-1,9.616379E-1,4.9203435E-1],"categories":[],"categories_nodes":[],"categories_segments":[],"categories_sizes":[],"default_left":[0,0,0,0,0,0,0,0,0,0,0,0,0,0,0,0,0,0,0,0,0,0,0,0,0,0,0,0,0,0,0,0,0,0,0,0,0,0,0,0,0,0,0,0,0,0,0,0,0,0,0,0,0,0,0,0,0,0,0,0,0,0,0,0,0,0,0,0,0,0,0,0,0,0,0,0,0,0,0,0,0,0,0,0,0,0,0,0,0,0,0,0,0,0,0,0,0,0,0,0,0,0,0,0,0,0,0,0,0,0,0],"id":14,"left_children":[1,3,5,7,9,11,13,15,17,19,21,23,25,27,29,31,33,35,37,39,41,43,45,47,49,51,53,55,57,59,61,63,65,67,69,71,73,75,77,-1,79,81,-1,83,85,-1,-1,87,89,91,93,95,-1,97,-1,99,-1,101,103,105,107,-1,109,-1,-1,-1,-1,-1,-1,-1,-1,-1,-1,-1,-1,-1,-1,-1,-1,-1,-1,-1,-1,-1,-1,-1,-1,-1,-1,-1,-1,-1,-1,-1,-1,-1,-1,-1,-1,-1,-1,-1,-1,-1,-1,-1,-1,-1,-1,-1,-1],"loss_changes":[4.3573938E2,2.4568436E2,2.1725014E2,1.6120679E2,1.9606506E1,5.4354126E1,5.47443E2,1.4451102E2,9.223866E1,3.2618704E0,9.503723E0,5.5036896E1,3.953134E1,2.0196323E2,3.2829773E1,1.4106393E2,6.5624535E1,3.2964447E1,3.833562E1,6.990707E-1,4.976347E0,8.520477E0,6.7321544E0,8.3778534E1,1.7110634E2,1.654969E1,1.5327711E1,1.6645349E2,2.1263068E2,3.33024E1,7.458883E1,1.1815671E2,2.6246872E0,2.4098827E1,1.9417221E1,3.0574982E1,1.1869303E1,9.817161E1,4.6049652E1,0E0,1.0413518E-1,6.0480003E0,0E0,1.9593216E1,1.1230917E1,0E0,0E0,1.9149585E2,3.379016E1,1.4786475E2,2.112896E1,1.7999527E1,0E0,1.8926119E1,0E0,1.1429828E2,0E0,1.5576483E2,5.7825417E1,6.524327E1,9.746782E1,0E0,7.5829163E0,0E0,0E0,0E0,0E0,0E0,0E0,0E0,0E0,0E0,0E0,0E0,0E0,0E0,0E0,0E0,0E0,0E0,0E0,0E0,0E0,0E0,0E0,0E0,0E0,0E0,0E0,0E0,0E0,0E0,0E0,0E0,0E0,0E0,0E0,0E0,0E0,0E0,0E0,0E0,0E0,0E0,0E0,0E0,0E0,0E0,0E0,0E0,0E0],"parents":[2147483647,0,0,1,1,2,2,3,3,4,4,5,5,6,6,7,7,8,8,9,9,10,10,11,11,12,12,13,13,14,14,15,15,16,16,17,17,18,18,19,19,20,20,21,21,22,22,23,23,24,24,25,25,26,26,27,27,28,28,29,29,30,30,31,31,32,32,33,33,34,34,35,35,36,36,37,37,38,38,40,40,41,41,43,43,44,44,47,47,48,48,49,49,50,50,51,51,53,53,55,55,57,57,58,58,59,59,60,60,62,62],"right_children":[2,4,6,8,10,12,14,16,18,20,22,24,26,28,30,32,34,36,38,40,42,44,46,48,50,52,54,56,58,60,62,64,66,68,70,72,74,76,78,-1,80,82,-1,84,86,-1,-1,88,90,92,94,96,-1,98,-1,100,-1,102,104,106,108,-1,110,-1,-1,-1,-1,-1,-1,-1,-1,-1,-1,-1,-1,-1,-1,-1,-1,-1,-1,-1,-1,-1,-1,-1,-1,-1,-1,-1,-1,-1,-1,-1,-1,-1,-1,-1,-1,-1,-1,-1,-1,-1,-1,-1,-1,-1,-1,-1,-1],"split_conditions":[3.075E3,2E0,8E3,2E0,7.01E2,2E0,6.079E3,2E0,5E3,6E3,1E0,2E0,3.91E3,1E0,2E0,2E0,2.729E3,2.91E3,2.287E3,5.04E2,8E3,2E0,1E0,4.113E3,4.994E3,2E0,4.912E3,2E0,1E0,1E0,6.276E3,8E3,1.292E3,1.548E3,2.91E3,1.898E3,1E0,2.073E3,3.026E3,2.0503221E-1,5E3,2E0,2.5877726E-1,2.529E3,1.864E3,-5.063198E-1,2.0862389E-1,2E0,5.818E3,5E3,6E3,2E0,-6.889229E-2,5E3,-2.8847122E-1,2E0,1.4283803E0,2E0,2E0,6.405E3,7.161E3,-9.147965E-1,1E0,-7.1965985E-2,-2.1110106E-1,5.009229E-1,1.1892449E0,6.4692396E-1,6.5406084E-2,1.6921505E0,3.5243988E-1,3.3569205E-1,8.9919204E-1,5.2745366E-1,-3.413672E-1,2.7383586E-2,1.1962712E0,-2.9017988E-1,7.9331994E-1,-4.529457E-2,4.3452453E-2,-5.8868104E-1,5.8669284E-2,3.5288832E-1,6.765404E-1,4.635445E-1,-8.585644E-2,3.0390207E-2,9.052927E-1,1.4011423E-1,2.7323192E-1,4.7070943E-2,6.660754E-1,-4.7281665E-1,-5.8796287E-2,1.3848827E0,2.269005E-1,1.3595582E-3,6.4472675E-1,-1.7719199E-1,8.4675986E-1,-1.3097675E0,5.476209E-1,-3.6813807E-1,4.028785E-1,4.8026106E-1,1.5556929E-1,-3.4908807E-1,2.9452795E-1,9.616379E-1,4.9203435E-1],"split_indices":[0,4,1,3,0,9,0,19,1,1,11,4,0,6,6,9,0,0,0,0,1,3,2,0,0,4,0,9,2,6,0,1,0,0,0,0,2,0,0,0,1,2,0,0,0,0,0,19,0,1,1,2,0,1,0,19,0,4,2,0,0,0,2,0,0,0,0,0,0,0,0,0,0,0,0,0,0,0,0,0,0,0,0,0,0,0,0,0,0,0,0,0,0,0,0,0,0,0,0,0,0,0,0,0,0,0,0,0,0,0,0],"split_type":[0,0,0,0,0,0,0,0,0,0,0,0,0,0,0,0,0,0,0,0,0,0,0,0,0,0,0,0,0,0,0,0,0,0,0,0,0,0,0,0,0,0,0,0,0,0,0,0,0,0,0,0,0,0,0,0,0,0,0,0,0,0,0,0,0,0,0,0,0,0,0,0,0,0,0,0,0,0,0,0,0,0,0,0,0,0,0,0,0,0,0,0,0,0,0,0,0,0,0,0,0,0,0,0,0,0,0,0,0,0,0],"sum_hessian":[8E3,4.159E3,3.841E3,4.042E3,1.17E2,2.526E3,1.315E3,3.922E3,1.2E2,1.1E1,1.06E2,2.498E3,2.8E1,6.96E2,6.19E2,3.89E3,3.2E1,4.5E1,7.5E1,6E0,5E0,1.03E2,3E0,2.291E3,2.07E2,9E0,1.9E1,6.12E2,8.4E1,5.97E2,2.2E1,3.881E3,9E0,2.6E1,6E0,4E1,5E0,4.1E1,3.4E1,3E0,3E0,4E0,1E0,9.1E1,1.2E1,1E0,2E0,1.097E3,1.194E3,1.49E2,5.8E1,8E0,1E0,1.6E1,3E0,6.07E2,5E0,4.1E1,4.3E1,5.14E2,8.3E1,2E0,2E1,3.219E3,6.62E2,3E0,6E0,1E1,1.6E1,4E0,2E0,1.6E1,2.4E1,1E0,4E0,3.4E1,7E0,3.1E1,3E0,1E0,2E0,2E0,2E0,6.6E1,2.5E1,5E0,7E0,1.075E3,2.2E1,9.85E2,2.09E2,5.5E1,9.4E1,1.4E1,4.4E1,6E0,2E0,7E0,9E0,5.98E2,9E0,3.7E1,4E0,3.2E1,1.1E1,6.3E1,4.51E2,3.9E1,4.4E1,8E0,1.2E1],"tree_param":{"num_deleted":"0","num_feature":"22","num_nodes":"111","size_leaf_vector":"1"}},{"base_weights":[7.919155E-3,-9.773056E-2,2.8989032E-1,-7.075283E-2,-1.2970546E0,-2.047298E0,3.0484915E-1,-1.883167E-1,1.765863E-1,-2.3812842E0,1.1477826E0,-2.4920125E0,4.1399255E-1,2.88648E-1,2.1220908E0,-2.092954E-1,9.8463273E-1,5.8513355E-1,-1.7976843E-2,-2.875181E0,2.3283734E0,2.0261397E0,1.6811828E-1,-3.149216E0,-3.903017E-1,5.780185E-1,-3.9172184E-1,1.4420198E-1,5.043119E-1,1.1219008E0,2.7475107E0,-2.1715519E-1,2.512784E0,1.4092691E0,5.185473E-1,4.766703E-1,1.0260975E0,-7.4833944E-2,2.6484377E0,-1.1453573E0,-3.8702664E0,2.7681823E0,-1.7851467E-1,2.2433572E0,-3.4773102E-1,-1.4828047E0,2.350669E0,-1.0905175E0,-2.8975365E-1,-3.2806435E-1,6.2588885E-2,6.621332E-1,-3.1098623E-2,5.9995425E-1,1.143188E-1,8.278107E-1,2.5985718E-1,1.1046078E0,1.3550771E0,-5.9472278E-2,-2.999929E-1,5.0177205E-1,9.5595664E-1,7.578305E-1,2.7765468E-1,3.1514108E-1,-9.491289E-2,1.9663046E-1,-6.344641E-3,3.9783797E-1,-3.2475144E-1,-1.0830476E-1,1.19941495E-1,1.1057475E0,-4.271469E-1,-8.6254984E-1,8.3242726E-1,-1.2928882E0,4.296341E-2,1.8581544E-1,8.96001E-1,7.3603874E-1,7.0481874E-2,-7.4633604E-1,7.0842135E-1,7.483392E-1,1.8004647E-1,1.8806526E-1,8.3992314E-1,-1.1230515E-1,9.780213E-2,1.1974483E-1,2.7900666E-1,-1.9912305E-1,1.5275168E-1,-8.895798E-2,1.625148E-1,-9.471207E-2,6.808188E-1],"categories":[],"categories_nodes":[],"categories_segments":[],"categories_sizes":[],"default_left":[0,0,0,0,0,0,0,0,0,0,0,0,0,0,0,0,0,0,0,0,0,0,0,0,0,0,0,0,0,0,0,0,0,0,0,0,0,0,0,0,0,0,0,0,0,0,0,0,0,0,0,0,0,0,0,0,0,0,0,0,0,0,0,0,0,0,0,0,0,0,0,0,0,0,0,0,0,0,0,0,0,0,0,0,0,0,0,0,0,0,0,0,0,0,0,0,0,0,0],"id":15,"left_children":[1,3,5,7,9,11,13,15,17,19,21,23,25,27,29,31,33,35,37,39,41,43,45,47,49,-1,-1,51,53,55,57,59,61,63,65,67,69,71,73,75,77,79,-1,81,-1,83,85,-1,-1,-1,-1,87,89,91,93,-1,95,-1,97,-1,-1,-1,-1,-1,-1,-1,-1,-1,-1,-1,-1,-1,-1,-1,-1,-1,-1,-1,-1,-1,-1,-1,-1,-1,-1,-1,-1,-1,-1,-1,-1,-1,-1,-1,-1,-1,-1,-1,-1],"loss_changes":[2.383795E2,1.8824696E2,7.687538E1,1.6560422E2,3.420311E2,1.6355679E1,6.3216354E1,9.5188965E1,1.4587143E2,2.1371603E2,3.407918E1,1.5345871E1,1.0320305E1,6.690361E1,8.802803E0,8.169676E1,1.272757E1,2.7825287E1,1.8879431E2,1.3499426E2,1.3218929E1,1.7129974E1,7.555004E1,6.0360565E0,1.912931E0,0E0,0E0,1.17053604E2,3.2083908E1,1.1987081E1,9.324326E0,5.5814728E1,8.9720917E-1,1.6571571E1,1.5432255E1,4.246324E1,7.482195E1,1.6572487E2,1.1508522E2,2.1819037E2,9.054883E1,1.9059868E0,0E0,7.863167E0,0E0,5.223501E1,7.6836777E-1,0E0,0E0,0E0,0E0,2.2808563E1,1.18286476E2,4.5493973E1,5.287268E1,0E0,1.258385E0,0E0,9.882239E0,0E0,0E0,0E0,0E0,0E0,0E0,0E0,0E0,0E0,0E0,0E0,0E0,0E0,0E0,0E0,0E0,0E0,0E0,0E0,0E0,0E0,0E0,0E0,0E0,0E0,0E0,0E0,0E0,0E0,0E0,0E0,0E0,0E0,0E0,0E0,0E0,0E0,0E0,0E0,0E0],"parents":[2147483647,0,0,1,1,2,2,3,3,4,4,5,5,6,6,7,7,8,8,9,9,10,10,11,11,12,12,13,13,14,14,15,15,16,16,17,17,18,18,19,19,20,20,21,21,22,22,23,23,24,24,27,27,28,28,29,29,30,30,31,31,32,32,33,33,34,34,35,35,36,36,37,37,38,38,39,39,40,40,41,41,43,43,45,45,46,46,51,51,52,52,53,53,54,54,56,56,58,58],"right_children":[2,4,6,8,10,12,14,16,18,20,22,24,26,28,30,32,34,36,38,40,42,44,46,48,50,-1,-1,52,54,56,58,60,62,64,66,68,70,72,74,76,78,80,-1,82,-1,84,86,-1,-1,-1,-1,88,90,92,94,-1,96,-1,98,-1,-1,-1,-1,-1,-1,-1,-1,-1,-1,-1,-1,-1,-1,-1,-1,-1,-1,-1,-1,-1,-1,-1,-1,-1,-1,-1,-1,-1,-1,-1,-1,-1,-1,-1,-1,-1,-1,-1,-1],"split_conditions":[1E0,2E0,4.57E2,3.448E3,5.09E3,2E0,2E0,2E0,6E3,2E0,8E3,6E3,5E3,1E0,5E3,2E0,1E0,4.798E3,2E0,5E3,8E3,2E0,6.276E3,1E0,1.81E2,5.780185E-1,-3.9172184E-1,5E3,5.818E3,3.002E3,4.74E3,3.363E3,2.613E3,1.835E3,5E3,4.276E3,2E0,5.772E3,7.161E3,3.654E3,2E0,1.898E3,-1.7851467E-1,2E0,-3.4773102E-1,2E0,1E0,-1.0905175E0,-2.8975365E-1,-3.2806435E-1,6.2588885E-2,2E0,4.626E3,6E3,8E3,8.278107E-1,3.486E3,1.1046078E0,1E0,-5.9472278E-2,-2.999929E-1,5.0177205E-1,9.5595664E-1,7.578305E-1,2.7765468E-1,3.1514108E-1,-9.491289E-2,1.9663046E-1,-6.344641E-3,3.9783797E-1,-3.2475144E-1,-1.0830476E-1,1.19941495E-1,1.1057475E0,-4.271469E-1,-8.6254984E-1,8.3242726E-1,-1.2928882E0,4.296341E-2,1.8581544E-1,8.96001E-1,7.3603874E-1,7.0481874E-2,-7.4633604E-1,7.0842135E-1,7.483392E-1,1.8004647E-1,1.8806526E-1,8.3992314E-1,-1.1230515E-1,9.780213E-2,1.1974483E-1,2.7900666E-1,-1.9912305E-1,1.5275168E-1,-8.895798E-2,1.625148E-1,-9.471207E-2,6.808188E-1],"split_indices":[2,6,0,0,0,6,9,4,1,3,1,1,1,3,1,9,5,0,19,1,1,18,0,7,0,0,0,1,0,0,0,0,0,0,1,0,3,0,0,0,4,0,0,4,0,4,4,0,0,0,0,11,0,1,1,0,0,0,4,0,0,0,0,0,0,0,0,0,0,0,0,0,0,0,0,0,0,0,0,0,0,0,0,0,0,0,0,0,0,0,0,0,0,0,0,0,0,0,0],"split_type":[0,0,0,0,0,0,0,0,0,0,0,0,0,0,0,0,0,0,0,0,0,0,0,0,0,0,0,0,0,0,0,0,0,0,0,0,0,0,0,0,0,0,0,0,0,0,0,0,0,0,0,0,0,0,0,0,0,0,0,0,0,0,0,0,0,0,0,0,0,0,0,0,0,0,0,0,0,0,0,0,0,0,0,0,0,0,0,0,0,0,0,0,0,0,0,0,0,0,0],"sum_hessian":[8E3,5.82E3,2.18E3,5.693E3,1.27E2,1.3E1,2.167E3,3.859E3,1.834E3,8.8E1,3.9E1,1.1E1,2E0,2.149E3,1.8E1,3.792E3,6.7E1,5.91E2,1.243E3,8E1,8E0,2E1,1.9E1,8E0,3E0,1E0,1E0,1.288E3,8.61E2,8E0,1E1,3.782E3,1E1,3.4E1,3.3E1,4.76E2,1.15E2,1.218E3,2.5E1,3E1,5E1,7E0,1E0,1.9E1,1E0,1.1E1,8E0,6E0,2E0,1E0,2E0,3.25E2,9.63E2,6.91E2,1.7E2,2E0,6E0,5E0,5E0,3.694E3,8.8E1,6E0,4E0,9E0,2.5E1,2E1,1.3E1,3.5E2,1.26E2,1.01E2,1.4E1,7.6E2,4.58E2,2E1,5E0,2.1E1,9E0,4.5E1,5E0,1E0,6E0,1.7E1,2E0,9E0,2E0,7E0,1E0,3.21E2,4E0,4.91E2,4.72E2,4.31E2,2.6E2,5.7E1,1.13E2,2E0,4E0,2E0,3E0],"tree_param":{"num_deleted":"0","num_feature":"22","num_nodes":"99","size_leaf_vector":"1"}},{"base_weights":[6.3906703E-3,-2.55288E-2,5.684554E-1,-6.0603987E-2,6.440377E-1,8.0220675E-1,-2.990463E-1,-9.492954E-2,6.920183E-1,8.0449885E-1,-7.67254E-1,5.1461977E-1,1.4295006E0,-8.7244296E-1,1.206114E-1,1.1211891E-2,-4.7293833E-1,1.0149192E0,-3.5049143E-1,6.4423186E-1,1.6384225E0,-8.1279695E-1,1.4450684E-1,9.082372E-1,-6.9546497E-1,-1.1429185E-1,3.0348675E0,3.654957E-2,-1.0724273E0,9.78639E-1,-8.410583E-1,-7.071754E-2,3.3151206E-1,-3.3794785E-1,-1.9779695E0,2.0025577E-1,1.5023822E0,3.1511799E-1,-5.9826064E-1,8.403401E-1,-7.409736E-1,1.7580639E-1,2.5638506E0,-5.790347E-1,-3.6533964E-1,1.1818993E0,2.7971593E-1,-2.3609132E-1,-1.0127848E0,4.22821E-1,-1.5747808E0,3.5839672E0,2.1231878E0,-5.659287E-2,3.0890274E-1,-1.1074494E0,1.9889832E-3,1.2504041E0,-5.380379E-1,-8.8875365E-1,5.26989E-2,-2.6854875E-2,4.766873E-1,7.240004E-2,2.3042825E-1,-1.0743683E-1,1.1063E0,-6.8686634E-1,1.9012111E-1,-1.5552893E-1,2.4805565E-1,4.730515E-1,-2.9166368E-1,1.8978082E-1,-8.396101E-2,-1.8304186E-1,6.479645E-3,1.7188573E-1,5.221034E-1,-1.7392524E-2,-3.0043066E-1,-2.667538E-1,6.452036E-1,1.3390452E0,5.6422156E-1,4.7648624E-2,-1.9414236E-1,4.0345874E-1,-1.7988677E-1,-3.84388E-1,1.3843282E-1,-3.8454407E-1,3.0107766E-1,-1.9777882E-1,-3.871203E-1,-8.008663E-3,9.1483504E-1,-6.358082E-1,3.9299774E-1,1.2409528E0,1.7768669E-1,-2.4339524E-1,7.371613E-1,1.8370057E-2,1.1131439E-1,-3.7714377E-1,-2.4104215E-1,4.284909E-1,-5.0624543E-1,-1.5628448E-1,-3.2976824E-1],"categories":[],"categories_nodes":[],"categories_segments":[],"categories_sizes":[],"default_left":[0,0,0,0,0,0,0,0,0,0,0,0,0,0,0,0,0,0,0,0,0,0,0,0,0,0,0,0,0,0,0,0,0,0,0,0,0,0,0,0,0,0,0,0,0,0,0,0,0,0,0,0,0,0,0,0,0,0,0,0,0,0,0,0,0,0,0,0,0,0,0,0,0,0,0,0,0,0,0,0,0,0,0,0,0,0,0,0,0,0,0,0,0,0,0,0,0,0,0,0,0,0,0,0,0,0,0,0,0,0,0],"id":16,"left_children":[1,3,5,7,9,11,13,15,17,19,21,23,25,27,29,31,33,35,37,39,41,43,-1,45,47,49,51,53,55,57,59,61,63,65,67,69,71,73,75,77,79,81,83,85,-1,87,89,91,93,95,97,99,101,-1,103,105,-1,107,-1,109,-1,-1,-1,-1,-1,-1,-1,-1,-1,-1,-1,-1,-1,-1,-1,-1,-1,-1,-1,-1,-1,-1,-1,-1,-1,-1,-1,-1,-1,-1,-1,-1,-1,-1,-1,-1,-1,-1,-1,-1,-1,-1,-1,-1,-1,-1,-1,-1,-1,-1,-1],"loss_changes":[1.4355891E2,1.7786874E2,8.743515E1,1.8596843E2,8.5991745E1,6.0420456E1,2.2243216E1,2.7616772E2,1.060567E2,4.425197E1,2.6098595E0,1.120883E2,2.630523E2,7.128784E0,4.5380604E1,1.4107426E2,3.0590735E2,9.500752E1,1.2557338E1,7.831461E1,7.264075E1,2.8924694E0,0E0,3.011383E1,8.21546E0,4.3810455E1,1.8421906E1,5.489273E-1,1.2166519E0,2.4089975E1,1.416935E0,1.3370831E2,4.292518E1,1.1388649E2,1.0235828E2,4.140831E1,2.9170319E1,4.143938E0,4.1815376E-1,5.9406067E1,6.3461647E0,4.8182972E1,3.4428223E1,1.4093695E0,0E0,3.6516083E1,1.619349E1,3.369553E1,2.486164E0,4.8490646E1,2.6341187E1,4.8793884E1,2.3557373E1,0E0,3.884527E-2,4.005432E-1,0E0,1.6521725E1,0E0,1.3626957E0,0E0,0E0,0E0,0E0,0E0,0E0,0E0,0E0,0E0,0E0,0E0,0E0,0E0,0E0,0E0,0E0,0E0,0E0,0E0,0E0,0E0,0E0,0E0,0E0,0E0,0E0,0E0,0E0,0E0,0E0,0E0,0E0,0E0,0E0,0E0,0E0,0E0,0E0,0E0,0E0,0E0,0E0,0E0,0E0,0E0,0E0,0E0,0E0,0E0,0E0,0E0],"parents":[2147483647,0,0,1,1,2,2,3,3,4,4,5,5,6,6,7,7,8,8,9,9,10,10,11,11,12,12,13,13,14,14,15,15,16,16,17,17,18,18,19,19,20,20,21,21,23,23,24,24,25,25,26,26,27,27,28,28,29,29,30,30,31,31,32,32,33,33,34,34,35,35,36,36,37,37,38,38,39,39,40,40,41,41,42,42,43,43,45,45,46,46,47,47,48,48,49,49,50,50,51,51,52,52,54,54,55,55,57,57,59,59],"right_children":[2,4,6,8,10,12,14,16,18,20,22,24,26,28,30,32,34,36,38,40,42,44,-1,46,48,50,52,54,56,58,60,62,64,66,68,70,72,74,76,78,80,82,84,86,-1,88,90,92,94,96,98,100,102,-1,104,106,-1,108,-1,110,-1,-1,-1,-1,-1,-1,-1,-1,-1,-1,-1,-1,-1,-1,-1,-1,-1,-1,-1,-1,-1,-1,-1,-1,-1,-1,-1,-1,-1,-1,-1,-1,-1,-1,-1,-1,-1,-1,-1,-1,-1,-1,-1,-1,-1,-1,-1,-1,-1,-1,-1],"split_conditions":[2E0,2E0,5.522E3,7.161E3,7.04E3,6E3,8E3,8E3,2E0,8E3,