{"learner":{"attributes":{"scikit_learn":"{\"_estimator_type\": \"classifier\"}"},"feature_names":["sicaklik","titresim","ses_anomalisi","yag_durumu","kovan_rezistans_sicakligi","eriyik_plastik_kokusu","vida_donus_sesi","enjeksiyon_baski_basinci","mengene_kapanma_basinci","kalip_sogutma_suyu_debisi","sogutma_suyu_sicakligi","eksik_baski_durumu","capakli_baski_durumu"],"feature_types":["int","int","int","int","int","int","int","int","int","int","int","int","int"],"gradient_booster":{"model":{"cats":{"enc":[],"feature_segments":[],"sorted_idx":[]},"gbtree_model_param":{"num_parallel_tree":"1","num_trees":"400"},"iteration_indptr":[0,4,8,12,16,20,24,28,32,36,40,44,48,52,56,60,64,68,72,76,80,84,88,92,96,100,104,108,112,116,120,124,128,132,136,140,144,148,152,156,160,164,168,172,176,180,184,188,192,196,200,204,208,212,216,220,224,228,232,236,240,244,248,252,256,260,264,268,272,276,280,284,288,292,296,300,304,308,312,316,320,324,328,332,336,340,344,348,352,356,360,364,368,372,376,380,384,388,392,396,400],"tree_info":[0,1,2,3,0,1,2,3,0,1,2,3,0,1,2,3,0,1,2,3,0,1,2,3,0,1,2,3,0,1,2,3,0,1,2,3,0,1,2,3,0,1,2,3,0,1,2,3,0,1,2,3,0,1,2,3,0,1,2,3,0,1,2,3,0,1,2,3,0,1,2,3,0,1,2,3,0,1,2,3,0,1,2,3,0,1,2,3,0,1,2,3,0,1,2,3,0,1,2,3,0,1,2,3,0,1,2,3,0,1,2,3,0,1,2,3,0,1,2,3,0,1,2,3,0,1,2,3,0,1,2,3,0,1,2,3,0,1,2,3,0,1,2,3,0,1,2,3,0,1,2,3,0,1,2,3,0,1,2,3,0,1,2,3,0,1,2,3,0,1,2,3,0,1,2,3,0,1,2,3,0,1,2,3,0,1,2,3,0,1,2,3,0,1,2,3,0,1,2,3,0,1,2,3,0,1,2,3,0,1,2,3,0,1,2,3,0,1,2,3,0,1,2,3,0,1,2,3,0,1,2,3,0,1,2,3,0,1,2,3,0,1,2,3,0,1,2,3,0,1,2,3,0,1,2,3,0,1,2,3,0,1,2,3,0,1,2,3,0,1,2,3,0,1,2,3,0,1,2,3,0,1,2,3,0,1,2,3,0,1,2,3,0,1,2,3,0,1,2,3,0,1,2,3,0,1,2,3,0,1,2,3,0,1,2,3,0,1,2,3,0,1,2,3,0,1,2,3,0,1,2,3,0,1,2,3,0,1,2,3,0,1,2,3,0,1,2,3,0,1,2,3,0,1,2,3,0,1,2,3,0,1,2,3,0,1,2,3,0,1,2,3,0,1,2,3,0,1,2,3,0,1,2,3,0,1,2,3,0,1,2,3,0,1,2,3,0,1,2,3],"trees":[{"base_weights":[3.5018383E-7,-6.4311415E-1,5.035373E-1,-6.198514E-1,-2.127543E-1,-1.7598459E-1,-2.1256231E-1],"categories":[],"categories_nodes":[],"categories_segments":[],"categories_sizes":[],"default_left":[0,0,0,0,0,0,0],"id":0,"left_children":[1,3,-1,5,-1,-1,-1],"loss_changes":[1.8060532E3,1.4194946E0,0E0,2.244873E0,0E0,0E0,0E0],"parents":[2147483647,0,0,1,1,3,3],"right_children":[2,4,-1,6,-1,-1,-1],"split_conditions":[2E0,2E0,5.035373E-1,1E0,-2.127543E-1,-1.7598459E-1,-2.1256231E-1],"split_indices":[0,1,0,3,0,0,0],"split_type":[0,0,0,0,0,0,0],"sum_hessian":[1.671139E3,1.2086512E3,4.6248773E2,9.0157947E2,3.0707178E2,6.613533E2,2.4022623E2],"tree_param":{"num_deleted":"0","num_feature":"13","num_nodes":"7","size_leaf_vector":"1"}},{"base_weights":[-1.4111939E-6,-5.4008585E-1,9.598173E-1,-1.4398474E-1,-1.7720065E-1],"categories":[],"categories_nodes":[],"categories_segments":[],"categories_sizes":[],"default_left":[0,0,0,0,0],"id":1,"left_children":[1,3,-1,-1,-1],"loss_changes":[1.8163806E3,2.45224E0,0E0,0E0,0E0],"parents":[2147483647,0,0,1,1],"right_children":[2,4,-1,-1,-1],"split_conditions":[1E0,1E0,9.598173E-1,-1.4398474E-1,-1.7720065E-1],"split_indices":[3,11,0,0,0],"split_type":[0,0,0,0,0],"sum_hessian":[1.0491816E3,8.9836176E2,1.5081985E2,4.1521362E2,4.8314813E2],"tree_param":{"num_deleted":"0","num_feature":"13","num_nodes":"5","size_leaf_vector":"1"}},{"base_weights":[-6.49071E-7,-5.7080513E-1,7.581602E-1,-5.4424113E-1,-1.862677E-1,-1.5474348E-1,-1.8577833E-1],"categories":[],"categories_nodes":[],"categories_segments":[],"categories_sizes":[],"default_left":[0,0,0,0,0,0,0],"id":2,"left_children":[1,3,-1,5,-1,-1,-1],"loss_changes":[1.8284585E3,1.0378418E0,0E0,1.1388702E0,0E0,0E0,0E0],"parents":[2147483647,0,0,1,1,3,3],"right_children":[2,4,-1,6,-1,-1,-1],"split_conditions":[2E0,2E0,7.581602E-1,1E0,-1.862677E-1,-1.5474348E-1,-1.8577833E-1],"split_indices":[1,0,0,3,0,0,0],"split_type":[0,0,0,0,0,0,0],"sum_hessian":[1.265529E3,1.032988E3,2.3254095E2,6.827529E2,3.5023517E2,5.0083313E2,1.819198E2],"tree_param":{"num_deleted":"0","num_feature":"13","num_nodes":"7","size_leaf_vector":"1"}},{"base_weights":[8.5475335E-7,6.5642947E-1,-2.3067172E-1,3.5213265E-1,-2.3006797E-1],"categories":[],"categories_nodes":[],"categories_segments":[],"categories_sizes":[],"default_left":[0,0,0,0,0],"id":3,"left_children":[1,3,-1,-1,-1],"loss_changes":[9.202263E2,7.251267E2,0E0,0E0,0E0],"parents":[2147483647,0,0,1,1],"right_children":[2,4,-1,-1,-1],"split_conditions":[1E0,1E0,-2.3067172E-1,3.5213265E-1,-2.3006797E-1],"split_indices":[11,3,0,0,0],"split_type":[0,0,0,0,0],"sum_hessian":[1.8211969E3,9.825357E2,8.386612E2,7.207387E2,2.6179706E2],"tree_param":{"num_deleted":"0","num_feature":"13","num_nodes":"5","size_leaf_vector":"1"}},{"base_weights":[5.9685577E-3,-5.698154E-1,3.2382238E-1,-5.4487795E-1,-1.9273494E-1,-1.534345E-1,-1.9157049E-1],"categories":[],"categories_nodes":[],"categories_segments":[],"categories_sizes":[],"default_left":[0,0,0,0,0,0,0],"id":4,"left_children":[1,3,-1,5,-1,-1,-1],"loss_changes":[9.7610944E2,1.5118713E0,0E0,2.0907135E0,0E0,0E0,0E0],"parents":[2147483647,0,0,1,1,3,3],"right_children":[2,4,-1,6,-1,-1,-1],"split_conditions":[2E0,2E0,3.2382238E-1,1E0,-1.9273494E-1,-1.534345E-1,-1.9157049E-1],"split_indices":[0,1,0,3,0,0,0],"split_type":[0,0,0,0,0,0,0],"sum_hessian":[1.5772931E3,1.0269271E3,5.50366E2,7.707934E2,2.5613373E2,5.728527E2,1.9794063E2],"tree_param":{"num_deleted":"0","num_feature":"13","num_nodes":"7","size_leaf_vector":"1"}},{"base_weights":[-2.0165978E-2,-5.091115E-1,4.0100235E-1,-1.3255382E-1,-1.704127E-1],"categories":[],"categories_nodes":[],"categories_segments":[],"categories_sizes":[],"default_left":[0,0,0,0,0],"id":5,"left_children":[1,3,-1,-1,-1],"loss_changes":[6.758297E2,2.7173462E0,0E0,0E0,0E0],"parents":[2147483647,0,0,1,1],"right_children":[2,4,-1,-1,-1],"split_conditions":[1E0,1E0,4.0100235E-1,-1.3255382E-1,-1.704127E-1],"split_indices":[3,11,0,0,0],"split_type":[0,0,0,0,0],"sum_hessian":[1.0166782E3,7.478212E2,2.6885703E2,3.531839E2,3.946373E2],"tree_param":{"num_deleted":"0","num_feature":"13","num_nodes":"5","size_leaf_vector":"1"}},{"base_weights":[-9.831883E-3,-5.3070205E-1,3.803086E-1,-5.0056696E-1,-1.7663547E-1,-1.4110698E-1,-1.7535976E-1],"categories":[],"categories_nodes":[],"categories_segments":[],"categories_sizes":[],"default_left":[0,0,0,0,0,0,0],"id":6,"left_children":[1,3,-1,5,-1,-1,-1],"loss_changes":[8.0817017E2,1.2153625E0,0E0,1.1828766E0,0E0,0E0,0E0],"parents":[2147483647,0,0,1,1,3,3],"right_children":[2,4,-1,6,-1,-1,-1],"split_conditions":[2E0,2E0,3.803086E-1,1E0,-1.7663547E-1,-1.4110698E-1,-1.7535976E-1],"split_indices":[1,0,0,3,0,0,0],"split_type":[0,0,0,0,0,0,0],"sum_hessian":[1.2125048E3,8.6174207E2,3.5076273E2,5.73705E2,2.8803708E2,4.2676035E2,1.4694467E2],"tree_param":{"num_deleted":"0","num_feature":"13","num_nodes":"7","size_leaf_vector":"1"}},{"base_weights":[1.3389963E-2,4.992834E-1,-2.0272204E-1,2.471599E-1,-2.0069443E-1],"categories":[],"categories_nodes":[],"categories_segments":[],"categories_sizes":[],"default_left":[0,0,0,0,0],"id":7,"left_children":[1,3,-1,-1,-1],"loss_changes":[5.763333E2,3.833285E2,0E0,0E0,0E0],"parents":[2147483647,0,0,1,1],"right_children":[2,4,-1,-1,-1],"split_conditions":[1E0,1E0,-2.0272204E-1,2.471599E-1,-2.0069443E-1],"split_indices":[11,3,0,0,0],"split_type":[0,0,0,0,0],"sum_hessian":[1.719193E3,1.0084372E3,7.1075574E2,7.8940814E2,2.1902908E2],"tree_param":{"num_deleted":"0","num_feature":"13","num_nodes":"5","size_leaf_vector":"1"}},{"base_weights":[6.6040284E-3,-5.1618695E-1,2.5408798E-1,-4.8798308E-1,-1.8036503E-1,-1.350872E-1,-1.795616E-1],"categories":[],"categories_nodes":[],"categories_segments":[],"categories_sizes":[],"default_left":[0,0,0,0,0,0,0],"id":8,"left_children":[1,3,-1,5,-1,-1,-1],"loss_changes":[6.149981E2,1.7762146E0,0E0,2.453064E0,0E0,0E0,0E0],"parents":[2147483647,0,0,1,1,3,3],"right_children":[2,4,-1,6,-1,-1,-1],"split_conditions":[2E0,2E0,2.5408798E-1,1E0,-1.8036503E-1,-1.350872E-1,-1.795616E-1],"split_indices":[0,1,0,3,0,0,0],"split_type":[0,0,0,0,0,0,0],"sum_hessian":[1.3978578E3,8.619924E2,5.358654E2,6.523504E2,2.0964198E2,4.9027176E2,1.6207861E2],"tree_param":{"num_deleted":"0","num_feature":"13","num_nodes":"7","size_leaf_vector":"1"}},{"base_weights":[-2.1075018E-2,-4.8021415E-1,2.88629E-1,-1.210827E-1,-1.6525562E-1],"categories":[],"categories_nodes":[],"categories_segments":[],"categories_sizes":[],"default_left":[0,0,0,0,0],"id":9,"left_children":[1,3,-1,-1,-1],"loss_changes":[4.085719E2,3.1160736E0,0E0,0E0,0E0],"parents":[2147483647,0,0,1,1],"right_children":[2,4,-1,-1,-1],"split_conditions":[1E0,1E0,2.88629E-1,-1.210827E-1,-1.6525562E-1],"split_indices":[3,11,0,0,0],"split_type":[0,0,0,0,0],"sum_hessian":[9.03073E2,6.159412E2,2.8713174E2,2.9871042E2,3.172308E2],"tree_param":{"num_deleted":"0","num_feature":"13","num_nodes":"5","size_leaf_vector":"1"}},{"base_weights":[-1.1015133E-2,-4.9625427E-1,2.7973017E-1,-4.6200186E-1,-1.6948582E-1,-1.2827586E-1,-1.6854732E-1],"categories":[],"categories_nodes":[],"categories_segments":[],"categories_sizes":[],"default_left":[0,0,0,0,0,0,0],"id":10,"left_children":[1,3,-1,5,-1,-1,-1],"loss_changes":[4.9429837E2,1.4167328E0,0E0,1.413147E0,0E0,0E0,0E0],"parents":[2147483647,0,0,1,1,3,3],"right_children":[2,4,-1,6,-1,-1,-1],"split_conditions":[2E0,2E0,2.7973017E-1,1E0,-1.6948582E-1,-1.2827586E-1,-1.6854732E-1],"split_indices":[1,0,0,3,0,0,0],"split_type":[0,0,0,0,0,0,0],"sum_hessian":[1.0777186E3,7.1199567E2,3.6572296E2,4.8026517E2,2.3173053E2,3.6106473E2,1.19200424E2],"tree_param":{"num_deleted":"0","num_feature":"13","num_nodes":"7","size_leaf_vector":"1"}},{"base_weights":[1.4090449E-2,4.0235585E-1,-1.8652439E-1,1.9208203E-1,-1.8528655E-1],"categories":[],"categories_nodes":[],"categories_segments":[],"categories_sizes":[],"default_left":[0,0,0,0,0],"id":11,"left_children":[1,3,-1,-1,-1],"loss_changes":[3.8040662E2,2.3255283E2,0E0,0E0,0E0],"parents":[2147483647,0,0,1,1],"right_children":[2,4,-1,-1,-1],"split_conditions":[1E0,1E0,-1.8652439E-1,1.9208203E-1,-1.8528655E-1],"split_indices":[11,3,0,0,0],"split_type":[0,0,0,0,0],"sum_hessian":[1.5388801E3,9.556771E2,5.83203E2,7.752228E2,1.8045433E2],"tree_param":{"num_deleted":"0","num_feature":"13","num_nodes":"5","size_leaf_vector":"1"}},{"base_weights":[7.035054E-3,-4.7015062E-1,2.1751198E-1,-4.3795663E-1,-1.7164007E-1,-1.1870394E-1,-1.7102459E-1],"categories":[],"categories_nodes":[],"categories_segments":[],"categories_sizes":[],"default_left":[0,0,0,0,0,0,0],"id":12,"left_children":[1,3,-1,5,-1,-1,-1],"loss_changes":[4.0857642E2,2.1015472E0,0E0,2.8397903E0,0E0,0E0,0E0],"parents":[2147483647,0,0,1,1,3,3],"right_children":[2,4,-1,6,-1,-1,-1],"split_conditions":[2E0,2E0,2.1751198E-1,1E0,-1.7164007E-1,-1.1870394E-1,-1.7102459E-1],"split_indices":[0,1,0,3,0,0,0],"split_type":[0,0,0,0,0,0,0],"sum_hessian":[1.1905054E3,7.1539764E2,4.7510776E2,5.477715E2,1.6762619E2,4.1801245E2,1.2975902E2],"tree_param":{"num_deleted":"0","num_feature":"13","num_nodes":"7","size_leaf_vector":"1"}},{"base_weights":[-2.0197539E-2,-4.513427E-1,2.3657964E-1,-1.0929333E-1,-1.612182E-1],"categories":[],"categories_nodes":[],"categories_segments":[],"categories_sizes":[],"default_left":[0,0,0,0,0],"id":13,"left_children":[1,3,-1,-1,-1],"loss_changes":[2.6931992E2,3.5769196E0,0E0,0E0,0E0],"parents":[2147483647,0,0,1,1],"right_children":[2,4,-1,-1,-1],"split_conditions":[1E0,1E0,2.3657964E-1,-1.0929333E-1,-1.612182E-1],"split_indices":[3,11,0,0,0],"split_type":[0,0,0,0,0],"sum_hessian":[7.703144E2,5.0275345E2,2.675609E2,2.5255486E2,2.5019861E2],"tree_param":{"num_deleted":"0","num_feature":"13","num_nodes":"5","size_leaf_vector":"1"}},{"base_weights":[-1.09097585E-2,-4.6372792E-1,2.3172496E-1,-4.244122E-1,-1.6408542E-1,-1.1566162E-1,-1.6323824E-1],"categories":[],"categories_nodes":[],"categories_segments":[],"categories_sizes":[],"default_left":[0,0,0,0,0,0,0],"id":14,"left_children":[1,3,-1,5,-1,-1,-1],"loss_changes":[3.2672235E2,1.6776505E0,0E0,1.6557846E0,0E0,0E0,0E0],"parents":[2147483647,0,0,1,1,3,3],"right_children":[2,4,-1,6,-1,-1,-1],"split_conditions":[2E0,2E0,2.3172496E-1,1E0,-1.6408542E-1,-1.1566162E-1,-1.6323824E-1],"split_indices":[1,0,0,3,0,0,0],"split_type":[0,0,0,0,0,0,0],"sum_hessian":[9.191019E2,5.826797E2,3.3642218E2,3.9987418E2,1.8280554E2,3.0504248E2,9.483167E1],"tree_param":{"num_deleted":"0","num_feature":"13","num_nodes":"7","size_leaf_vector":"1"}},{"base_weights":[1.2915892E-2,3.352737E-1,-1.7581585E-1,1.5605704E-1,-1.7485012E-1],"categories":[],"categories_nodes":[],"categories_segments":[],"categories_sizes":[],"default_left":[0,0,0,0,0],"id":15,"left_children":[1,3,-1,-1,-1],"loss_changes":[2.578385E2,1.4768779E2,0E0,0E0,0E0],"parents":[2147483647,0,0,1,1],"right_children":[2,4,-1,-1,-1],"split_conditions":[1E0,1E0,-1.7581585E-1,1.5605704E-1,-1.7485012E-1],"split_indices":[11,3,0,0,0],"split_type":[0,0,0,0,0],"sum_hessian":[1.3333639E3,8.6712683E2,4.662371E2,7.2211816E2,1.4500871E2],"tree_param":{"num_deleted":"0","num_feature":"13","num_nodes":"5","size_leaf_vector":"1"}},{"base_weights":[7.6070717E-3,-4.2736095E-1,1.956909E-1,-3.9084974E-1,-1.652953E-1,-1.0328717E-1,-1.6474833E-1],"categories":[],"categories_nodes":[],"categories_segments":[],"categories_sizes":[],"default_left":[0,0,0,0,0,0,0],"id":16,"left_children":[1,3,-1,5,-1,-1,-1],"loss_changes":[2.7807388E2,2.4573364E0,0E0,3.2057114E0,0E0,0E0,0E0],"parents":[2147483647,0,0,1,1,3,3],"right_children":[2,4,-1,6,-1,-1,-1],"split_conditions":[2E0,2E0,1.956909E-1,1E0,-1.652953E-1,-1.0328717E-1,-1.6474833E-1],"split_indices":[0,1,0,3,0,0,0],"split_type":[0,0,0,0,0,0,0],"sum_hessian":[9.896319E2,5.911367E2,3.984952E2,4.595683E2,1.3156842E2,3.575794E2,1.0198888E2],"tree_param":{"num_deleted":"0","num_feature":"13","num_nodes":"7","size_leaf_vector":"1"}},{"base_weights":[-1.869429E-2,-4.2128855E-1,2.0731227E-1,-9.710733E-2,-1.5806535E-1],"categories":[],"categories_nodes":[],"categories_segments":[],"categories_sizes":[],"default_left":[0,0,0,0,0],"id":17,"left_children":[1,3,-1,-1,-1],"loss_changes":[1.836356E2,4.055275E0,0E0,0E0,0E0],"parents":[2147483647,0,0,1,1],"right_children":[2,4,-1,-1,-1],"split_conditions":[1E0,1E0,2.0731227E-1,-9.710733E-2,-1.5806535E-1],"split_indices":[3,11,0,0,0],"split_type":[0,0,0,0,0],"sum_hessian":[6.4065845E2,4.0903915E2,2.3161931E2,2.1468297E2,1.943562E2],"tree_param":{"num_deleted":"0","num_feature":"13","num_nodes":"5","size_leaf_vector":"1"}},{"base_weights":[-1.0374548E-2,-4.3130392E-1,2.0437346E-1,-3.8637382E-1,-1.5997207E-1,-1.0298502E-1,-1.5903363E-1],"categories":[],"categories_nodes":[],"categories_segments":[],"categories_sizes":[],"default_left":[0,0,0,0,0,0,0],"id":18,"left_children":[1,3,-1,5,-1,-1,-1],"loss_changes":[2.2296623E2,1.9745102E0,0E0,1.8872261E0,0E0,0E0,0E0],"parents":[2147483647,0,0,1,1,3,3],"right_children":[2,4,-1,6,-1,-1,-1],"split_conditions":[2E0,2E0,2.0437346E-1,1E0,-1.5997207E-1,-1.0298502E-1,-1.5903363E-1],"split_indices":[1,0,0,3,0,0,0],"split_type":[0,0,0,0,0,0,0],"sum_hessian":[7.6387415E2,4.7509872E2,2.8877542E2,3.33079E2,1.4201971E2,2.5886395E2,7.421504E1],"tree_param":{"num_deleted":"0","num_feature":"13","num_nodes":"7","size_leaf_vector":"1"}},{"base_weights":[1.09073715E-2,2.830251E-1,-1.684037E-1,1.2907206E-1,-1.6742687E-1],"categories":[],"categories_nodes":[],"categories_segments":[],"categories_sizes":[],"default_left":[0,0,0,0,0],"id":19,"left_children":[1,3,-1,-1,-1],"loss_changes":[1.7711295E2,9.568505E1,0E0,0E0,0E0],"parents":[2147483647,0,0,1,1],"right_children":[2,4,-1,-1,-1],"split_conditions":[1E0,1E0,-1.684037E-1,1.2907206E-1,-1.6742687E-1],"split_indices":[11,3,0,0,0],"split_type":[0,0,0,0,0],"sum_hessian":[1.1353593E3,7.698064E2,3.6555286E2,6.555568E2,1.14249565E2],"tree_param":{"num_deleted":"0","num_feature":"13","num_nodes":"5","size_leaf_vector":"1"}},{"base_weights":[8.405383E-3,-3.8536304E-1,1.816831E-1,-3.4473065E-1,-1.6056414E-1,-8.845911E-2,-1.6000563E-1],"categories":[],"categories_nodes":[],"categories_segments":[],"categories_sizes":[],"default_left":[0,0,0,0,0,0,0],"id":20,"left_children":[1,3,-1,5,-1,-1,-1],"loss_changes":[1.9141293E2,2.8023224E0,0E0,3.498989E0,0E0,0E0,0E0],"parents":[2147483647,0,0,1,1,3,3],"right_children":[2,4,-1,6,-1,-1,-1],"split_conditions":[2E0,2E0,1.816831E-1,1E0,-1.6056414E-1,-8.845911E-2,-1.6000563E-1],"split_indices":[0,1,0,3,0,0,0],"split_type":[0,0,0,0,0,0,0],"sum_hessian":[8.119749E2,4.895462E2,3.2242868E2,3.877164E2,1.018298E2,3.086738E2,7.904262E1],"tree_param":{"num_deleted":"0","num_feature":"13","num_nodes":"7","size_leaf_vector":"1"}},{"base_weights":[-1.6803334E-2,-3.8913718E-1,1.8914948E-1,-8.4632315E-2,-1.5558381E-1],"categories":[],"categories_nodes":[],"categories_segments":[],"categories_sizes":[],"default_left":[0,0,0,0,0],"id":21,"left_children":[1,3,-1,-1,-1],"loss_changes":[1.2705524E2,4.491047E0,0E0,0E0,0E0],"parents":[2147483647,0,0,1,1],"right_children":[2,4,-1,-1,-1],"split_conditions":[1E0,1E0,1.8914948E-1,-8.4632315E-2,-1.5558381E-1],"split_indices":[3,11,0,0,0],"split_type":[0,0,0,0,0],"sum_hessian":[5.251553E2,3.336408E2,1.9151445E2,1.8439314E2,1.4924767E2],"tree_param":{"num_deleted":"0","num_feature":"13","num_nodes":"5","size_leaf_vector":"1"}},{"base_weights":[-9.599478E-3,-3.976891E-1,1.8727833E-1,-3.471858E-1,-1.567845E-1,-9.020919E-2,-1.5562159E-1],"categories":[],"categories_nodes":[],"categories_segments":[],"categories_sizes":[],"default_left":[0,0,0,0,0,0,0],"id":22,"left_children":[1,3,-1,5,-1,-1,-1],"loss_changes":[1.5437395E2,2.274212E0,0E0,2.07827E0,0E0,0E0,0E0],"parents":[2147483647,0,0,1,1,3,3],"right_children":[2,4,-1,6,-1,-1,-1],"split_conditions":[2E0,2E0,1.8727833E-1,1E0,-1.567845E-1,-9.020919E-2,-1.5562159E-1],"split_indices":[1,0,0,3,0,0,0],"split_type":[0,0,0,0,0,0,0],"sum_hessian":[6.255407E2,3.8822025E2,2.3732047E2,2.7914896E2,1.09071304E2,2.2179759E2,5.7351353E1],"tree_param":{"num_deleted":"0","num_feature":"13","num_nodes":"7","size_leaf_vector":"1"}},{"base_weights":[8.341988E-3,2.388104E-1,-1.6312492E-1,1.0700486E-1,-1.619665E-1],"categories":[],"categories_nodes":[],"categories_segments":[],"categories_sizes":[],"default_left":[0,0,0,0,0],"id":23,"left_children":[1,3,-1,-1,-1],"loss_changes":[1.2249211E2,6.2529396E1,0E0,0E0,0E0],"parents":[2147483647,0,0,1,1],"right_children":[2,4,-1,-1,-1],"split_conditions":[1E0,1E0,-1.6312492E-1,1.0700486E-1,-1.619665E-1],"split_indices":[11,3,0,0,0],"split_type":[0,0,0,0,0],"sum_hessian":[9.606674E2,6.781457E2,2.825217E2,5.894604E2,8.86853E1],"tree_param":{"num_deleted":"0","num_feature":"13","num_nodes":"5","size_leaf_vector":"1"}},{"base_weights":[9.4178375E-3,-3.4294567E-1,1.7224921E-1,-2.9900816E-1,-1.5692419E-1,-7.4233145E-2,-1.562925E-1],"categories":[],"categories_nodes":[],"categories_segments":[],"categories_sizes":[],"default_left":[0,0,0,0,0,0,0],"id":24,"left_children":[1,3,-1,5,-1,-1,-1],"loss_changes":[1.3239165E2,3.0862389E0,0E0,3.6675606E0,0E0,0E0,0E0],"parents":[2147483647,0,0,1,1,3,3],"right_children":[2,4,-1,6,-1,-1,-1],"split_conditions":[2E0,2E0,1.7224921E-1,1E0,-1.5692419E-1,-7.4233145E-2,-1.562925E-1],"split_indices":[0,1,0,3,0,0,0],"split_type":[0,0,0,0,0,0,0],"sum_hessian":[6.633086E2,4.087001E2,2.5460852E2,3.30698E2,7.8002106E1,2.7007306E2,6.062495E1],"tree_param":{"num_deleted":"0","num_feature":"13","num_nodes":"7","size_leaf_vector":"1"}},{"base_weights":[-1.45829255E-2,-3.544115E-1,1.7716372E-1,-7.215091E-2,-1.5358546E-1],"categories":[],"categories_nodes":[],"categories_segments":[],"categories_sizes":[],"default_left":[0,0,0,0,0],"id":25,"left_children":[1,3,-1,-1,-1],"loss_changes":[8.841032E1,4.816971E0,0E0,0E0,0E0],"parents":[2147483647,0,0,1,1],"right_children":[2,4,-1,-1,-1],"split_conditions":[1E0,1E0,1.7716372E-1,-7.215091E-2,-1.5358546E-1],"split_indices":[3,11,0,0,0],"split_type":[0,0,0,0,0],"sum_hessian":[4.2790976E2,2.742888E2,1.5362097E2,1.6065477E2,1.1363402E2],"tree_param":{"num_deleted":"0","num_feature":"13","num_nodes":"5","size_leaf_vector":"1"}},{"base_weights":[-8.640574E-3,-3.6215222E-1,1.7595455E-1,-3.0685353E-1,-1.5423703E-1,-7.750973E-2,-1.5273294E-1],"categories":[],"categories_nodes":[],"categories_segments":[],"categories_sizes":[],"default_left":[0,0,0,0,0,0,0],"id":26,"left_children":[1,3,-1,5,-1,-1,-1],"loss_changes":[1.07531395E2,2.5367126E0,0E0,2.198244E0,0E0,0E0,0E0],"parents":[2147483647,0,0,1,1,3,3],"right_children":[2,4,-1,6,-1,-1,-1],"split_conditions":[2E0,2E0,1.7595455E-1,1E0,-1.5423703E-1,-7.750973E-2,-1.5273294E-1],"split_indices":[1,0,0,3,0,0,0],"split_type":[0,0,0,0,0,0,0],"sum_hessian":[5.0908463E2,3.1962482E2,1.8945981E2,2.3656398E2,8.306083E1,1.926553E2,4.3908676E1],"tree_param":{"num_deleted":"0","num_feature":"13","num_nodes":"7","size_leaf_vector":"1"}},{"base_weights":[5.401722E-3,1.995453E-1,-1.5927485E-1,8.804574E-2,-1.578027E-1],"categories":[],"categories_nodes":[],"categories_segments":[],"categories_sizes":[],"default_left":[0,0,0,0,0],"id":27,"left_children":[1,3,-1,-1,-1],"loss_changes":[8.503346E1,4.1021843E1,0E0,0E0,0E0],"parents":[2147483647,0,0,1,1],"right_children":[2,4,-1,-1,-1],"split_conditions":[1E0,1E0,-1.5927485E-1,8.804574E-2,-1.578027E-1],"split_indices":[11,3,0,0,0],"split_type":[0,0,0,0,0],"sum_hessian":[8.146487E2,5.985907E2,2.1605798E2,5.305001E2,6.809054E1],"tree_param":{"num_deleted":"0","num_feature":"13","num_nodes":"5","size_leaf_vector":"1"}},{"base_weights":[1.0565295E-2,-2.999262E-1,1.6566563E-1,-2.5409657E-1,-1.5399882E-1,-6.085857E-2,-1.5323755E-1],"categories":[],"categories_nodes":[],"categories_segments":[],"categories_sizes":[],"default_left":[0,0,0,0,0,0,0],"id":28,"left_children":[1,3,-1,5,-1,-1,-1],"loss_changes":[9.17152E1,3.2599792E0,0E0,3.6755981E0,0E0,0E0,0E0],"parents":[2147483647,0,0,1,1,3,3],"right_children":[2,4,-1,6,-1,-1,-1],"split_conditions":[2E0,2E0,1.6566563E-1,1E0,-1.5399882E-1,-6.085857E-2,-1.5323755E-1],"split_indices":[0,1,0,3,0,0,0],"split_type":[0,0,0,0,0,0,0],"sum_hessian":[5.4335864E2,3.4566162E2,1.9769702E2,2.863557E2,5.9305927E1,2.4020305E2,4.6152657E1],"tree_param":{"num_deleted":"0","num_feature":"13","num_nodes":"7","size_leaf_vector":"1"}},{"base_weights":[-1.2076717E-2,-3.17209E-1,1.6889429E-1,-6.0066827E-2,-1.5190858E-1],"categories":[],"categories_nodes":[],"categories_segments":[],"categories_sizes":[],"default_left":[0,0,0,0,0],"id":29,"left_children":[1,3,-1,-1,-1],"loss_changes":[6.160168E1,4.9735184E0,0E0,0E0,0E0],"parents":[2147483647,0,0,1,1],"right_children":[2,4,-1,-1,-1],"split_conditions":[1E0,1E0,1.6889429E-1,-6.0066827E-2,-1.5190858E-1],"split_indices":[3,11,0,0,0],"split_type":[0,0,0,0,0],"sum_hessian":[3.490517E2,2.2834015E2,1.2071155E2,1.4235545E2,8.598469E1],"tree_param":{"num_deleted":"0","num_feature":"13","num_nodes":"5","size_leaf_vector":"1"}},{"base_weights":[-7.5384043E-3,-3.2460237E-1,1.6813235E-1,-2.660509E-1,-1.5210074E-1,-6.521418E-2,-1.5013346E-1],"categories":[],"categories_nodes":[],"categories_segments":[],"categories_sizes":[],"default_left":[0,0,0,0,0,0,0],"id":30,"left_children":[1,3,-1,5,-1,-1,-1],"loss_changes":[7.503567E1,2.7206936E0,0E0,2.224289E0,0E0,0E0,0E0],"parents":[2147483647,0,0,1,1,3,3],"right_children":[2,4,-1,6,-1,-1,-1],"split_conditions":[2E0,2E0,1.6813235E-1,1E0,-1.5210074E-1,-6.521418E-2,-1.5013346E-1],"split_indices":[1,0,0,3,0,0,0],"split_type":[0,0,0,0,0,0,0],"sum_hessian":[4.146559E2,2.6638177E2,1.4827415E2,2.0351192E2,6.286985E1,1.7011592E2,3.3396008E1],"tree_param":{"num_deleted":"0","num_feature":"13","num_nodes":"7","size_leaf_vector":"1"}},{"base_weights":[2.3062967E-3,1.6407293E-1,-1.5639357E-1,7.1458004E-2,-1.5447627E-1],"categories":[],"categories_nodes":[],"categories_segments":[],"categories_sizes":[],"default_left":[0,0,0,0,0],"id":31,"left_children":[1,3,-1,-1,-1],"loss_changes":[5.9202663E1,2.6995434E1,0E0,0E0,0E0],"parents":[2147483647,0,0,1,1],"right_children":[2,4,-1,-1,-1],"split_conditions":[1E0,1E0,-1.5639357E-1,7.1458004E-2,-1.5447627E-1],"split_indices":[11,3,0,0,0],"split_type":[0,0,0,0,0],"sum_hessian":[6.969265E2,5.329604E2,1.6396616E2,4.8109247E2,5.1867886E1],"tree_param":{"num_deleted":"0","num_feature":"13","num_nodes":"5","size_leaf_vector":"1"}},{"base_weights":[1.1716978E-2,-2.5696895E-1,1.6092673E-1,-2.1107109E-1,-1.5150252E-1,-4.8674755E-2,-1.5055262E-1],"categories":[],"categories_nodes":[],"categories_segments":[],"categories_sizes":[],"default_left":[0,0,0,0,0,0,0],"id":32,"left_children":[1,3,-1,5,-1,-1,-1],"loss_changes":[6.3578358E1,3.2891388E0,0E0,3.516119E0,0E0,0E0,0E0],"parents":[2147483647,0,0,1,1,3,3],"right_children":[2,4,-1,6,-1,-1,-1],"split_conditions":[2E0,2E0,1.6092673E-1,1E0,-1.5150252E-1,-4.8674755E-2,-1.5055262E-1],"split_indices":[0,1,0,3,0,0,0],"split_type":[0,0,0,0,0,0,0],"sum_hessian":[4.489935E2,2.972771E2,1.5171642E2,2.5241968E2,4.485741E1,2.1746431E2,3.495536E1],"tree_param":{"num_deleted":"0","num_feature":"13","num_nodes":"7","size_leaf_vector":"1"}},{"base_weights":[-9.36292E-3,-2.7825305E-1,1.6296649E-1,-4.881418E-2,-1.5041336E-1],"categories":[],"categories_nodes":[],"categories_segments":[],"categories_sizes":[],"default_left":[0,0,0,0,0],"id":33,"left_children":[1,3,-1,-1,-1],"loss_changes":[4.2906307E1,4.925419E0,0E0,0E0,0E0],"parents":[2147483647,0,0,1,1],"right_children":[2,4,-1,-1,-1],"split_conditions":[1E0,1E0,1.6296649E-1,-4.881418E-2,-1.5041336E-1],"split_indices":[3,11,0,0,0],"split_type":[0,0,0,0,0],"sum_hessian":[2.8674973E2,1.9322298E2,9.352673E1,1.2844202E2,6.478096E1],"tree_param":{"num_deleted":"0","num_feature":"13","num_nodes":"5","size_leaf_vector":"1"}},{"base_weights":[-6.3491985E-3,-2.8560582E-1,1.6253266E-1,-2.2595417E-1,-1.501865E-1,-5.3710412E-2,-1.4761522E-1],"categories":[],"categories_nodes":[],"categories_segments":[],"categories_sizes":[],"default_left":[0,0,0,0,0,0,0],"id":34,"left_children":[1,3,-1,5,-1,-1,-1],"loss_changes":[5.2357452E1,2.7931347E0,0E0,2.1492682E0,0E0,0E0,0E0],"parents":[2147483647,0,0,1,1,3,3],"right_children":[2,4,-1,6,-1,-1,-1],"split_conditions":[2E0,2E0,1.6253266E-1,1E0,-1.501865E-1,-5.3710412E-2,-1.4761522E-1],"split_indices":[1,0,0,3,0,0,0],"split_type":[0,0,0,0,0,0,0],"sum_hessian":[3.4004388E2,2.2559003E2,1.1445386E2,1.7820238E2,4.738765E1,1.5291283E2,2.5289547E1],"tree_param":{"num_deleted":"0","num_feature":"13","num_nodes":"7","size_leaf_vector":"1"}},{"base_weights":[-6.8201404E-4,1.3224009E-1,-1.5416397E-1,5.7010155E-2,-1.5164965E-1],"categories":[],"categories_nodes":[],"categories_segments":[],"categories_sizes":[],"default_left":[0,0,0,0,0],"id":35,"left_children":[1,3,-1,-1,-1],"loss_changes":[4.1365997E1,1.784861E1,0E0,0E0,0E0],"parents":[2147483647,0,0,1,1],"right_children":[2,4,-1,-1,-1],"split_conditions":[1E0,1E0,-1.5416397E-1,5.7010155E-2,-1.5164965E-1],"split_indices":[11,3,0,0,0],"split_type":[0,0,0,0,0],"sum_hessian":[6.04407E2,4.8065582E2,1.2375114E2,4.4136047E2,3.9295353E1],"tree_param":{"num_deleted":"0","num_feature":"13","num_nodes":"5","size_leaf_vector":"1"}},{"base_weights":[1.2714054E-2,-2.1530938E-1,1.5740274E-1,-1.7125653E-1,-1.4920644E-1,-3.7981063E-2,-1.4800142E-1],"categories":[],"categories_nodes":[],"categories_segments":[],"categories_sizes":[],"default_left":[0,0,0,0,0,0,0],"id":36,"left_children":[1,3,-1,5,-1,-1,-1],"loss_changes":[4.4133923E1,3.165166E0,0E0,3.213513E0,0E0,0E0,0E0],"parents":[2147483647,0,0,1,1,3,3],"right_children":[2,4,-1,6,-1,-1,-1],"split_conditions":[2E0,2E0,1.5740274E-1,1E0,-1.4920644E-1,-3.7981063E-2,-1.4800142E-1],"split_indices":[0,1,0,3,0,0,0],"split_type":[0,0,0,0,0,0,0],"sum_hessian":[3.760878E2,2.6059875E2,1.15489044E2,2.2678435E2,3.3814407E1,2.0039491E2,2.6389427E1],"tree_param":{"num_deleted":"0","num_feature":"13","num_nodes":"7","size_leaf_vector":"1"}},{"base_weights":[-6.564143E-3,-2.3880431E-1,1.5854493E-1,-3.8759507E-2,-1.4897494E-1],"categories":[],"categories_nodes":[],"categories_segments":[],"categories_sizes":[],"default_left":[0,0,0,0,0],"id":37,"left_children":[1,3,-1,-1,-1],"loss_changes":[2.987841E1,4.6727276E0,0E0,0E0,0E0],"parents":[2147483647,0,0,1,1],"right_children":[2,4,-1,-1,-1],"split_conditions":[1E0,1E0,1.5854493E-1,-3.8759507E-2,-1.4897494E-1],"split_indices":[3,11,0,0,0],"split_type":[0,0,0,0,0],"sum_hessian":[2.3843614E2,1.6665312E2,7.178302E1,1.1798699E2,4.8666134E1],"tree_param":{"num_deleted":"0","num_feature":"13","num_nodes":"5","size_leaf_vector":"1"}},{"base_weights":[-5.1487554E-3,-2.4628122E-1,1.5837376E-1,-1.8795209E-1,-1.483304E-1,-4.334644E-2,-1.4498812E-1],"categories":[],"categories_nodes":[],"categories_segments":[],"categories_sizes":[],"default_left":[0,0,0,0,0,0,0],"id":38,"left_children":[1,3,-1,5,-1,-1,-1],"loss_changes":[3.6527092E1,2.7390032E0,0E0,1.9843874E0,0E0,0E0,0E0],"parents":[2147483647,0,0,1,1,3,3],"right_children":[2,4,-1,6,-1,-1,-1],"split_conditions":[2E0,2E0,1.5837376E-1,1E0,-1.483304E-1,-4.334644E-2,-1.4498812E-1],"split_indices":[1,0,0,3,0,0,0],"split_type":[0,0,0,0,0,0,0],"sum_hessian":[2.821612E2,1.9464891E2,8.751226E1,1.5902667E2,3.5622246E1,1.3992398E2,1.9102695E1],"tree_param":{"num_deleted":"0","num_feature":"13","num_nodes":"7","size_leaf_vector":"1"}},{"base_weights":[-3.304496E-3,1.04298264E-1,-1.5235615E-1,4.4659E-2,-1.4905852E-1],"categories":[],"categories_nodes":[],"categories_segments":[],"categories_sizes":[],"default_left":[0,0,0,0,0],"id":39,"left_children":[1,3,-1,-1,-1],"loss_changes":[2.9046484E1,1.1888606E1,0E0,0E0,0E0],"parents":[2147483647,0,0,1,1],"right_children":[2,4,-1,-1,-1],"split_conditions":[1E0,1E0,-1.5235615E-1,4.4659E-2,-1.4905852E-1],"split_indices":[11,3,0,0,0],"split_type":[0,0,0,0,0],"sum_hessian":[5.3304004E2,4.3999728E2,9.304278E1,4.1033105E2,2.9666204E1],"tree_param":{"num_deleted":"0","num_feature":"13","num_nodes":"5","size_leaf_vector":"1"}},{"base_weights":[1.3404719E-2,-1.7638089E-1,1.5467457E-1,-1.3582206E-1,-1.469156E-1,-2.8949494E-2,-1.4537922E-1],"categories":[],"categories_nodes":[],"categories_segments":[],"categories_sizes":[],"default_left":[0,0,0,0,0,0,0],"id":40,"left_children":[1,3,-1,5,-1,-1,-1],"loss_changes":[3.0732258E1,2.9081926E0,0E0,2.8146014E0,0E0,0E0,0E0],"parents":[2147483647,0,0,1,1,3,3],"right_children":[2,4,-1,6,-1,-1,-1],"split_conditions":[2E0,2E0,1.5467457E-1,1E0,-1.469156E-1,-2.8949494E-2,-1.4537922E-1],"split_indices":[0,1,0,3,0,0,0],"split_type":[0,0,0,0,0,0,0],"sum_hessian":[3.2050458E2,2.3307018E2,8.743441E1,2.0762802E2,2.5442162E1,1.8773764E2,1.989038E1],"tree_param":{"num_deleted":"0","num_feature":"13","num_nodes":"7","size_leaf_vector":"1"}},{"base_weights":[-3.833421E-3,-2.0041974E-1,1.5508537E-1,-3.0130984E-2,-1.4747621E-1],"categories":[],"categories_nodes":[],"categories_segments":[],"categories_sizes":[],"default_left":[0,0,0,0,0],"id":41,"left_children":[1,3,-1,-1,-1],"loss_changes":[2.083274E1,4.250719E0,0E0,0E0,0E0],"parents":[2147483647,0,0,1,1],"right_children":[2,4,-1,-1,-1],"split_conditions":[1E0,1E0,1.5508537E-1,-3.0130984E-2,-1.4747621E-1],"split_indices":[3,11,0,0,0],"split_type":[0,0,0,0,0],"sum_hessian":[2.0147421E2,1.4670937E2,5.4764843E1,1.1020974E2,3.6499626E1],"tree_param":{"num_deleted":"0","num_feature":"13","num_nodes":"5","size_leaf_vector":"1"}},{"base_weights":[-4.0192534E-3,-2.0805947E-1,1.5514429E-1,-1.5331398E-1,-1.463825E-1,-3.435428E-2,-1.4207399E-1],"categories":[],"categories_nodes":[],"categories_segments":[],"categories_sizes":[],"default_left":[0,0,0,0,0,0,0],"id":42,"left_children":[1,3,-1,5,-1,-1,-1],"loss_changes":[2.5506319E1,2.5661287E0,0E0,1.755266E0,0E0,0E0,0E0],"parents":[2147483647,0,0,1,1,3,3],"right_children":[2,4,-1,6,-1,-1,-1],"split_conditions":[2E0,2E0,1.5514429E-1,1E0,-1.463825E-1,-3.435428E-2,-1.4207399E-1],"split_indices":[1,0,0,3,0,0,0],"split_type":[0,0,0,0,0,0,0],"sum_hessian":[2.3784673E2,1.7135924E2,6.648748E1,1.4461922E2,2.6740019E1,1.3020291E2,1.441632E1],"tree_param":{"num_deleted":"0","num_feature":"13","num_nodes":"7","size_leaf_vector":"1"}},{"base_weights":[-5.364657E-3,8.0500886E-2,-1.5079391E-1,3.4368753E-2,-1.4648232E-1],"categories":[],"categories_nodes":[],"categories_segments":[],"categories_sizes":[],"default_left":[0,0,0,0,0],"id":43,"left_children":[1,3,-1,-1,-1],"loss_changes":[2.0525726E1,7.998571E0,0E0,0E0,0E0],"parents":[2147483647,0,0,1,1],"right_children":[2,4,-1,-1,-1],"split_conditions":[1E0,1E0,-1.5079391E-1,3.4368753E-2,-1.4648232E-1],"split_indices":[11,3,0,0,0],"split_type":[0,0,0,0,0],"sum_hessian":[4.7875568E2,4.0897598E2,6.977969E1,3.866214E2,2.2354593E1],"tree_param":{"num_deleted":"0","num_feature":"13","num_nodes":"5","size_leaf_vector":"1"}},{"base_weights":[1.3681273E-2,-1.4143398E-1,1.5244669E-1,-1.0549555E-1,-1.444544E-1,-2.1595523E-2,-1.4250079E-1],"categories":[],"categories_nodes":[],"categories_segments":[],"categories_sizes":[],"default_left":[0,0,0,0,0,0,0],"id":44,"left_children":[1,3,-1,5,-1,-1,-1],"loss_changes":[2.1513063E1,2.5594997E0,0E0,2.37346E0,0E0,0E0,0E0],"parents":[2147483647,0,0,1,1,3,3],"right_children":[2,4,-1,6,-1,-1,-1],"split_conditions":[2E0,2E0,1.5244669E-1,1E0,-1.444544E-1,-2.1595523E-2,-1.4250079E-1],"split_indices":[0,1,0,3,0,0,0],"split_type":[0,0,0,0,0,0,0],"sum_hessian":[2.7854428E2,2.1257428E2,6.597001E1,1.9344225E2,1.9132036E1,1.784532E2,1.4989049E1],"tree_param":{"num_deleted":"0","num_feature":"13","num_nodes":"7","size_leaf_vector":"1"}},{"base_weights":[-1.3263371E-3,-1.6462342E-1,1.522098E-1,-2.2996027E-2,-1.458018E-1],"categories":[],"categories_nodes":[],"categories_segments":[],"categories_sizes":[],"default_left":[0,0,0,0,0],"id":45,"left_children":[1,3,-1,-1,-1],"loss_changes":[1.4576925E1,3.7181954E0,0E0,0E0,0E0],"parents":[2147483647,0,0,1,1],"right_children":[2,4,-1,-1,-1],"split_conditions":[1E0,1E0,1.522098E-1,-2.2996027E-2,-1.458018E-1],"split_indices":[3,11,0,0,0],"split_type":[0,0,0,0,0],"sum_hessian":[1.734764E2,1.318327E2,4.1643696E1,1.0447417E2,2.735854E1],"tree_param":{"num_deleted":"0","num_feature":"13","num_nodes":"5","size_leaf_vector":"1"}},{"base_weights":[-3.0321465E-3,-1.7236437E-1,1.5248793E-1,-1.22928254E-1,-1.4419872E-1,-2.6818823E-2,-1.3870555E-1],"categories":[],"categories_nodes":[],"categories_segments":[],"categories_sizes":[],"default_left":[0,0,0,0,0,0,0],"id":46,"left_children":[1,3,-1,5,-1,-1,-1],"loss_changes":[1.7858362E1,2.3022122E0,0E0,1.4936328E0,0E0,0E0,0E0],"parents":[2147483647,0,0,1,1,3,3],"right_children":[2,4,-1,6,-1,-1,-1],"split_conditions":[2E0,2E0,1.5248793E-1,1E0,-1.4419872E-1,-2.6818823E-2,-1.3870555E-1],"split_indices":[1,0,0,3,0,0,0],"split_type":[0,0,0,0,0,0,0],"sum_hessian":[2.0424327E2,1.5393015E2,5.031313E1,1.3386362E2,2.0066534E1,1.2297782E2,1.0885793E1],"tree_param":{"num_deleted":"0","num_feature":"13","num_nodes":"7","size_leaf_vector":"1"}},{"base_weights":[-6.768733E-3,6.0883854E-2,-1.493334E-1,2.602938E-2,-1.437268E-1],"categories":[],"categories_nodes":[],"categories_segments":[],"categories_sizes":[],"default_left":[0,0,0,0,0],"id":47,"left_children":[1,3,-1,-1,-1],"loss_changes":[1.4609766E1,5.444867E0,0E0,0E0,0E0],"parents":[2147483647,0,0,1,1],"right_children":[2,4,-1,-1,-1],"split_conditions":[1E0,1E0,-1.493334E-1,2.602938E-2,-1.437268E-1],"split_indices":[11,3,0,0,0],"split_type":[0,0,0,0,0],"sum_hessian":[4.379018E2,3.8564285E2,5.2258915E1,3.6880545E2,1.6837414E1],"tree_param":{"num_deleted":"0","num_feature":"13","num_nodes":"5","size_leaf_vector":"1"}},{"base_weights":[1.3506285E-2,-1.11269735E-1,1.5049775E-1,-8.0466926E-2,-1.4165866E-1,-1.580049E-2,-1.391959E-1],"categories":[],"categories_nodes":[],"categories_segments":[],"categories_sizes":[],"default_left":[0,0,0,0,0,0,0],"id":48,"left_children":[1,3,-1,5,-1,-1,-1],"loss_changes":[1.5167607E1,2.1678643E0,0E0,1.9374204E0,0E0,0E0,0E0],"parents":[2147483647,0,0,1,1,3,3],"right_children":[2,4,-1,6,-1,-1,-1],"split_conditions":[2E0,2E0,1.5049775E-1,1E0,-1.4165866E-1,-1.580049E-2,-1.391959E-1],"split_indices":[0,1,0,3,0,0,0],"split_type":[0,0,0,0,0,0,0],"sum_hessian":[2.4710124E2,1.9741289E2,4.9688354E1,1.830165E2,1.4396392E1,1.7170792E2,1.1308574E1],"tree_param":{"num_deleted":"0","num_feature":"13","num_nodes":"7","size_leaf_vector":"1"}},{"base_weights":[8.300035E-4,-1.3260457E-1,1.4963941E-1,-1.728369E-2,-1.4383374E-1],"categories":[],"categories_nodes":[],"categories_segments":[],"categories_sizes":[],"default_left":[0,0,0,0,0],"id":49,"left_children":[1,3,-1,-1,-1],"loss_changes":[1.0260467E1,3.1401742E0,0E0,0E0,0E0],"parents":[2147483647,0,0,1,1],"right_children":[2,4,-1,-1,-1],"split_conditions":[1E0,1E0,1.4963941E-1,-1.728369E-2,-1.4383374E-1],"split_indices":[3,11,0,0,0],"split_type":[0,0,0,0,0],"sum_hessian":[1.5242233E2,1.2078952E2,3.1632822E1,1.0027472E2,2.0514795E1],"tree_param":{"num_deleted":"0","num_feature":"13","num_nodes":"5","size_leaf_vector":"1"}},{"base_weights":[-2.2330182E-3,-1.403218E-1,1.501399E-1,-9.718895E-2,-1.4163657E-1,-2.069151E-2,-1.3473158E-1],"categories":[],"categories_nodes":[],"categories_segments":[],"categories_sizes":[],"default_left":[0,0,0,0,0,0,0],"id":50,"left_children":[1,3,-1,5,-1,-1,-1],"loss_changes":[1.2560934E1,1.9855139E0,0E0,1.2288759E0,0E0,0E0,0E0],"parents":[2147483647,0,0,1,1,3,3],"right_children":[2,4,-1,6,-1,-1,-1],"split_conditions":[2E0,2E0,1.501399E-1,1E0,-1.4163657E-1,-2.069151E-2,-1.3473158E-1],"split_indices":[1,0,0,3,0,0,0],"split_type":[0,0,0,0,0,0,0],"sum_hessian":[1.7893697E2,1.4094186E2,3.799511E1,1.25871864E2,1.5069994E1,1.1763563E2,8.236236E0],"tree_param":{"num_deleted":"0","num_feature":"13","num_nodes":"7","size_leaf_vector":"1"}},{"base_weights":[-7.533284E-3,4.520972E-2,-1.4784853E-1,1.9445315E-2,-1.4061508E-1],"categories":[],"categories_nodes":[],"categories_segments":[],"categories_sizes":[],"default_left":[0,0,0,0,0],"id":51,"left_children":[1,3,-1,-1,-1],"loss_changes":[1.0475697E1,3.7516665E0,0E0,0E0,0E0],"parents":[2147483647,0,0,1,1],"right_children":[2,4,-1,-1,-1],"split_conditions":[1E0,1E0,-1.4784853E-1,1.9445315E-2,-1.4061508E-1],"split_indices":[11,3,0,0,0],"split_type":[0,0,0,0,0],"sum_hessian":[4.0740158E2,3.682826E2,3.911897E1,3.5558957E2,1.2693031E1],"tree_param":{"num_deleted":"0","num_feature":"13","num_nodes":"5","size_leaf_vector":"1"}},{"base_weights":[1.2915997E-2,-8.6151324E-2,1.4865111E-1,-6.0458723E-2,-1.3837443E-1,-1.1360541E-2,-1.3531238E-1],"categories":[],"categories_nodes":[],"categories_segments":[],"categories_sizes":[],"default_left":[0,0,0,0,0,0,0],"id":52,"left_children":[1,3,-1,5,-1,-1,-1],"loss_changes":[1.0783816E1,1.7767333E0,0E0,1.5393798E0,0E0,0E0,0E0],"parents":[2147483647,0,0,1,1,3,3],"right_children":[2,4,-1,6,-1,-1,-1],"split_conditions":[2E0,2E0,1.4865111E-1,1E0,-1.3837443E-1,-1.1360541E-2,-1.3531238E-1],"split_indices":[0,1,0,3,0,0,0],"split_type":[0,0,0,0,0,0,0],"sum_hessian":[2.2366907E2,1.8625537E2,3.7413692E1,1.7540222E2,1.0853157E1,1.6684906E2,8.553154E0],"tree_param":{"num_deleted":"0","num_feature":"13","num_nodes":"7","size_leaf_vector":"1"}},{"base_weights":[2.5601336E-3,-1.0504608E-1,1.4715698E-1,-1.2831737E-2,-1.4145006E-1],"categories":[],"categories_nodes":[],"categories_segments":[],"categories_sizes":[],"default_left":[0,0,0,0,0],"id":53,"left_children":[1,3,-1,-1,-1],"loss_changes":[7.2804418E0,2.572738E0,0E0,0E0,0E0],"parents":[2147483647,0,0,1,1],"right_children":[2,4,-1,-1,-1],"split_conditions":[1E0,1E0,1.4715698E-1,-1.2831737E-2,-1.4145006E-1],"split_indices":[3,11,0,0,0],"split_type":[0,0,0,0,0],"sum_hessian":[1.3667297E2,1.1262213E2,2.405084E1,9.721804E1,1.5404092E1],"tree_param":{"num_deleted":"0","num_feature":"13","num_nodes":"5","size_leaf_vector":"1"}},{"base_weights":[-1.6323897E-3,-1.125912E-1,1.4789046E-1,-7.6032415E-2,-1.3855593E-1,-1.5830934E-2,-1.3002951E-1],"categories":[],"categories_nodes":[],"categories_segments":[],"categories_sizes":[],"default_left":[0,0,0,0,0,0,0],"id":54,"left_children":[1,3,-1,5,-1,-1,-1],"loss_changes":[8.889698E0,1.654049E0,0E0,9.8273224E-1,0E0,0E0,0E0],"parents":[2147483647,0,0,1,1,3,3],"right_children":[2,4,-1,6,-1,-1,-1],"split_conditions":[2E0,2E0,1.4789046E-1,1E0,-1.3855593E-1,-1.5830934E-2,-1.3002951E-1],"split_indices":[1,0,0,3,0,0,0],"split_type":[0,0,0,0,0,0,0],"sum_hessian":[1.5997206E2,1.3129065E2,2.8681416E1,1.199524E2,1.1338252E1,1.136995E2,6.2528977E0],"tree_param":{"num_deleted":"0","num_feature":"13","num_nodes":"7","size_leaf_vector":"1"}},{"base_weights":[-7.7547687E-3,3.3030074E-2,-1.4622116E-1,1.4364938E-2,-1.3698734E-1],"categories":[],"categories_nodes":[],"categories_segments":[],"categories_sizes":[],"default_left":[0,0,0,0,0],"id":55,"left_children":[1,3,-1,-1,-1],"loss_changes":[7.562654E0,2.6144462E0,0E0,0E0,0E0],"parents":[2147483647,0,0,1,1],"right_children":[2,4,-1,-1,-1],"split_conditions":[1E0,1E0,-1.4622116E-1,1.4364938E-2,-1.3698734E-1],"split_indices":[11,3,0,0,0],"split_type":[0,0,0,0,0],"sum_hessian":[3.8476813E2,3.5547318E2,2.9294956E1,3.4588345E2,9.589729E0],"tree_param":{"num_deleted":"0","num_feature":"13","num_nodes":"5","size_leaf_vector":"1"}},{"base_weights":[1.2001899E-2,-6.587457E-2,1.4675675E-1,-4.4886254E-2,-1.3446401E-1,-8.037751E-3,-1.3072714E-1],"categories":[],"categories_nodes":[],"categories_segments":[],"categories_sizes":[],"default_left":[0,0,0,0,0,0,0],"id":56,"left_children":[1,3,-1,5,-1,-1,-1],"loss_changes":[7.7350082E0,1.4169159E0,0E0,1.1967728E0,0E0,0E0,0E0],"parents":[2147483647,0,0,1,1,3,3],"right_children":[2,4,-1,6,-1,-1,-1],"split_conditions":[2E0,2E0,1.4675675E-1,1E0,-1.3446401E-1,-8.037751E-3,-1.3072714E-1],"split_indices":[0,1,0,3,0,0,0],"split_type":[0,0,0,0,0,0,0],"sum_hessian":[2.0627771E2,1.7807759E2,2.8200127E1,1.6987004E2,8.207541E0,1.6337578E2,6.4942613E0],"tree_param":{"num_deleted":"0","num_feature":"13","num_nodes":"7","size_leaf_vector":"1"}},{"base_weights":[3.8457168E-3,-8.2113646E-2,1.4458631E-1,-9.4362665E-3,-1.3852738E-1],"categories":[],"categories_nodes":[],"categories_segments":[],"categories_sizes":[],"default_left":[0,0,0,0,0],"id":57,"left_children":[1,3,-1,-1,-1],"loss_changes":[5.2152357E0,2.054858E0,0E0,0E0,0E0],"parents":[2147483647,0,0,1,1],"right_children":[2,4,-1,-1,-1],"split_conditions":[1E0,1E0,1.4458631E-1,-9.4362665E-3,-1.3852738E-1],"split_indices":[3,11,0,0,0],"split_type":[0,0,0,0,0],"sum_hessian":[1.24934875E2,1.0659785E2,1.8337023E1,9.500351E1,1.1594339E1],"tree_param":{"num_deleted":"0","num_feature":"13","num_nodes":"5","size_leaf_vector":"1"}},{"base_weights":[-1.2122727E-3,-8.9347005E-2,1.4556368E-1,-5.90652E-2,-1.3482572E-1,-1.2048771E-2,-1.2452393E-1],"categories":[],"categories_nodes":[],"categories_segments":[],"categories_sizes":[],"default_left":[0,0,0,0,0,0,0],"id":58,"left_children":[1,3,-1,5,-1,-1,-1],"loss_changes":[6.3370557E0,1.3378384E0,0E0,7.678361E-1,0E0,0E0,0E0],"parents":[2147483647,0,0,1,1,3,3],"right_children":[2,4,-1,6,-1,-1,-1],"split_conditions":[2E0,2E0,1.4556368E-1,1E0,-1.3482572E-1,-1.2048771E-2,-1.2452393E-1],"split_indices":[1,0,0,3,0,0,0],"split_type":[0,0,0,0,0,0,0],"sum_hessian":[1.4580597E2,1.2413111E2,2.1674864E1,1.1557534E2,8.555767E0,1.10804955E2,4.7703896E0],"tree_param":{"num_deleted":"0","num_feature":"13","num_nodes":"7","size_leaf_vector":"1"}},{"base_weights":[-7.5710444E-3,2.3785438E-2,-1.4433481E-1,1.0518392E-2,-1.3270842E-1],"categories":[],"categories_nodes":[],"categories_segments":[],"categories_sizes":[],"default_left":[0,0,0,0,0],"id":59,"left_children":[1,3,-1,-1,-1],"loss_changes":[5.4913E0,1.8398331E0,0E0,0E0,0E0],"parents":[2147483647,0,0,1,1],"right_children":[2,4,-1,-1,-1],"split_conditions":[1E0,1E0,-1.4433481E-1,1.0518392E-2,-1.3270842E-1],"split_indices":[11,3,0,0,0],"split_type":[0,0,0,0,0],"sum_hessian":[3.680461E2,3.460797E2,2.196641E1,3.3880887E2,7.2708373E0],"tree_param":{"num_deleted":"0","num_feature":"13","num_nodes":"5","size_leaf_vector":"1"}},{"base_weights":[1.0880927E-2,-4.992286E-2,1.4468102E-1,-3.3027086E-2,-1.2981911E-1,-5.598893E-3,-1.2536356E-1],"categories":[],"categories_nodes":[],"categories_segments":[],"categories_sizes":[],"default_left":[0,0,0,0,0,0,0],"id":60,"left_children":[1,3,-1,5,-1,-1,-1],"loss_changes":[5.5962324E0,1.105305E0,0E0,9.146547E-1,0E0,0E0,0E0],"parents":[2147483647,0,0,1,1,3,3],"right_children":[2,4,-1,6,-1,-1,-1],"split_conditions":[2E0,2E0,1.4468102E-1,1E0,-1.2981911E-1,-5.598893E-3,-1.2536356E-1],"split_indices":[0,1,0,3,0,0,0],"split_type":[0,0,0,0,0,0,0],"sum_hessian":[1.9340755E2,1.721024E2,2.1305141E1,1.6586786E2,6.234547E0,1.6091055E2,4.957296E0],"tree_param":{"num_deleted":"0","num_feature":"13","num_nodes":"7","size_leaf_vector":"1"}},{"base_weights":[4.716762E-3,-6.356324E-2,1.417828E-1,-6.889728E-3,-1.3494904E-1],"categories":[],"categories_nodes":[],"categories_segments":[],"categories_sizes":[],"default_left":[0,0,0,0,0],"id":61,"left_children":[1,3,-1,-1,-1],"loss_changes":[3.7745326E0,1.6074067E0,0E0,0E0,0E0],"parents":[2147483647,0,0,1,1],"right_children":[2,4,-1,-1,-1],"split_conditions":[1E0,1E0,1.417828E-1,-6.889728E-3,-1.3494904E-1],"split_indices":[3,11,0,0,0],"split_type":[0,0,0,0,0],"sum_hessian":[1.1620691E2,1.021624E2,1.4044506E1,9.340481E1,8.757592E0],"tree_param":{"num_deleted":"0","num_feature":"13","num_nodes":"5","size_leaf_vector":"1"}},{"base_weights":[-9.349321E-4,-7.0374236E-2,1.4300632E-1,-4.571541E-2,-1.3033748E-1,-9.147338E-3,-1.18207216E-1],"categories":[],"categories_nodes":[],"categories_segments":[],"categories_sizes":[],"default_left":[0,0,0,0,0,0,0],"id":62,"left_children":[1,3,-1,5,-1,-1,-1],"loss_changes":[4.5522394E0,1.055897E0,0E0,5.8899987E-1,0E0,0E0,0E0],"parents":[2147483647,0,0,1,1,3,3],"right_children":[2,4,-1,6,-1,-1,-1],"split_conditions":[2E0,2E0,1.4300632E-1,1E0,-1.3033748E-1,-9.147338E-3,-1.18207216E-1],"split_indices":[1,0,0,3,0,0,0],"split_type":[0,0,0,0,0,0,0],"sum_hessian":[1.3524562E2,1.1882314E2,1.642248E1,1.12340096E2,6.483052E0,1.0867743E2,3.6626608E0],"tree_param":{"num_deleted":"0","num_feature":"13","num_nodes":"7","size_leaf_vector":"1"}},{"base_weights":[-7.122475E-3,1.6902182E-2,-1.4207217E-1,7.649652E-3,-1.2768254E-1],"categories":[],"categories_nodes":[],"categories_segments":[],"categories_sizes":[],"default_left":[0,0,0,0,0],"id":63,"left_children":[1,3,-1,-1,-1],"loss_changes":[4.0056386E0,1.3050946E0,0E0,0E0,0E0],"parents":[2147483647,0,0,1,1],"right_children":[2,4,-1,-1,-1],"split_conditions":[1E0,1E0,-1.4207217E-1,7.649652E-3,-1.2768254E-1],"split_indices":[11,3,0,0,0],"split_type":[0,0,0,0,0],"sum_hessian":[3.5572983E2,3.3922192E2,1.6507917E1,3.3368185E2,5.540062E0],"tree_param":{"num_deleted":"0","num_feature":"13","num_nodes":"5","size_leaf_vector":"1"}},{"base_weights":[9.668031E-3,-3.7629824E-2,1.4230248E-1,-2.415029E-2,-1.2437991E-1,-3.8375414E-3,-1.19210936E-1],"categories":[],"categories_nodes":[],"categories_segments":[],"categories_sizes":[],"default_left":[0,0,0,0,0,0,0],"id":64,"left_children":[1,3,-1,5,-1,-1,-1],"loss_changes":[4.0816345E0,8.474518E-1,0E0,6.900735E-1,0E0,0E0,0E0],"parents":[2147483647,0,0,1,1,3,3],"right_children":[2,4,-1,6,-1,-1,-1],"split_conditions":[2E0,2E0,1.4230248E-1,1E0,-1.2437991E-1,-3.8375414E-3,-1.19210936E-1],"split_indices":[0,1,0,3,0,0,0],"split_type":[0,0,0,0,0,0,0],"sum_hessian":[1.8390189E2,1.6774646E2,1.6155436E1,1.6298265E2,4.7638025E0,1.591727E2,3.809955E0],"tree_param":{"num_deleted":"0","num_feature":"13","num_nodes":"7","size_leaf_vector":"1"}},{"base_weights":[5.2326173E-3,-4.8896577E-2,1.3863185E-1,-5.004141E-3,-1.3061933E-1],"categories":[],"categories_nodes":[],"categories_segments":[],"categories_sizes":[],"default_left":[0,0,0,0,0],"id":65,"left_children":[1,3,-1,-1,-1],"loss_changes":[2.7608392E0,1.2366517E0,0E0,0E0,0E0],"parents":[2147483647,0,0,1,1],"right_children":[2,4,-1,-1,-1],"split_conditions":[1E0,1E0,1.3863185E-1,-5.004141E-3,-1.3061933E-1],"split_indices":[3,11,0,0,0],"split_type":[0,0,0,0,0],"sum_hessian":[1.09724724E2,9.890025E1,1.08244705E1,9.225376E1,6.6464887E0],"tree_param":{"num_deleted":"0","num_feature":"13","num_nodes":"5","size_leaf_vector":"1"}},{"base_weights":[-7.5677526E-4,-5.5210806E-2,1.4008489E-1,-3.535834E-2,-1.2502487E-1,-6.943322E-3,-1.11154824E-1],"categories":[],"categories_nodes":[],"categories_segments":[],"categories_sizes":[],"default_left":[0,0,0,0,0,0,0],"id":66,"left_children":[1,3,-1,5,-1,-1,-1],"loss_changes":[3.295434E0,8.1703097E-1,0E0,4.455958E-1,0E0,0E0,0E0],"parents":[2147483647,0,0,1,1,3,3],"right_children":[2,4,-1,6,-1,-1,-1],"split_conditions":[2E0,2E0,1.4008489E-1,1E0,-1.2502487E-1,-6.943322E-3,-1.11154824E-1],"split_indices":[1,0,0,3,0,0,0],"split_type":[0,0,0,0,0,0,0],"sum_hessian":[1.27380295E2,1.1488629E2,1.2494005E1,1.099468E2,4.939492E0,1.0711243E2,2.834373E0],"tree_param":{"num_deleted":"0","num_feature":"13","num_nodes":"7","size_leaf_vector":"1"}},{"base_weights":[-6.5288944E-3,1.185566E-2,-1.3931698E-1,5.5349367E-3,-1.2187248E-1],"categories":[],"categories_nodes":[],"categories_segments":[],"categories_sizes":[],"default_left":[0,0,0,0,0],"id":67,"left_children":[1,3,-1,-1,-1],"loss_changes":[2.9321003E0,9.3172145E-1,0E0,0E0,0E0],"parents":[2147483647,0,0,1,1],"right_children":[2,4,-1,-1,-1],"split_conditions":[1E0,1E0,-1.3931698E-1,5.5349367E-3,-1.2187248E-1],"split_indices":[11,3,0,0,0],"split_type":[0,0,0,0,0],"sum_hessian":[3.4667688E2,3.342306E2,1.24463E1,3.2998206E2,4.2485256E0],"tree_param":{"num_deleted":"0","num_feature":"13","num_nodes":"5","size_leaf_vector":"1"}},{"base_weights":[8.455513E-3,-2.8306415E-2,1.3951284E-1,-1.7594803E-2,-1.18155E-1,-2.583069E-3,-1.1233933E-1],"categories":[],"categories_nodes":[],"categories_segments":[],"categories_sizes":[],"default_left":[0,0,0,0,0,0,0],"id":68,"left_children":[1,3,-1,5,-1,-1,-1],"loss_changes":[2.9990256E0,6.413919E-1,0E0,5.15907E-1,0E0,0E0,0E0],"parents":[2147483647,0,0,1,1,3,3],"right_children":[2,4,-1,6,-1,-1,-1],"split_conditions":[2E0,2E0,1.3951284E-1,1E0,-1.18155E-1,-2.583069E-3,-1.1233933E-1],"split_indices":[0,1,0,3,0,0,0],"split_type":[0,0,0,0,0,0,0],"sum_hessian":[1.768884E2,1.6457567E2,1.2312735E1,1.6090866E2,3.6670115E0,1.5795607E2,2.9525857E0],"tree_param":{"num_deleted":"0","num_feature":"13","num_nodes":"7","size_leaf_vector":"1"}},{"base_weights":[5.468312E-3,-3.7504658E-2,1.350535E-1,-3.6211112E-3,-1.2548299E-1],"categories":[],"categories_nodes":[],"categories_segments":[],"categories_sizes":[],"default_left":[0,0,0,0,0],"id":69,"left_children":[1,3,-1,-1,-1],"loss_changes":[2.0409033E0,9.392242E-1,0E0,0E0,0E0],"parents":[2147483647,0,0,1,1],"right_children":[2,4,-1,-1,-1],"split_conditions":[1E0,1E0,1.350535E-1,-3.6211112E-3,-1.2548299E-1],"split_indices":[3,11,0,0,0],"split_type":[0,0,0,0,0],"sum_hessian":[1.0491133E2,9.650188E1,8.409451E0,9.142659E1,5.075289E0],"tree_param":{"num_deleted":"0","num_feature":"13","num_nodes":"5","size_leaf_vector":"1"}},{"base_weights":[-6.38627E-4,-4.328264E-2,1.3668902E-1,-2.7399814E-2,-1.1888517E-1,-5.279369E-3,-1.0352664E-1],"categories":[],"categories_nodes":[],"categories_segments":[],"categories_sizes":[],"default_left":[0,0,0,0,0,0,0],"id":70,"left_children":[1,3,-1,5,-1,-1,-1],"loss_changes":[2.403637E0,6.224829E-1,0E0,3.338871E-1,0E0,0E0,0E0],"parents":[2147483647,0,0,1,1,3,3],"right_children":[2,4,-1,6,-1,-1,-1],"split_conditions":[2E0,2E0,1.3668902E-1,1E0,-1.1888517E-1,-5.279369E-3,-1.0352664E-1],"split_indices":[1,0,0,3,0,0,0],"split_type":[0,0,0,0,0,0,0],"sum_hessian":[1.2152147E2,1.11962326E2,9.559141E0,1.0817285E2,3.7894754E0,1.0595901E2,2.2138462E0],"tree_param":{"num_deleted":"0","num_feature":"13","num_nodes":"7","size_leaf_vector":"1"}},{"base_weights":[-5.8796406E-3,8.2017565E-3,-1.3596112E-1,3.989821E-3,-1.1531645E-1],"categories":[],"categories_nodes":[],"categories_segments":[],"categories_sizes":[],"default_left":[0,0,0,0,0],"id":71,"left_children":[1,3,-1,-1,-1],"loss_changes":[2.151849E0,6.687476E-1,0E0,0E0,0E0],"parents":[2147483647,0,0,1,1],"right_children":[2,4,-1,-1,-1],"split_conditions":[1E0,1E0,-1.3596112E-1,3.989821E-3,-1.1531645E-1],"split_indices":[11,3,0,0,0],"split_type":[0,0,0,0,0],"sum_hessian":[3.400303E2,3.306048E2,9.425505E0,3.2732077E2,3.2840245E0],"tree_param":{"num_deleted":"0","num_feature":"13","num_nodes":"5","size_leaf_vector":"1"}},{"base_weights":[7.31136E-3,-2.1318316E-2,1.3622437E-1,-1.2802931E-2,-1.1123448E-1,-1.700615E-3,-1.0490069E-1],"categories":[],"categories_nodes":[],"categories_segments":[],"categories_sizes":[],"default_left":[0,0,0,0,0,0,0],"id":72,"left_children":[1,3,-1,5,-1,-1,-1],"loss_changes":[2.2188594E0,4.8111135E-1,0E0,3.8355365E-1,0E0,0E0,0E0],"parents":[2147483647,0,0,1,1,3,3],"right_children":[2,4,-1,6,-1,-1,-1],"split_conditions":[2E0,2E0,1.3622437E-1,1E0,-1.1123448E-1,-1.700615E-3,-1.0490069E-1],"split_indices":[0,1,0,3,0,0,0],"split_type":[0,0,0,0,0,0,0],"sum_hessian":[1.7171523E2,1.6226906E2,9.446158E0,1.5942108E2,2.8479838E0,1.5711058E2,2.3104908E0],"tree_param":{"num_deleted":"0","num_feature":"13","num_nodes":"7","size_leaf_vector":"1"}},{"base_weights":[5.492853E-3,-2.8772684E-2,1.310064E-1,-2.6136292E-3,-1.1954594E-1],"categories":[],"categories_nodes":[],"categories_segments":[],"categories_sizes":[],"default_left":[0,0,0,0,0],"id":73,"left_children":[1,3,-1,-1,-1],"loss_changes":[1.5245502E0,7.0658535E-1,0E0,0E0,0E0],"parents":[2147483647,0,0,1,1],"right_children":[2,4,-1,-1,-1],"split_conditions":[1E0,1E0,1.310064E-1,-2.6136292E-3,-1.1954594E-1],"split_indices":[3,11,0,0,0],"split_type":[0,0,0,0,0],"sum_hessian":[1.0133313E2,9.4737915E1,6.595212E0,9.083291E1,3.9050093E0],"tree_param":{"num_deleted":"0","num_feature":"13","num_nodes":"5","size_leaf_vector":"1"}},{"base_weights":[-5.5074214E-4,-3.400394E-2,1.3274069E-1,-2.1319754E-2,-1.1199565E-1,-4.027144E-3,-9.5549695E-2],"categories":[],"categories_nodes":[],"categories_segments":[],"categories_sizes":[],"default_left":[0,0,0,0,0,0,0],"id":74,"left_children":[1,3,-1,5,-1,-1,-1],"loss_changes":[1.7661133E0,4.6885416E-1,0E0,2.4880475E-1,0E0,0E0,0E0],"parents":[2147483647,0,0,1,1,3,3],"right_children":[2,4,-1,6,-1,-1,-1],"split_conditions":[2E0,2E0,1.3274069E-1,1E0,-1.1199565E-1,-4.027144E-3,-9.5549695E-2],"split_indices":[1,0,0,3,0,0,0],"split_type":[0,0,0,0,0,0,0],"sum_hessian":[1.17152306E2,1.0978545E2,7.366848E0,1.06853905E2,2.931555E0,1.0510643E2,1.7474681E0],"tree_param":{"num_deleted":"0","num_feature":"13","num_nodes":"7","size_leaf_vector":"1"}},{"base_weights":[-5.234867E-3,5.582974E-3,-1.319173E-1,2.868207E-3,-1.0813494E-1],"categories":[],"categories_nodes":[],"categories_segments":[],"categories_sizes":[],"default_left":[0,0,0,0,0],"id":75,"left_children":[1,3,-1,-1,-1],"loss_changes":[1.5824486E0,4.8242256E-1,0E0,0E0,0E0],"parents":[2147483647,0,0,1,1],"right_children":[2,4,-1,-1,-1],"split_conditions":[1E0,1E0,-1.319173E-1,2.868207E-3,-1.0813494E-1],"split_indices":[11,3,0,0,0],"split_type":[0,0,0,0,0],"sum_hessian":[3.3515186E2,3.2797318E2,7.1786675E0,3.254108E2,2.5623918E0],"tree_param":{"num_deleted":"0","num_feature":"13","num_nodes":"5","size_leaf_vector":"1"}},{"base_weights":[6.2723844E-3,-1.6124314E-2,1.3237812E-1,-9.327538E-3,-1.03788406E-1,-1.0873845E-3,-9.7112186E-2],"categories":[],"categories_nodes":[],"categories_segments":[],"categories_sizes":[],"default_left":[0,0,0,0,0,0,0],"id":76,"left_children":[1,3,-1,5,-1,-1,-1],"loss_changes":[1.652553E0,3.590318E-1,0E0,2.8453323E-1,0E0,0E0,0E0],"parents":[2147483647,0,0,1,1,3,3],"right_children":[2,4,-1,6,-1,-1,-1],"split_conditions":[2E0,2E0,1.3237812E-1,1E0,-1.03788406E-1,-1.0873845E-3,-9.7112186E-2],"split_indices":[0,1,0,3,0,0,0],"split_type":[0,0,0,0,0,0,0],"sum_hessian":[1.6789635E2,1.6059077E2,7.3055797E0,1.583559E2,2.2348762E0,1.5652797E2,1.8279251E0],"tree_param":{"num_deleted":"0","num_feature":"13","num_nodes":"7","size_leaf_vector":"1"}},{"base_weights":[5.3683147E-3,-2.2141924E-2,1.2649383E-1,-1.8833868E-3,-1.1288998E-1],"categories":[],"categories_nodes":[],"categories_segments":[],"categories_sizes":[],"default_left":[0,0,0,0,0],"id":77,"left_children":[1,3,-1,-1,-1],"loss_changes":[1.1507165E0,5.2822965E-1,0E0,0E0,0E0],"parents":[2147483647,0,0,1,1],"right_children":[2,4,-1,-1,-1],"split_conditions":[1E0,1E0,1.2649383E-1,-1.8833868E-3,-1.1288998E-1],"split_indices":[3,11,0,0,0],"split_type":[0,0,0,0,0],"sum_hessian":[9.8667336E1,9.34391E1,5.2282305E0,9.040717E1,3.031926E0],"tree_param":{"num_deleted":"0","num_feature":"13","num_nodes":"5","size_leaf_vector":"1"}},{"base_weights":[-4.752358E-4,-2.6837358E-2,1.2820463E-1,-1.6686993E-2,-1.0451647E-1,-3.0855464E-3,-8.7484285E-2],"categories":[],"categories_nodes":[],"categories_segments":[],"categories_sizes":[],"default_left":[0,0,0,0,0,0,0],"id":78,"left_children":[1,3,-1,5,-1,-1,-1],"loss_changes":[1.307201E0,3.5046703E-1,0E0,1.8509482E-1,0E0,0E0,0E0],"parents":[2147483647,0,0,1,1,3,3],"right_children":[2,4,-1,6,-1,-1,-1],"split_conditions":[2E0,2E0,1.2820463E-1,1E0,-1.0451647E-1,-3.0855464E-3,-8.7484285E-2],"split_indices":[1,0,0,3,0,0,0],"split_type":[0,0,0,0,0,0,0],"sum_hessian":[1.138867E2,1.081593E2,5.7274075E0,1.0586923E2,2.2900684E0,1.0447391E2,1.3953242E0],"tree_param":{"num_deleted":"0","num_feature":"13","num_nodes":"7","size_leaf_vector":"1"}},{"base_weights":[-4.6301098E-3,3.7224104E-3,-1.2713595E-1,2.057854E-3,-1.00520805E-1],"categories":[],"categories_nodes":[],"categories_segments":[],"categories_sizes":[],"default_left":[0,0,0,0,0],"id":79,"left_children":[1,3,-1,-1,-1],"loss_changes":[1.1659068E0,3.4990904E-1,0E0,0E0,0E0],"parents":[2147483647,0,0,1,1],"right_children":[2,4,-1,-1,-1],"split_conditions":[1E0,1E0,-1.2713595E-1,2.057854E-3,-1.00520805E-1],"split_indices":[11,3,0,0,0],"split_type":[0,0,0,0,0],"sum_hessian":[3.315693E2,3.26063E2,5.5063305E0,3.240422E2,2.0207741E0],"tree_param":{"num_deleted":"0","num_feature":"13","num_nodes":"5","size_leaf_vector":"1"}},{"base_weights":[5.355713E-3,-1.228408E-2,1.2795599E-1,-6.821192E-3,-9.604652E-2,-6.665839E-4,-8.9223765E-2],"categories":[],"categories_nodes":[],"categories_segments":[],"categories_sizes":[],"default_left":[0,0,0,0,0,0,0],"id":80,"left_children":[1,3,-1,5,-1,-1,-1],"loss_changes":[1.2390314E0,2.6753372E-1,0E0,2.113002E-1,0E0,0E0,0E0],"parents":[2147483647,0,0,1,1,3,3],"right_children":[2,4,-1,6,-1,-1,-1],"split_conditions":[2E0,2E0,1.2795599E-1,1E0,-9.604652E-2,-6.665839E-4,-8.9223765E-2],"split_indices":[0,1,0,3,0,0,0],"split_type":[0,0,0,0,0,0,0],"sum_hessian":[1.6507224E2,1.5936818E2,5.7040496E0,1.5759398E2,1.7742044E0,1.5613052E2,1.4634616E0],"tree_param":{"num_deleted":"0","num_feature":"13","num_nodes":"7","size_leaf_vector":"1"}},{"base_weights":[5.1449654E-3,-1.7136633E-2,1.21562965E-1,-1.3559716E-3,-1.0567401E-1],"categories":[],"categories_nodes":[],"categories_segments":[],"categories_sizes":[],"default_left":[0,0,0,0,0],"id":81,"left_children":[1,3,-1,-1,-1],"loss_changes":[8.776221E-1,3.9364436E-1,0E0,0E0,0E0],"parents":[2147483647,0,0,1,1],"right_children":[2,4,-1,-1,-1],"split_conditions":[1E0,1E0,1.21562965E-1,-1.3559716E-3,-1.0567401E-1],"split_indices":[3,11,0,0,0],"split_type":[0,0,0,0,0],"sum_hessian":[9.667443E1,9.248087E1,4.1935534E0,9.0102066E1,2.3788104E0],"tree_param":{"num_deleted":"0","num_feature":"13","num_nodes":"5","size_leaf_vector":"1"}},{"base_weights":[-4.0020482E-4,-2.1321323E-2,1.231E-1,-1.3156362E-2,-9.667447E-2,-2.3765748E-3,-7.9583675E-2],"categories":[],"categories_nodes":[],"categories_segments":[],"categories_sizes":[],"default_left":[0,0,0,0,0,0,0],"id":82,"left_children":[1,3,-1,5,-1,-1,-1],"loss_changes":[9.7492856E-1,2.6097256E-1,0E0,1.3796091E-1,0E0,0E0,0E0],"parents":[2147483647,0,0,1,1,3,3],"right_children":[2,4,-1,6,-1,-1,-1],"split_conditions":[2E0,2E0,1.231E-1,1E0,-9.667447E-2,-2.3765748E-3,-7.9583675E-2],"split_indices":[1,0,0,3,0,0,0],"split_type":[0,0,0,0,0,0,0],"sum_hessian":[1.1143795E2,1.06938995E2,4.498954E0,1.0513025E2,1.8087481E0,1.0400242E2,1.1278272E0],"tree_param":{"num_deleted":"0","num_feature":"13","num_nodes":"7","size_leaf_vector":"1"}},{"base_weights":[-4.082792E-3,2.411314E-3,-1.2162259E-1,1.4743877E-3,-9.271207E-2],"categories":[],"categories_nodes":[],"categories_segments":[],"categories_sizes":[],"default_left":[0,0,0,0,0],"id":83,"left_children":[1,3,-1,-1,-1],"loss_changes":[8.6087114E-1,2.5543472E-1,0E0,0E0,0E0],"parents":[2147483647,0,0,1,1],"right_children":[2,4,-1,-1,-1],"split_conditions":[1E0,1E0,-1.2162259E-1,1.4743877E-3,-9.271207E-2],"split_indices":[11,3,0,0,0],"split_type":[0,0,0,0,0],"sum_hessian":[3.2893484E2,3.2467508E2,4.25978E0,3.2306265E2,1.6124164E0],"tree_param":{"num_deleted":"0","num_feature":"13","num_nodes":"5","size_leaf_vector":"1"}},{"base_weights":[4.5633484E-3,-9.452146E-3,1.2298856E-1,-5.0208867E-3,-8.8262945E-2,-3.8195885E-4,-8.1479274E-2],"categories":[],"categories_nodes":[],"categories_segments":[],"categories_sizes":[],"default_left":[0,0,0,0,0,0,0],"id":84,"left_children":[1,3,-1,5,-1,-1,-1],"loss_changes":[9.3557286E-1,1.9975452E-1,0E0,1.5755275E-1,0E0,0E0,0E0],"parents":[2147483647,0,0,1,1,3,3],"right_children":[2,4,-1,6,-1,-1,-1],"split_conditions":[2E0,2E0,1.2298856E-1,1E0,-8.8262945E-2,-3.8195885E-4,-8.1479274E-2],"split_indices":[0,1,0,3,0,0,0],"split_type":[0,0,0,0,0,0,0],"sum_hessian":[1.6297762E2,1.5847546E2,4.502152E0,1.5704918E2,1.42629E0,1.5586275E2,1.1864334E0],"tree_param":{"num_deleted":"0","num_feature":"13","num_nodes":"7","size_leaf_vector":"1"}},{"base_weights":[4.8618913E-3,-1.3369079E-2,1.1629791E-1,-9.758405E-4,-9.811712E-2],"categories":[],"categories_nodes":[],"categories_segments":[],"categories_sizes":[],"default_left":[0,0,0,0,0],"id":85,"left_children":[1,3,-1,-1,-1],"loss_changes":[6.763824E-1,2.9333365E-1,0E0,0E0,0E0],"parents":[2147483647,0,0,1,1],"right_children":[2,4,-1,-1,-1],"split_conditions":[1E0,1E0,1.1629791E-1,-9.758405E-4,-9.811712E-2],"split_indices":[3,11,0,0,0],"split_type":[0,0,0,0,0],"sum_hessian":[9.517731E1,9.17717E1,3.405606E0,8.988338E1,1.8883233E0],"tree_param":{"num_deleted":"0","num_feature":"13","num_nodes":"5","size_leaf_vector":"1"}},{"base_weights":[-3.2366588E-4,-1.7078292E-2,1.17499925E-1,-3.1379738E-3,-8.8730276E-2],"categories":[],"categories_nodes":[],"categories_segments":[],"categories_sizes":[],"default_left":[0,0,0,0,0],"id":86,"left_children":[1,3,-1,-1,-1],"loss_changes":[7.330264E-1,1.9429828E-1,0E0,0E0,0E0],"parents":[2147483647,0,0,1,1],"right_children":[2,4,-1,-1,-1],"split_conditions":[2E0,2E0,1.17499925E-1,-3.1379738E-3,-8.8730276E-2],"split_indices":[1,0,0,0,0],"split_type":[0,0,0,0,0],"sum_hessian":[1.0959324E2,1.0601819E2,3.575048E0,1.0457231E2,1.4458761E0],"tree_param":{"num_deleted":"0","num_feature":"13","num_nodes":"5","size_leaf_vector":"1"}},{"base_weights":[-3.5979126E-3,1.4956744E-3,-1.1544928E-1,1.0554763E-3,-8.495475E-2],"categories":[],"categories_nodes":[],"categories_segments":[],"categories_sizes":[],"default_left":[0,0,0,0,0],"id":87,"left_children":[1,3,-1,-1,-1],"loss_changes":[6.374874E-1,1.8793334E-1,0E0,0E0,0E0],"parents":[2147483647,0,0,1,1],"right_children":[2,4,-1,-1,-1],"split_conditions":[1E0,1E0,-1.1544928E-1,1.0554763E-3,-8.495475E-2],"split_indices":[11,3,0,0,0],"split_type":[0,0,0,0,0],"sum_hessian":[3.2699338E2,3.2366504E2,3.3283544E0,3.2236237E2,1.3026766E0],"tree_param":{"num_deleted":"0","num_feature":"13","num_nodes":"5","size_leaf_vector":"1"}},{"base_weights":[3.8650525E-3,-7.3862826E-3,1.1755405E-1,-1.126024E-3,-8.067726E-2],"categories":[],"categories_nodes":[],"categories_segments":[],"categories_sizes":[],"default_left":[0,0,0,0,0],"id":88,"left_children":[1,3,-1,-1,-1],"loss_changes":[7.1192443E-1,1.4989804E-1,0E0,0E0,0E0],"parents":[2147483647,0,0,1,1],"right_children":[2,4,-1,-1,-1],"split_conditions":[2E0,2E0,1.1755405E-1,-1.126024E-3,-8.067726E-2],"split_indices":[0,1,0,0,0],"split_type":[0,0,0,0,0],"sum_hessian":[1.6142366E2,1.5782767E2,3.5959845E0,1.5666586E2,1.1618022E0],"tree_param":{"num_deleted":"0","num_feature":"13","num_nodes":"5","size_leaf_vector":"1"}},{"base_weights":[4.808995E-3,-1.0555593E-2,1.1136723E-1,-7.0899184E-4,-9.0466246E-2],"categories":[],"categories_nodes":[],"categories_segments":[],"categories_sizes":[],"default_left":[0,0,0,0,0],"id":89,"left_children":[1,3,-1,-1,-1],"loss_changes":[5.39334E-1,2.1920249E-1,0E0,0E0,0E0],"parents":[2147483647,0,0,1,1],"right_children":[2,4,-1,-1,-1],"split_conditions":[1E0,1E0,1.1136723E-1,-7.0899184E-4,-9.0466246E-2],"split_indices":[3,11,0,0,0],"split_type":[0,0,0,0,0],"sum_hessian":[9.410352E1,9.124847E1,2.8550556E0,8.973047E1,1.5180002E0],"tree_param":{"num_deleted":"0","num_feature":"13","num_nodes":"5","size_leaf_vector":"1"}},{"base_weights":[1.17673204E-4,-1.3443566E-2,1.1152642E-1,-2.4060414E-3,-8.093809E-2],"categories":[],"categories_nodes":[],"categories_segments":[],"categories_sizes":[],"default_left":[0,0,0,0,0],"id":90,"left_children":[1,3,-1,-1,-1],"loss_changes":[5.5497307E-1,1.4555293E-1,0E0,0E0,0E0],"parents":[2147483647,0,0,1,1],"right_children":[2,4,-1,-1,-1],"split_conditions":[2E0,2E0,1.1152642E-1,-2.4060414E-3,-8.093809E-2],"split_indices":[1,0,0,0,0],"split_type":[0,0,0,0,0],"sum_hessian":[1.0812513E2,1.0524839E2,2.8767447E0,1.0407777E2,1.1706184E0],"tree_param":{"num_deleted":"0","num_feature":"13","num_nodes":"5","size_leaf_vector":"1"}},{"base_weights":[-3.3637874E-3,6.723565E-4,-1.08754136E-1,6.9820904E-4,-7.7465706E-2],"categories":[],"categories_nodes":[],"categories_segments":[],"categories_sizes":[],"default_left":[0,0,0,0,0],"id":91,"left_children":[1,3,-1,-1,-1],"loss_changes":[4.7347814E-1,1.3935274E-1,0E0,0E0,0E0],"parents":[2147483647,0,0,1,1],"right_children":[2,4,-1,-1,-1],"split_conditions":[1E0,1E0,-1.08754136E-1,6.9820904E-4,-7.7465706E-2],"split_indices":[11,3,0,0,0],"split_type":[0,0,0,0,0],"sum_hessian":[3.254629E2,3.22833E2,2.6298842E0,3.2176706E2,1.0659403E0],"tree_param":{"num_deleted":"0","num_feature":"13","num_nodes":"5","size_leaf_vector":"1"}},{"base_weights":[3.5139087E-3,-1.6867792E-3,1.1177432E-1],"categories":[],"categories_nodes":[],"categories_segments":[],"categories_sizes":[],"default_left":[0,0,0],"id":92,"left_children":[1,-1,-1],"loss_changes":[5.456512E-1,0E0,0E0],"parents":[2147483647,0,0],"right_children":[2,-1,-1],"split_conditions":[2E0,-1.6867792E-3,1.1177432E-1],"split_indices":[0,0,0],"split_type":[0,0,0],"sum_hessian":[1.6019778E2,1.5728876E2,2.909024E0],"tree_param":{"num_deleted":"0","num_feature":"13","num_nodes":"3","size_leaf_vector":"1"}},{"base_weights":[4.925811E-3,-8.479606E-3,1.0715384E-1,-5.3136906E-4,-8.2958825E-2],"categories":[],"categories_nodes":[],"categories_segments":[],"categories_sizes":[],"default_left":[0,0,0,0,0],"id":93,"left_children":[1,3,-1,-1,-1],"loss_changes":[4.4854784E-1,1.6470075E-1,0E0,0E0,0E0],"parents":[2147483647,0,0,1,1],"right_children":[2,4,-1,-1,-1],"split_conditions":[1E0,1E0,1.0715384E-1,-5.3136906E-4,-8.2958825E-2],"split_indices":[3,11,0,0,0],"split_type":[0,0,0,0,0],"sum_hessian":[9.334752E1,9.0865456E1,2.4820616E0,8.962895E1,1.2365006E0],"tree_param":{"num_deleted":"0","num_feature":"13","num_nodes":"5","size_leaf_vector":"1"}},{"base_weights":[4.479425E-4,-3.1976844E-3,1.0533292E-1],"categories":[],"categories_nodes":[],"categories_segments":[],"categories_sizes":[],"default_left":[0,0,0],"id":94,"left_children":[1,-1,-1],"loss_changes":[4.2441845E-1,0E0,0E0],"parents":[2147483647,0,0],"right_children":[2,-1,-1],"split_conditions":[2E0,-3.1976844E-3,1.0533292E-1],"split_indices":[1,0,0],"split_type":[0,0,0],"sum_hessian":[1.0701071E2,1.04665146E2,2.3455691E0],"tree_param":{"num_deleted":"0","num_feature":"13","num_nodes":"3","size_leaf_vector":"1"}},{"base_weights":[-3.3192567E-3,-2.5232725E-5,-1.017259E-1],"categories":[],"categories_nodes":[],"categories_segments":[],"categories_sizes":[],"default_left":[0,0,0],"id":95,"left_children":[1,-1,-1],"loss_changes":[3.532598E-1,0E0,0E0],"parents":[2147483647,0,0],"right_children":[2,-1,-1],"split_conditions":[1E0,-2.5232725E-5,-1.017259E-1],"split_indices":[11,0,0],"split_type":[0,0,0],"sum_hessian":[3.2423486E2,3.2213135E2,2.1035156E0],"tree_param":{"num_deleted":"0","num_feature":"13","num_nodes":"3","size_leaf_vector":"1"}},{"base_weights":[3.3990336E-3,-1.2871485E-3,1.06539324E-1],"categories":[],"categories_nodes":[],"categories_segments":[],"categories_sizes":[],"default_left":[0,0,0],"id":96,"left_children":[1,-1,-1],"loss_changes":[4.3516237E-1,0E0,0E0],"parents":[2147483647,0,0],"right_children":[2,-1,-1],"split_conditions":[2E0,-1.2871485E-3,1.06539324E-1],"split_indices":[0,0,0],"split_type":[0,0,0],"sum_hessian":[1.5933058E2,1.568885E2,2.442078E0],"tree_param":{"num_deleted":"0","num_feature":"13","num_nodes":"3","size_leaf_vector":"1"}},{"base_weights":[4.8867995E-3,-7.173382E-3,1.03724785E-1,-4.8589837E-4,-7.5790375E-2],"categories":[],"categories_nodes":[],"categories_segments":[],"categories_sizes":[],"default_left":[0,0,0,0,0],"id":97,"left_children":[1,3,-1,-1,-1],"loss_changes":[3.8828948E-1,1.2449441E-1,0E0,0E0,0E0],"parents":[2147483647,0,0,1,1],"right_children":[2,4,-1,-1,-1],"split_conditions":[1E0,1E0,1.03724785E-1,-4.8589837E-4,-7.5790375E-2],"split_indices":[3,11,0,0,0],"split_type":[0,0,0,0,0],"sum_hessian":[9.2851166E1,9.062373E1,2.2274368E0,8.9603004E1,1.0207285E0],"tree_param":{"num_deleted":"0","num_feature":"13","num_nodes":"5","size_leaf_vector":"1"}},{"base_weights":[1.1376488E-3,-2.5047988E-3,1.0009791E-1],"categories":[],"categories_nodes":[],"categories_segments":[],"categories_sizes":[],"default_left":[0,0,0],"id":98,"left_children":[1,-1,-1],"loss_changes":[3.409249E-1,0E0,0E0],"parents":[2147483647,0,0],"right_children":[2,-1,-1],"split_conditions":[2E0,-2.5047988E-3,1.0009791E-1],"split_indices":[1,0,0],"split_type":[0,0,0],"sum_hessian":[1.0618821E2,1.0419051E2,1.9977033E0],"tree_param":{"num_deleted":"0","num_feature":"13","num_nodes":"3","size_leaf_vector":"1"}},{"base_weights":[-3.470553E-3,-2.5385525E-4,-9.457557E-2],"categories":[],"categories_nodes":[],"categories_segments":[],"categories_sizes":[],"default_left":[0,0,0],"id":99,"left_children":[1,-1,-1],"loss_changes":[2.6508334E-1,0E0,0E0],"parents":[2147483647,0,0],"right_children":[2,-1,-1],"split_conditions":[1E0,-2.5385525E-4,-9.457557E-2],"split_indices":[11,0,0],"split_type":[0,0,0],"sum_hessian":[3.2329797E2,3.2159372E2,1.704249E0],"tree_param":{"num_deleted":"0","num_feature":"13","num_nodes":"3","size_leaf_vector":"1"}},{"base_weights":[3.223415E-3,-9.966246E-4,1.0130687E-1],"categories":[],"categories_nodes":[],"categories_segments":[],"categories_sizes":[],"default_left":[0,0,0],"id":100,"left_children":[1,-1,-1],"loss_changes":[3.5068038E-1,0E0,0E0],"parents":[2147483647,0,0],"right_children":[2,-1,-1],"split_conditions":[2E0,-9.966246E-4,1.0130687E-1],"split_indices":[0,0,0],"split_type":[0,0,0],"sum_hessian":[1.5867067E2,1.5659615E2,2.0745168E0],"tree_param":{"num_deleted":"0","num_feature":"13","num_nodes":"3","size_leaf_vector":"1"}},{"base_weights":[4.66442E-3,-1.8664189E-3,1.0027785E-1],"categories":[],"categories_nodes":[],"categories_segments":[],"categories_sizes":[],"default_left":[0,0,0],"id":101,"left_children":[1,-1,-1],"loss_changes":[3.3738375E-1,0E0,0E0],"parents":[2147483647,0,0],"right_children":[2,-1,-1],"split_conditions":[1E0,-1.8664189E-3,1.0027785E-1],"split_indices":[3,0,0],"split_type":[0,0,0],"sum_hessian":[9.2453865E1,9.044769E1,2.0061688E0],"tree_param":{"num_deleted":"0","num_feature":"13","num_nodes":"3","size_leaf_vector":"1"}},{"base_weights":[1.6206366E-3,-1.9713563E-3,9.498464E-2],"categories":[],"categories_nodes":[],"categories_segments":[],"categories_sizes":[],"default_left":[0,0,0],"id":102,"left_children":[1,-1,-1],"loss_changes":[2.7701467E-1,0E0,0E0],"parents":[2147483647,0,0],"right_children":[2,-1,-1],"split_conditions":[2E0,-1.9713563E-3,9.498464E-2],"split_indices":[1,0,0],"split_type":[0,0,0],"sum_hessian":[1.05547844E2,1.0382684E2,1.7210046E0],"tree_param":{"num_deleted":"0","num_feature":"13","num_nodes":"3","size_leaf_vector":"1"}},{"base_weights":[-3.4709368E-3,-3.9480993E-4,-8.7478206E-2],"categories":[],"categories_nodes":[],"categories_segments":[],"categories_sizes":[],"default_left":[0,0,0],"id":103,"left_children":[1,-1,-1],"loss_changes":[2.0054461E-1,0E0,0E0],"parents":[2147483647,0,0],"right_children":[2,-1,-1],"split_conditions":[1E0,-3.9480993E-4,-8.7478206E-2],"split_indices":[11,0,0],"split_type":[0,0,0],"sum_hessian":[3.2262003E2,3.2122214E2,1.3978875E0],"tree_param":{"num_deleted":"0","num_feature":"13","num_nodes":"3","size_leaf_vector":"1"}},{"base_weights":[3.0860945E-3,-7.9147366E-4,9.672839E-2],"categories":[],"categories_nodes":[],"categories_segments":[],"categories_sizes":[],"default_left":[0,0,0],"id":104,"left_children":[1,-1,-1],"loss_changes":[2.9187033E-1,0E0,0E0],"parents":[2147483647,0,0],"right_children":[2,-1,-1],"split_conditions":[2E0,-7.9147366E-4,9.672839E-2],"split_indices":[0,0,0],"split_type":[0,0,0],"sum_hessian":[1.5819928E2,1.563877E2,1.811578E0],"tree_param":{"num_deleted":"0","num_feature":"13","num_nodes":"3","size_leaf_vector":"1"}},{"base_weights":[4.749343E-3,-1.5326225E-3,9.683755E-2],"categories":[],"categories_nodes":[],"categories_segments":[],"categories_sizes":[],"default_left":[0,0,0],"id":105,"left_children":[1,-1,-1],"loss_changes":[2.9342806E-1,0E0,0E0],"parents":[2147483647,0,0],"right_children":[2,-1,-1],"split_conditions":[1E0,-1.5326225E-3,9.683755E-2],"split_indices":[3,0,0],"split_type":[0,0,0],"sum_hessian":[9.2062874E1,9.024943E1,1.8134457E0],"tree_param":{"num_deleted":"0","num_feature":"13","num_nodes":"3","size_leaf_vector":"1"}},{"base_weights":[2.0246736E-3,-1.5660471E-3,9.055783E-2],"categories":[],"categories_nodes":[],"categories_segments":[],"categories_sizes":[],"default_left":[0,0,0],"id":106,"left_children":[1,-1,-1],"loss_changes":[2.3198777E-1,0E0,0E0],"parents":[2147483647,0,0],"right_children":[2,-1,-1],"split_conditions":[2E0,-1.5660471E-3,9.055783E-2],"split_indices":[1,0,0],"split_type":[0,0,0],"sum_hessian":[1.0507058E2,1.03551094E2,1.5194889E0],"tree_param":{"num_deleted":"0","num_feature":"13","num_nodes":"3","size_leaf_vector":"1"}},{"base_weights":[-3.553855E-3,-5.289297E-4,-8.060348E-2],"categories":[],"categories_nodes":[],"categories_segments":[],"categories_sizes":[],"default_left":[0,0,0],"id":107,"left_children":[1,-1,-1],"loss_changes":[1.5289716E-1,0E0,0E0],"parents":[2147483647,0,0],"right_children":[2,-1,-1],"split_conditions":[1E0,-5.289297E-4,-8.060348E-2],"split_indices":[11,0,0],"split_type":[0,0,0],"sum_hessian":[3.2204034E2,3.2087964E2,1.1606991E0],"tree_param":{"num_deleted":"0","num_feature":"13","num_nodes":"3","size_leaf_vector":"1"}},{"base_weights":[2.888411E-3,-6.4806093E-4,9.227986E-2],"categories":[],"categories_nodes":[],"categories_segments":[],"categories_sizes":[],"default_left":[0,0,0],"id":108,"left_children":[1,-1,-1],"loss_changes":[2.4501218E-1,0E0,0E0],"parents":[2147483647,0,0],"right_children":[2,-1,-1],"split_conditions":[2E0,-6.4806093E-4,9.227986E-2],"split_indices":[0,0,0],"split_type":[0,0,0],"sum_hessian":[1.5783557E2,1.562398E2,1.5957528E0],"tree_param":{"num_deleted":"0","num_feature":"13","num_nodes":"3","size_leaf_vector":"1"}},{"base_weights":[4.694354E-3,-1.2788443E-3,9.342432E-2],"categories":[],"categories_nodes":[],"categories_segments":[],"categories_sizes":[],"default_left":[0,0,0],"id":109,"left_children":[1,-1,-1],"loss_changes":[2.5612658E-1,0E0,0E0],"parents":[2147483647,0,0],"right_children":[2,-1,-1],"split_conditions":[1E0,-1.2788443E-3,9.342432E-2],"split_indices":[3,0,0],"split_type":[0,0,0],"sum_hessian":[9.174381E1,9.0098755E1,1.6450588E0],"tree_param":{"num_deleted":"0","num_feature":"13","num_nodes":"3","size_leaf_vector":"1"}},{"base_weights":[2.264623E-3,-1.2583811E-3,8.632608E-2],"categories":[],"categories_nodes":[],"categories_segments":[],"categories_sizes":[],"default_left":[0,0,0],"id":110,"left_children":[1,-1,-1],"loss_changes":[1.961118E-1,0E0,0E0],"parents":[2147483647,0,0],"right_children":[2,-1,-1],"split_conditions":[2E0,-1.2583811E-3,8.632608E-2],"split_indices":[1,0,0],"split_type":[0,0,0],"sum_hessian":[1.0469458E2,1.0334177E2,1.3528141E0],"tree_param":{"num_deleted":"0","num_feature":"13","num_nodes":"3","size_leaf_vector":"1"}},{"base_weights":[-3.5134791E-3],"categories":[],"categories_nodes":[],"categories_segments":[],"categories_sizes":[],"default_left":[0],"id":111,"left_children":[-1],"loss_changes":[0E0],"parents":[2147483647],"right_children":[-1],"split_conditions":[-1.0540438E-3],"split_indices":[0],"split_type":[0],"sum_hessian":[3.21627E2],"tree_param":{"num_deleted":"0","num_feature":"13","num_nodes":"1","size_leaf_vector":"1"}},{"base_weights":[2.5709637E-3,-6.096639E-4,8.892603E-2],"categories":[],"categories_nodes":[],"categories_segments":[],"categories_sizes":[],"default_left":[0,0,0],"id":112,"left_children":[1,-1,-1],"loss_changes":[2.1519382E-1,0E0,0E0],"parents":[2147483647,0,0],"right_children":[2,-1,-1],"split_conditions":[2E0,-6.096639E-4,8.892603E-2],"split_indices":[0,0,0],"split_type":[0,0,0],"sum_hessian":[1.5764644E2,1.5619275E2,1.453691E0],"tree_param":{"num_deleted":"0","num_feature":"13","num_nodes":"3","size_leaf_vector":"1"}},{"base_weights":[4.3501E-3,-1.1441595E-3,9.005014E-2],"categories":[],"categories_nodes":[],"categories_segments":[],"categories_sizes":[],"default_left":[0,0,0],"id":113,"left_children":[1,-1,-1],"loss_changes":[2.2457176E-1,0E0,0E0],"parents":[2147483647,0,0],"right_children":[2,-1,-1],"split_conditions":[1E0,-1.1441595E-3,9.005014E-2],"split_indices":[3,0,0],"split_type":[0,0,0],"sum_hessian":[9.151482E1,9.001762E1,1.4972008E0],"tree_param":{"num_deleted":"0","num_feature":"13","num_nodes":"3","size_leaf_vector":"1"}},{"base_weights":[2.312262E-3,-1.084219E-3,8.3105445E-2],"categories":[],"categories_nodes":[],"categories_segments":[],"categories_sizes":[],"default_left":[0,0,0],"id":114,"left_children":[1,-1,-1],"loss_changes":[1.7269175E-1,0E0,0E0],"parents":[2147483647,0,0],"right_children":[2,-1,-1],"split_conditions":[2E0,-1.084219E-3,8.3105445E-2],"split_indices":[1,0,0],"split_type":[0,0,0],"sum_hessian":[1.04461296E2,1.0322131E2,1.2399853E0],"tree_param":{"num_deleted":"0","num_feature":"13","num_nodes":"3","size_leaf_vector":"1"}},{"base_weights":[-3.2686177E-3],"categories":[],"categories_nodes":[],"categories_segments":[],"categories_sizes":[],"default_left":[0],"id":115,"left_children":[-1],"loss_changes":[0E0],"parents":[2147483647],"right_children":[-1],"split_conditions":[-9.805853E-4],"split_indices":[0],"split_type":[0],"sum_hessian":[3.215061E2],"tree_param":{"num_deleted":"0","num_feature":"13","num_nodes":"1","size_leaf_vector":"1"}},{"base_weights":[2.2863576E-3,-5.771999E-4,8.5635416E-2],"categories":[],"categories_nodes":[],"categories_segments":[],"categories_sizes":[],"default_left":[0,0,0],"id":116,"left_children":[1,-1,-1],"loss_changes":[1.8949458E-1,0E0,0E0],"parents":[2147483647,0,0],"right_children":[2,-1,-1],"split_conditions":[2E0,-5.771999E-4,8.5635416E-2],"split_indices":[0,0,0],"split_type":[0,0,0],"sum_hessian":[1.5748117E2,1.5615256E2,1.328614E0],"tree_param":{"num_deleted":"0","num_feature":"13","num_nodes":"3","size_leaf_vector":"1"}},{"base_weights":[4.0322267E-3,-1.0299884E-3,8.674149E-2],"categories":[],"categories_nodes":[],"categories_segments":[],"categories_sizes":[],"default_left":[0,0,0],"id":117,"left_children":[1,-1,-1],"loss_changes":[1.9748446E-1,0E0,0E0],"parents":[2147483647,0,0],"right_children":[2,-1,-1],"split_conditions":[1E0,-1.0299884E-3,8.674149E-2],"split_indices":[3,0,0],"split_type":[0,0,0],"sum_hessian":[9.131617E1,8.9948814E1,1.3673579E0],"tree_param":{"num_deleted":"0","num_feature":"13","num_nodes":"3","size_leaf_vector":"1"}},{"base_weights":[2.3150786E-3,-9.418185E-4,7.99772E-2],"categories":[],"categories_nodes":[],"categories_segments":[],"categories_sizes":[],"default_left":[0,0,0],"id":118,"left_children":[1,-1,-1],"loss_changes":[1.525717E-1,0E0,0E0],"parents":[2147483647,0,0],"right_children":[2,-1,-1],"split_conditions":[2E0,-9.418185E-4,7.99772E-2],"split_indices":[1,0,0],"split_type":[0,0,0],"sum_hessian":[1.0426286E2,1.03122604E2,1.1402618E0],"tree_param":{"num_deleted":"0","num_feature":"13","num_nodes":"3","size_leaf_vector":"1"}},{"base_weights":[-3.0343311E-3],"categories":[],"categories_nodes":[],"categories_segments":[],"categories_sizes":[],"default_left":[0],"id":119,"left_children":[-1],"loss_changes":[0E0],"parents":[2147483647],"right_children":[-1],"split_conditions":[-9.1029936E-4],"split_indices":[0],"split_type":[0],"sum_hessian":[3.2140897E2],"tree_param":{"num_deleted":"0","num_feature":"13","num_nodes":"1","size_leaf_vector":"1"}},{"base_weights":[2.0346744E-3,-5.488548E-4,8.2433686E-2],"categories":[],"categories_nodes":[],"categories_segments":[],"categories_sizes":[],"default_left":[0,0,0],"id":120,"left_children":[1,-1,-1],"loss_changes":[1.673786E-1,0E0,0E0],"parents":[2147483647,0,0],"right_children":[2,-1,-1],"split_conditions":[2E0,-5.488548E-4,8.2433686E-2],"split_indices":[0,0,0],"split_type":[0,0,0],"sum_hessian":[1.5733594E2,1.5611739E2,1.2185503E0],"tree_param":{"num_deleted":"0","num_feature":"13","num_nodes":"3","size_leaf_vector":"1"}},{"base_weights":[3.741153E-3,-9.3234336E-4,8.351354E-2],"categories":[],"categories_nodes":[],"categories_segments":[],"categories_sizes":[],"default_left":[0,0,0],"id":121,"left_children":[1,-1,-1],"loss_changes":[1.7418437E-1,0E0,0E0],"parents":[2147483647,0,0],"right_children":[2,-1,-1],"split_conditions":[1E0,-9.3234336E-4,8.351354E-2],"split_indices":[3,0,0],"split_type":[0,0,0],"sum_hessian":[9.114298E1,8.988998E1,1.2530115E0],"tree_param":{"num_deleted":"0","num_feature":"13","num_nodes":"3","size_leaf_vector":"1"}},{"base_weights":[2.2865247E-3,-8.248789E-4,7.695521E-2],"categories":[],"categories_nodes":[],"categories_segments":[],"categories_sizes":[],"default_left":[0,0,0],"id":122,"left_children":[1,-1,-1],"loss_changes":[1.3526021E-1,0E0,0E0],"parents":[2147483647,0,0],"right_children":[2,-1,-1],"split_conditions":[2E0,-8.248789E-4,7.695521E-2],"split_indices":[1,0,0],"split_type":[0,0,0],"sum_hessian":[1.04093315E2,1.0304133E2,1.0519863E0],"tree_param":{"num_deleted":"0","num_feature":"13","num_nodes":"3","size_leaf_vector":"1"}},{"base_weights":[-2.814516E-3],"categories":[],"categories_nodes":[],"categories_segments":[],"categories_sizes":[],"default_left":[0],"id":123,"left_children":[-1],"loss_changes":[0E0],"parents":[2147483647],"right_children":[-1],"split_conditions":[-8.443548E-4],"split_indices":[0],"split_type":[0],"sum_hessian":[3.213297E2],"tree_param":{"num_deleted":"0","num_feature":"13","num_nodes":"1","size_leaf_vector":"1"}},{"base_weights":[1.8135018E-3,-5.2341935E-4,7.9332024E-2],"categories":[],"categories_nodes":[],"categories_segments":[],"categories_sizes":[],"default_left":[0,0,0],"id":124,"left_children":[1,-1,-1],"loss_changes":[1.4830396E-1,0E0,0E0],"parents":[2147483647,0,0],"right_children":[2,-1,-1],"split_conditions":[2E0,-5.2341935E-4,7.9332024E-2],"split_indices":[0,0,0],"split_type":[0,0,0],"sum_hessian":[1.5720729E2,1.560859E2,1.1213951E0],"tree_param":{"num_deleted":"0","num_feature":"13","num_nodes":"3","size_leaf_vector":"1"}},{"base_weights":[3.4756018E-3,-8.4823725E-4,8.0377415E-2],"categories":[],"categories_nodes":[],"categories_segments":[],"categories_sizes":[],"default_left":[0,0,0],"id":125,"left_children":[1,-1,-1],"loss_changes":[1.5409209E-1,0E0,0E0],"parents":[2147483647,0,0],"right_children":[2,-1,-1],"split_conditions":[1E0,-8.4823725E-4,8.0377415E-2],"split_indices":[3,0,0],"split_type":[0,0,0],"sum_hessian":[9.099126E1,8.983927E1,1.151982E0],"tree_param":{"num_deleted":"0","num_feature":"13","num_nodes":"3","size_leaf_vector":"1"}},{"base_weights":[2.2356012E-3,-9.218585E-5,3.3104155E-2],"categories":[],"categories_nodes":[],"categories_segments":[],"categories_sizes":[],"default_left":[0,0,0],"id":126,"left_children":[1,-1,-1],"loss_changes":[2.8885584E-2,0E0,0E0],"parents":[2147483647,0,0],"right_children":[2,-1,-1],"split_conditions":[1E0,-9.218585E-5,3.3104155E-2],"split_indices":[11,0,0],"split_type":[0,0,0],"sum_hessian":[1.0394742E2,1.02532906E2,1.4145141E0],"tree_param":{"num_deleted":"0","num_feature":"13","num_nodes":"3","size_leaf_vector":"1"}},{"base_weights":[-2.6106196E-3],"categories":[],"categories_nodes":[],"categories_segments":[],"categories_sizes":[],"default_left":[0],"id":127,"left_children":[-1],"loss_changes":[0E0],"parents":[2147483647],"right_children":[-1],"split_conditions":[-7.8318594E-4],"split_indices":[0],"split_type":[0],"sum_hessian":[3.2126416E2],"tree_param":{"num_deleted":"0","num_feature":"13","num_nodes":"1","size_leaf_vector":"1"}},{"base_weights":[1.617154E-3,-5.139998E-4,7.6835334E-2],"categories":[],"categories_nodes":[],"categories_segments":[],"categories_sizes":[],"default_left":[0,0,0],"id":128,"left_children":[1,-1,-1],"loss_changes":[1.3446419E-1,0E0,0E0],"parents":[2147483647,0,0],"right_children":[2,-1,-1],"split_conditions":[2E0,-5.139998E-4,7.6835334E-2],"split_indices":[0,0,0],"split_type":[0,0,0],"sum_hessian":[1.5712137E2,1.5607222E2,1.0491495E0],"tree_param":{"num_deleted":"0","num_feature":"13","num_nodes":"3","size_leaf_vector":"1"}},{"base_weights":[3.201622E-3,-7.8543316E-4,7.735142E-2],"categories":[],"categories_nodes":[],"categories_segments":[],"categories_sizes":[],"default_left":[0,0,0],"id":129,"left_children":[1,-1,-1],"loss_changes":[1.3681021E-1,0E0,0E0],"parents":[2147483647,0,0],"right_children":[2,-1,-1],"split_conditions":[1E0,-7.8543316E-4,7.735142E-2],"split_indices":[3,0,0],"split_type":[0,0,0],"sum_hessian":[9.086429E1,8.980158E1,1.0627028E0],"tree_param":{"num_deleted":"0","num_feature":"13","num_nodes":"3","size_leaf_vector":"1"}},{"base_weights":[1.9706727E-3,-1.549098E-4,3.30517E-2],"categories":[],"categories_nodes":[],"categories_segments":[],"categories_sizes":[],"default_left":[0,0,0],"id":130,"left_children":[1,-1,-1],"loss_changes":[2.8294811E-2,0E0,0E0],"parents":[2147483647,0,0],"right_children":[2,-1,-1],"split_conditions":[1E0,-1.549098E-4,3.30517E-2],"split_indices":[11,0,0],"split_type":[0,0,0],"sum_hessian":[1.0393402E2,1.0257162E2,1.362403E0],"tree_param":{"num_deleted":"0","num_feature":"13","num_nodes":"3","size_leaf_vector":"1"}},{"base_weights":[-2.347589E-3],"categories":[],"categories_nodes":[],"categories_segments":[],"categories_sizes":[],"default_left":[0],"id":131,"left_children":[-1],"loss_changes":[0E0],"parents":[2147483647],"right_children":[-1],"split_conditions":[-7.042767E-4],"split_indices":[0],"split_type":[0],"sum_hessian":[3.2126685E2],"tree_param":{"num_deleted":"0","num_feature":"13","num_nodes":"1","size_leaf_vector":"1"}},{"base_weights":[1.4623693E-3,-8.3412335E-5,3.4058124E-2],"categories":[],"categories_nodes":[],"categories_segments":[],"categories_sizes":[],"default_left":[0,0,0],"id":132,"left_children":[1,-1,-1],"loss_changes":[3.085502E-2,0E0,0E0],"parents":[2147483647,0,0],"right_children":[2,-1,-1],"split_conditions":[1E0,-8.3412335E-5,3.4058124E-2],"split_indices":[11,0,0],"split_type":[0,0,0],"sum_hessian":[1.5703773E2,1.5561842E2,1.4192985E0],"tree_param":{"num_deleted":"0","num_feature":"13","num_nodes":"3","size_leaf_vector":"1"}},{"base_weights":[2.9693225E-3],"categories":[],"categories_nodes":[],"categories_segments":[],"categories_sizes":[],"default_left":[0],"id":133,"left_children":[-1],"loss_changes":[0E0],"parents":[2147483647],"right_children":[-1],"split_conditions":[8.907968E-4],"split_indices":[0],"split_type":[0],"sum_hessian":[9.074907E1],"tree_param":{"num_deleted":"0","num_feature":"13","num_nodes":"1","size_leaf_vector":"1"}},{"base_weights":[1.7554996E-3,-2.0143158E-4,3.2905653E-2],"categories":[],"categories_nodes":[],"categories_segments":[],"categories_sizes":[],"default_left":[0,0,0],"id":134,"left_children":[1,-1,-1],"loss_changes":[2.7554607E-2,0E0,0E0],"parents":[2147483647,0,0],"right_children":[2,-1,-1],"split_conditions":[1E0,-2.0143158E-4,3.2905653E-2],"split_indices":[11,0,0],"split_type":[0,0,0],"sum_hessian":[1.039134E2,1.0260009E2,1.3133094E0],"tree_param":{"num_deleted":"0","num_feature":"13","num_nodes":"3","size_leaf_vector":"1"}},{"base_weights":[-2.1340977E-3],"categories":[],"categories_nodes":[],"categories_segments":[],"categories_sizes":[],"default_left":[0],"id":135,"left_children":[-1],"loss_changes":[0E0],"parents":[2147483647],"right_children":[-1],"split_conditions":[-6.402293E-4],"split_indices":[0],"split_type":[0],"sum_hessian":[3.2125763E2],"tree_param":{"num_deleted":"0","num_feature":"13","num_nodes":"1","size_leaf_vector":"1"}},{"base_weights":[1.1558137E-3,-1.5659144E-4,3.306278E-2],"categories":[],"categories_nodes":[],"categories_segments":[],"categories_sizes":[],"default_left":[0,0,0],"id":136,"left_children":[1,-1,-1],"loss_changes":[2.8982427E-2,0E0,0E0],"parents":[2147483647,0,0],"right_children":[2,-1,-1],"split_conditions":[1E0,-1.5659144E-4,3.306278E-2],"split_indices":[11,0,0],"split_type":[0,0,0],"sum_hessian":[1.57087E2,1.5568697E2,1.4000275E0],"tree_param":{"num_deleted":"0","num_feature":"13","num_nodes":"3","size_leaf_vector":"1"}},{"base_weights":[2.3138642E-3],"categories":[],"categories_nodes":[],"categories_segments":[],"categories_sizes":[],"default_left":[0],"id":137,"left_children":[-1],"loss_changes":[0E0],"parents":[2147483647],"right_children":[-1],"split_conditions":[6.941593E-4],"split_indices":[0],"split_type":[0],"sum_hessian":[9.0858925E1],"tree_param":{"num_deleted":"0","num_feature":"13","num_nodes":"1","size_leaf_vector":"1"}},{"base_weights":[1.5108703E-3,-2.546843E-4,3.2183096E-2],"categories":[],"categories_nodes":[],"categories_segments":[],"categories_sizes":[],"default_left":[0,0,0],"id":138,"left_children":[1,-1,-1],"loss_changes":[2.6281022E-2,0E0,0E0],"parents":[2147483647,0,0],"right_children":[2,-1,-1],"split_conditions":[1E0,-2.546843E-4,3.2183096E-2],"split_indices":[11,0,0],"split_type":[0,0,0],"sum_hessian":[1.0393241E2,1.0263444E2,1.2979717E0],"tree_param":{"num_deleted":"0","num_feature":"13","num_nodes":"3","size_leaf_vector":"1"}},{"base_weights":[-1.7176437E-3],"categories":[],"categories_nodes":[],"categories_segments":[],"categories_sizes":[],"default_left":[0],"id":139,"left_children":[-1],"loss_changes":[0E0],"parents":[2147483647],"right_children":[-1],"split_conditions":[-5.1529316E-4],"split_indices":[0],"split_type":[0],"sum_hessian":[3.2142676E2],"tree_param":{"num_deleted":"0","num_feature":"13","num_nodes":"1","size_leaf_vector":"1"}},{"base_weights":[9.426723E-4,-2.0269417E-4,3.2112714E-2],"categories":[],"categories_nodes":[],"categories_segments":[],"categories_sizes":[],"default_left":[0,0,0],"id":140,"left_children":[1,-1,-1],"loss_changes":[2.722064E-2,0E0,0E0],"parents":[2147483647,0,0],"right_children":[2,-1,-1],"split_conditions":[1E0,-2.0269417E-4,3.2112714E-2],"split_indices":[11,0,0],"split_type":[0,0,0],"sum_hessian":[1.5711186E2,1.5573016E2,1.381692E0],"tree_param":{"num_deleted":"0","num_feature":"13","num_nodes":"3","size_leaf_vector":"1"}},{"base_weights":[1.8046901E-3],"categories":[],"categories_nodes":[],"categories_segments":[],"categories_sizes":[],"default_left":[0],"id":141,"left_children":[-1],"loss_changes":[0E0],"parents":[2147483647],"right_children":[-1],"split_conditions":[5.4140703E-4],"split_indices":[0],"split_type":[0],"sum_hessian":[9.0944084E1],"tree_param":{"num_deleted":"0","num_feature":"13","num_nodes":"1","size_leaf_vector":"1"}},{"base_weights":[1.346174E-3,-2.8460368E-4,3.1478487E-2],"categories":[],"categories_nodes":[],"categories_segments":[],"categories_sizes":[],"default_left":[0,0,0],"id":142,"left_children":[1,-1,-1],"loss_changes":[2.5043713E-2,0E0,0E0],"parents":[2147483647,0,0],"right_children":[2,-1,-1],"split_conditions":[1E0,-2.8460368E-4,3.1478487E-2],"split_indices":[11,0,0],"split_type":[0,0,0],"sum_hessian":[1.0393719E2,1.0265374E2,1.2834438E0],"tree_param":{"num_deleted":"0","num_feature":"13","num_nodes":"3","size_leaf_vector":"1"}},{"base_weights":[-1.4145597E-3],"categories":[],"categories_nodes":[],"categories_segments":[],"categories_sizes":[],"default_left":[0],"id":143,"left_children":[-1],"loss_changes":[0E0],"parents":[2147483647],"right_children":[-1],"split_conditions":[-4.2436793E-4],"split_indices":[0],"split_type":[0],"sum_hessian":[3.2154214E2],"tree_param":{"num_deleted":"0","num_feature":"13","num_nodes":"1","size_leaf_vector":"1"}},{"base_weights":[7.95529E-4,-2.3023515E-4,3.1222438E-2],"categories":[],"categories_nodes":[],"categories_segments":[],"categories_sizes":[],"default_left":[0,0,0],"id":144,"left_children":[1,-1,-1],"loss_changes":[2.5604224E-2,0E0,0E0],"parents":[2147483647,0,0],"right_children":[2,-1,-1],"split_conditions":[1E0,-2.3023515E-4,3.1222438E-2],"split_indices":[11,0,0],"split_type":[0,0,0],"sum_hessian":[1.5712054E2,1.5575598E2,1.364568E0],"tree_param":{"num_deleted":"0","num_feature":"13","num_nodes":"3","size_leaf_vector":"1"}},{"base_weights":[1.4061582E-3],"categories":[],"categories_nodes":[],"categories_segments":[],"categories_sizes":[],"default_left":[0],"id":145,"left_children":[-1],"loss_changes":[0E0],"parents":[2147483647],"right_children":[-1],"split_conditions":[4.2184748E-4],"split_indices":[0],"split_type":[0],"sum_hessian":[9.101059E1],"tree_param":{"num_deleted":"0","num_feature":"13","num_nodes":"1","size_leaf_vector":"1"}},{"base_weights":[1.2351492E-3,-2.9889762E-4,3.0784566E-2],"categories":[],"categories_nodes":[],"categories_segments":[],"categories_sizes":[],"default_left":[0,0,0],"id":146,"left_children":[1,-1,-1],"loss_changes":[2.3840806E-2,0E0,0E0],"parents":[2147483647,0,0],"right_children":[2,-1,-1],"split_conditions":[1E0,-2.9889762E-4,3.0784566E-2],"split_indices":[11,0,0],"split_type":[0,0,0],"sum_hessian":[1.039325E2,1.02662964E2,1.26954E0],"tree_param":{"num_deleted":"0","num_feature":"13","num_nodes":"3","size_leaf_vector":"1"}},{"base_weights":[-1.1927034E-3],"categories":[],"categories_nodes":[],"categories_segments":[],"categories_sizes":[],"default_left":[0],"id":147,"left_children":[-1],"loss_changes":[0E0],"parents":[2147483647],"right_children":[-1],"split_conditions":[-3.5781102E-4],"split_indices":[0],"split_type":[0],"sum_hessian":[3.216195E2],"tree_param":{"num_deleted":"0","num_feature":"13","num_nodes":"1","size_leaf_vector":"1"}},{"base_weights":[6.939042E-4,-2.451243E-4,3.0379586E-2],"categories":[],"categories_nodes":[],"categories_segments":[],"categories_sizes":[],"default_left":[0,0,0],"id":148,"left_children":[1,-1,-1],"loss_changes":[2.4110695E-2,0E0,0E0],"parents":[2147483647,0,0],"right_children":[2,-1,-1],"split_conditions":[1E0,-2.451243E-4,3.0379586E-2],"split_indices":[11,0,0],"split_type":[0,0,0],"sum_hessian":[1.5711833E2,1.5576991E2,1.3484128E0],"tree_param":{"num_deleted":"0","num_feature":"13","num_nodes":"3","size_leaf_vector":"1"}},{"base_weights":[1.0913106E-3],"categories":[],"categories_nodes":[],"categories_segments":[],"categories_sizes":[],"default_left":[0],"id":149,"left_children":[-1],"loss_changes":[0E0],"parents":[2147483647],"right_children":[-1],"split_conditions":[3.273932E-4],"split_indices":[0],"split_type":[0],"sum_hessian":[9.1062744E1],"tree_param":{"num_deleted":"0","num_feature":"13","num_nodes":"1","size_leaf_vector":"1"}},{"base_weights":[1.1622248E-3,-3.0281118E-4,3.0122438E-2],"categories":[],"categories_nodes":[],"categories_segments":[],"categories_sizes":[],"default_left":[0,0,0],"id":150,"left_children":[1,-1,-1],"loss_changes":[2.2714356E-2,0E0,0E0],"parents":[2147483647,0,0],"right_children":[2,-1,-1],"split_conditions":[1E0,-3.0281118E-4,3.0122438E-2],"split_indices":[11,0,0],"split_type":[0,0,0],"sum_hessian":[1.0392206E2,1.0266547E2,1.2565893E0],"tree_param":{"num_deleted":"0","num_feature":"13","num_nodes":"3","size_leaf_vector":"1"}},{"base_weights":[-1.0291935E-3],"categories":[],"categories_nodes":[],"categories_segments":[],"categories_sizes":[],"default_left":[0],"id":151,"left_children":[-1],"loss_changes":[0E0],"parents":[2147483647],"right_children":[-1],"split_conditions":[-3.0875806E-4],"split_indices":[0],"split_type":[0],"sum_hessian":[3.216699E2],"tree_param":{"num_deleted":"0","num_feature":"13","num_nodes":"1","size_leaf_vector":"1"}},{"base_weights":[6.2434195E-4,-2.5141615E-4,2.9585635E-2],"categories":[],"categories_nodes":[],"categories_segments":[],"categories_sizes":[],"default_left":[0,0,0],"id":152,"left_children":[1,-1,-1],"loss_changes":[2.2740724E-2,0E0,0E0],"parents":[2147483647,0,0],"right_children":[2,-1,-1],"split_conditions":[1E0,-2.5141615E-4,2.9585635E-2],"split_indices":[11,0,0],"split_type":[0,0,0],"sum_hessian":[1.5710902E2,1.5577579E2,1.3332335E0],"tree_param":{"num_deleted":"0","num_feature":"13","num_nodes":"3","size_leaf_vector":"1"}},{"base_weights":[8.4207405E-4],"categories":[],"categories_nodes":[],"categories_segments":[],"categories_sizes":[],"default_left":[0],"id":153,"left_children":[-1],"loss_changes":[0E0],"parents":[2147483647],"right_children":[-1],"split_conditions":[2.5262224E-4],"split_indices":[0],"split_type":[0],"sum_hessian":[9.110416E1],"tree_param":{"num_deleted":"0","num_feature":"13","num_nodes":"1","size_leaf_vector":"1"}},{"base_weights":[1.1124104E-3,-3.001299E-4,2.9465651E-2],"categories":[],"categories_nodes":[],"categories_segments":[],"categories_sizes":[],"default_left":[0,0,0],"id":154,"left_children":[1,-1,-1],"loss_changes":[2.1622261E-2,0E0,0E0],"parents":[2147483647,0,0],"right_children":[2,-1,-1],"split_conditions":[1E0,-3.001299E-4,2.9465651E-2],"split_indices":[11,0,0],"split_type":[0,0,0],"sum_hessian":[1.0390778E2,1.0266372E2,1.2440615E0],"tree_param":{"num_deleted":"0","num_feature":"13","num_nodes":"3","size_leaf_vector":"1"}},{"base_weights":[-9.076927E-4],"categories":[],"categories_nodes":[],"categories_segments":[],"categories_sizes":[],"default_left":[0],"id":155,"left_children":[-1],"loss_changes":[0E0],"parents":[2147483647],"right_children":[-1],"split_conditions":[-2.7230784E-4],"split_indices":[0],"split_type":[0],"sum_hessian":[3.2170114E2],"tree_param":{"num_deleted":"0","num_feature":"13","num_nodes":"1","size_leaf_vector":"1"}},{"base_weights":[5.7601085E-4,-2.5211062E-4,2.8827328E-2],"categories":[],"categories_nodes":[],"categories_segments":[],"categories_sizes":[],"default_left":[0,0,0],"id":156,"left_children":[1,-1,-1],"loss_changes":[2.1468764E-2,0E0,0E0],"parents":[2147483647,0,0],"right_children":[2,-1,-1],"split_conditions":[1E0,-2.5211062E-4,2.8827328E-2],"split_indices":[11,0,0],"split_type":[0,0,0],"sum_hessian":[1.5709523E2,1.5577644E2,1.318785E0],"tree_param":{"num_deleted":"0","num_feature":"13","num_nodes":"3","size_leaf_vector":"1"}},{"base_weights":[6.4222934E-4],"categories":[],"categories_nodes":[],"categories_segments":[],"categories_sizes":[],"default_left":[0],"id":157,"left_children":[-1],"loss_changes":[0E0],"parents":[2147483647],"right_children":[-1],"split_conditions":[1.9266881E-4],"split_indices":[0],"split_type":[0],"sum_hessian":[9.113708E1],"tree_param":{"num_deleted":"0","num_feature":"13","num_nodes":"1","size_leaf_vector":"1"}},{"base_weights":[1.080006E-3,-2.9323483E-4,2.8839944E-2],"categories":[],"categories_nodes":[],"categories_segments":[],"categories_sizes":[],"default_left":[0,0,0],"id":158,"left_children":[1,-1,-1],"loss_changes":[2.060737E-2,0E0,0E0],"parents":[2147483647,0,0],"right_children":[2,-1,-1],"split_conditions":[1E0,-2.9323483E-4,2.8839944E-2],"split_indices":[11,0,0],"split_type":[0,0,0],"sum_hessian":[1.0389165E2,1.0265927E2,1.2323757E0],"tree_param":{"num_deleted":"0","num_feature":"13","num_nodes":"3","size_leaf_vector":"1"}},{"base_weights":[-8.1661396E-4],"categories":[],"categories_nodes":[],"categories_segments":[],"categories_sizes":[],"default_left":[0],"id":159,"left_children":[-1],"loss_changes":[0E0],"parents":[2147483647],"right_children":[-1],"split_conditions":[-2.449842E-4],"split_indices":[0],"split_type":[0],"sum_hessian":[3.2171893E2],"tree_param":{"num_deleted":"0","num_feature":"13","num_nodes":"1","size_leaf_vector":"1"}},{"base_weights":[5.4245966E-4,-2.4915356E-4,2.8105931E-2],"categories":[],"categories_nodes":[],"categories_segments":[],"categories_sizes":[],"default_left":[0,0,0],"id":160,"left_children":[1,-1,-1],"loss_changes":[2.0293549E-2,0E0,0E0],